encog,BasicNetwork,java,3.4.0,1,1739558752393
[BASIC]
[BASIC:PARAMS]
[BASIC:NETWORK]
beginTraining=0
connectionLimit=0
contextTargetOffset=0,0,0,0,0,0,0,0
contextTargetSize=0,0,0,0,0,0,0,0
endTraining=7
hasContext=f
inputCount=3
layerCounts=5,8,8,8,8,8,8,4
layerFeedCounts=5,7,7,7,7,7,7,3
layerContextCount=0,0,0,0,0,0,0,0
layerIndex=0,5,13,21,29,37,45,53
output=-1,-1,-1,-0.9999999031,1,-0.0266704734,1,0.5257835458,-0.8871587597,-0.9999998993,-0.8690663026,1,1,-0.9840186123,1,-0.640345104,0.9315806303,0.4443121944,-0.1385242529,0.5028830496,1,-0.245405579,-0.9881009124,0.6003446716,0.768293433,0.8223489387,-0.9965395904,-0.1431282885,1,-0.2808016687,0.9521733712,-0.7970441941,-0.5992006814,0.712794725,-0.9335474183,-0.9891454364,1,-0.7868573724,-0.691735997,-0.8297608666,0.8689898914,-0.2204939882,0.1995649019,0.9216930686,1,-0.8782625923,0.8497196747,0.071888647,0.3509387744,0.2747439206,0.0822690238,0.4949862904,1,-0.525423729,-0.593220339,-0.559322034,1
outputCount=5
weightIndex=0,40,96,152,208,264,320,348
weights=0.4371648501,-2.6051786907,0.5216201347,302.8761563696,0.2017345114,-47.5660345162,-0.5706368295,-0.1653739053,0.3123952699,1.4219937119,0.2034103528,-0.5107974024,-1.029554163,1451.6246493784,-0.8562294385,0.1280389351,1.7445911969,-0.923653794,-134.4573111681,1.2920184709,-2.1854452913,0.270329941,-51.5988111854,-3.128370764,20.2814934791,-0.8947082031,-7.2962235624,-0.3842164633,8.0102015601,0.7916423155,4.5118762318,0.6960114347,584.512334493,-0.0507880027,0.4772272888,-1.9054028791,-0.276139967,-8.625092945,23.9562317094,-0.659675674,-0.4084304714,-0.1343511777,-0.4233814618,-0.6617698504,0.6061775008,0.0404447738,0.2281914924,-0.3273301866,-1.9436478844,2.5999343217,0.4040105347,3.4435032955,0.9990062607,0.3898386415,24.6155033873,0.8035764885,-0.6248919863,0.4970261491,1.4155434228,-0.2857963945,-0.6355971859,-2.3729458037,0.3509432049,0.4222565809,-0.0286238658,-0.1207745225,-0.3593389475,-1.0661486335,-0.4325345142,-0.2614254096,-0.2627044239,-0.2646361112,-0.4503381534,0.9263059325,0.6146673345,-0.4064099861,0.5661428167,62.1206434906,0.1939010921,-0.743064251,0.4354074494,-0.8292753399,0.6507780589,0.3806714657,-0.4856716239,0.2874023752,-0.0964065046,0.2946523687,0.6644816506,-0.2081096851,-0.7755881661,-0.1860495816,98.4800525199,-0.5717809253,0.7164567076,0.7739827315,-0.217672715,0.8814257013,-0.5766519062,-0.8878677668,0.8623694369,0.6744510585,-0.4974967637,-0.6731324028,4.2275996521,-3.3087271901,1.1138309946,0.9820984016,1.0937743028,-4.2775459156,-1.6851153208,4.7978837859,0.6662695146,-0.9743027841,-0.4956574778,-0.776884064,-0.0782051683,-0.3736990999,0.1701580118,-0.9472610387,-0.4521216621,0.2533780621,0.6132379525,1.0027588452,0.2534265663,0.1876961071,0.155809345,0.6720039816,0.4498411787,0.7255133391,0.7970046542,0.1973766595,0.9218909919,0.1510197568,0.4166356001,0.1267575974,0.7257543927,-0.8994569084,-0.0122622627,-0.1537057932,-0.8035340921,0.7248469476,1.1455214381,0.8224626897,0.3902943811,-0.750300774,0.0912029782,0.4692211697,0.020406222,0.6339768477,-0.4909842502,0.0370406638,-0.3485437421,0.2919313773,1.1673404342,1.2417051132,-0.2332343323,-0.0232708739,-0.8002845879,0.401019353,-0.806244069,0.4559798853,0.7607503266,0.3073026961,0.2108290198,0.7292945716,0.9423385263,-0.9666525746,-0.4959517897,0.4252441405,0.895163998,0.3787200003,0.173700415,-0.5718401146,0.2171818087,0.6471020094,-0.5242617575,0.4313649487,-0.7853436533,-0.7203385746,0.0304193717,0.1340677564,0.903255971,0.3975478163,-1.2447317183,0.2782687342,0.7325495557,-0.913675753,0.8995370873,0.3701649349,-0.1523634085,0.139618211,0.7449085199,-0.734146967,-0.3188012656,-0.0933203553,0.1933880673,0.7118278416,0.8329587893,-1.2301050257,0.3557531902,0.2131622499,-0.4157850857,0.4586694244,0.2929254925,-0.1805693442,-0.107018975,-0.786976349,-0.3394862487,-0.0742605323,0.5844201669,-0.370017786,-0.9048679842,0.020942166,-0.6012613763,0.5499037791,-0.3852730576,0.225551566,-0.995953841,0.436155742,-0.0058355051,-0.7080122163,-0.3062993434,0.9243284189,0.5507097898,0.5056650589,0.4334569644,-0.0335361231,0.8097858401,-0.0955489694,-0.0488421338,0.3241084317,0.9232037871,0.0616533008,0.1850094793,-0.3000360928,-1.043789846,0.7632658592,0.4771100721,-0.3307992173,0.328934612,-0.0550998279,-0.7565716408,0.1867617819,-0.5233594778,-0.0150850004,-0.7382481642,0.89153571,0.0217475513,-1.0081041038,0.9944048878,-0.8412937562,1.0572686018,-0.6106193966,-0.9426005997,0.4144208651,-0.0725278544,0.2281619823,0.7068939883,-0.5179378396,-0.5989837362,1.2200845293,-1.0157957589,-0.9073493538,0.5577484111,-0.711902363,-0.7406340066,0.2947238008,-0.2073200078,-0.0906693395,0.9493138929,-0.4240240672,-0.1406120791,-0.3546302979,0.4111793575,0.0562814302,0.019744051,-0.0940561211,-0.3511189621,-0.5466329964,0.3656230099,-0.5160560817,0.7650910855,-0.8218059912,-0.59668173,3.2688221044,0.3539811147,-0.4745539056,-0.3026846807,0.1459406611,-1.4329744512,0.4616141292,2.4273911451,-4.6108589887,1.0774518739,0.0592064731,0.291263793,0.6431604672,-0.2000771141,0.3516313537,-0.483306097,-0.9620685242,-0.3100082142,-0.2585094277,-1.0159558112,0.1831945684,-0.8666896746,-0.4225129604,-0.5391235036,0.491962768,0.1263507057,-0.5899735758,-0.253097293,0.7757952354,0.1378108455,-0.7869296597,-0.2554077957,0.2768802406,0.266166789,0.900569776,0.1634522257,0.6209181759,0.2907734121,-0.7512591283,-0.4098863055,-0.009126447,-0.5376302805,0.73365705,-0.5229229835,0.07557341,0.3202743764,0.0212249276,0.1830031588,0.2203168775,-0.7047188397,0.1991998638,-0.2185266603,-0.3911667324,0.6574638179,0.3028547382,-0.2825291869,-0.9317656956,-0.3173031022,-0.7962091319,0.1030524435,-0.6208213802,-0.05260642,0.1990817692
biasActivation=0,1,1,1,1,1,1,1
[BASIC:ACTIVATION]
"org.encog.engine.network.activation.ActivationTANH"
"org.encog.engine.network.activation.ActivationTANH"
"org.encog.engine.network.activation.ActivationTANH"
"org.encog.engine.network.activation.ActivationTANH"
"org.encog.engine.network.activation.ActivationTANH"
"org.encog.engine.network.activation.ActivationTANH"
"org.encog.engine.network.activation.ActivationTANH"
"org.encog.engine.network.activation.ActivationLinear"
