encog,BasicNetwork,java,3.4.0,1,1738948748265
[BASIC]
[BASIC:PARAMS]
[BASIC:NETWORK]
beginTraining=0
connectionLimit=0
contextTargetOffset=0,0,0,0,0,0,0,0,0
contextTargetSize=0,0,0,0,0,0,0,0,0
endTraining=8
hasContext=f
inputCount=4
layerCounts=1,61,61,61,61,61,61,61,5
layerFeedCounts=1,60,60,60,60,60,60,60,4
layerContextCount=0,0,0,0,0,0,0,0,0
layerIndex=0,1,62,123,184,245,306,367,428
output=-0.0388898482,0.9615589773,-0.9131756609,-0.9999467106,-0.9999000711,-1,0.999999981,-0.9893185185,0.9999178226,1,-0.9999954895,1,-1,-0.9957633824,-0.9410727115,-0.5063433006,-1,-0.9947529015,0.9997634523,-0.9997738553,0.9999844395,-0.9999782792,-0.9999709458,0.9983531945,-0.9999860613,0.9999987466,-1,0.9999859272,0.9996563403,-1,0.9999326661,-0.9999287871,-1,1,0.999999393,-0.9999370214,0.9999069876,0.9988921538,-1,-0.9999995089,0.9995675829,-0.9999980286,0.9999983593,1,-1,0.9999950579,0.9777419716,1,1,0.9992309378,-1,-0.9999976436,-0.9988279893,0.9999999911,0.9995309311,-0.9999964431,0.9999505581,0.9999999964,0.9999843791,-0.9999991713,0.9999993842,1,-0.9999822533,0.9983833196,0.9930046258,0.9999529783,0.9999997985,0.9998945145,-0.9835300603,-0.9972287484,-0.9978633683,-0.9998739691,1,-0.9991623553,-0.9999779336,0.9999999337,-1,-0.9995664005,1,1,-0.9999489281,0.9801672258,0.1833637109,-0.9542584652,-0.9987569217,-0.2177413323,1,-1,-0.9987739922,-0.9999770971,-0.9999933487,-0.9891161997,0.999970317,-1,-0.9918464684,0.9979348602,0.7478975422,-0.7219624228,0.9942056281,1,-0.9999994878,-1,1,-0.2369503421,0.9999999883,-0.0371889961,-0.9999975635,1,0.9999521086,1,-0.999834298,1,1,0.9981483795,1,0.9996299663,1,-0.9998075418,-1,-1,-1,-0.9999020231,1,1,0.99972773,0.9927833193,1,1,-0.9995529279,-1,-0.9999999996,0.5631378271,-1,1,-0.9998544614,0.9998053871,1,1,-0.9998659265,-0.9998756426,-1,-0.9999983311,-0.9743002099,-0.9845453531,-1,1,-1,-1,-0.9994216472,1,0.9808800489,-1,-1,0.9958296923,0.9915311395,0.9999998505,-1,-0.9999987684,0.9974481612,1,1,0.9797889307,-0.9994253161,-0.4132891549,-0.9751032089,-1,1,0.9991949048,-0.6602831505,1,-1,-0.6911975969,1,0.9999955471,0.5653737866,-0.9999973366,0.9816507358,-1,-0.9999997924,0.9978768881,0.9999700787,-0.9999999997,0.9991090755,1,1,0.5423766282,1,-0.9104583601,1,1,0.8405696577,1,0.9408382878,-0.9993461189,-1,-0.9999693224,0.842068893,-0.1034836754,-0.9997786125,-0.9999759289,-0.9948874121,1,-1,0.9999820222,0.9535866976,0.9973405398,1,0.9988567154,0.9934364417,-1,1,0.3109879926,-0.999999999,-0.994883364,-1,-1,1,1,-0.974159411,-0.7717578809,-0.9766636797,1,-0.951882556,-0.7521836042,-1,0.9911173348,-0.9194166422,0.9993247104,1,-1,-1,-1,0.9970049074,0.9506857811,-1,0.9999366407,-1,-0.986908705,-1,-1,0.3024678957,-0.8363572813,1,-1,1,0.9999941592,1,0.9999999994,-1,-1,-1,-0.716655716,-0.1506174916,-1,0.987508911,-0.9766070979,-0.4188834602,1,-0.9779394503,0.999249843,1,0.5147341635,0.2220047182,-1,-0.9421222707,-1,-0.9999997649,0.9999997883,-1,0.2442098127,1,-0.9898508826,1,-0.9999926155,-1,-1,1,0.9984073778,0.9752132809,-0.9999999999,-1,0.1476527479,-0.9999300756,-0.9999314596,-0.9429289169,1,-0.9999999999,-1,1,1,1,-1,1,1,1,-1,0.9999800233,1,0.9739683854,-1,1,1,0.9999999998,0.6557573445,0.9999958072,1,0.7507621892,0.9593672525,-1,-0.9974241478,-0.8732002851,-0.6159071411,-0.9990518208,-0.9593683634,-1,1,-0.9963069587,0.5559514259,0.9885604025,-0.994745386,0.970311582,0.9996128273,1,1,1,-0.6430375702,-1,-1,-1,-0.9956269464,-1,-0.5445040744,-0.8484109791,1,-0.9999989541,0.9985065351,0.6586864256,-0.7880711652,0.8458987176,0.8424676652,0.9992660898,-0.9425214035,0.8903320292,1,-0.9998754584,-0.8693374593,-0.9946139233,0.9998718281,-1,-0.9861159864,-1,0.9988796606,0.9461859108,-0.2383560609,0.9996226744,1,1,-1,-1,0.9992206566,-0.9892884029,-0.7496590886,0.9530219734,1,0.9854438759,0.9047896235,1,0.0427936575,-0.50050435,0.464005204,-0.8774492238,0.6722285959,-0.2558641136,0.0351919025,0.6595777111,-0.6053424215,-0.6177023658,0.5256052962,-0.6763741962,-0.4357093684,-0.2674447862,0.0763742341,0.2325261185,-0.8290476553,-0.2615210109,-0.7980856719,0.3125772774,0.5608358449,0.2528967855,0.0071928493,-0.6206273328,0.7468533445,-0.5669589618,0.6594190609,-0.2441361288,0.388009963,0.5993270078,-0.4390790394,0.6041241369,-0.8398170168,0.0234699385,-0.0567094421,-0.081250484,-0.446747727,-0.6071662824,0.3027276397,0.7875236783,-0.7631776296,0.827980722,-0.0879117001,0.5709462395,0.2955987293,-0.0910959103,-0.4927373682,-0.3325944318,-0.6036738806,-0.6775585992,0.1888947432,-0.4627202871,-0.3670296969,0.1004036646,-0.0234036037,0.3809185255,-0.6863658737,0.7215717822,-0.2189036332,0.0836719757,1,-0.016,-0.038,-0.049,-0.048,1
outputCount=1
weightIndex=0,61,3721,7381,11041,14701,18361,22021,22321
weights=##0
##double#22321
   -0.1345508858,0.0204867014,-0.5236140587,0.5710707206,-0.1114787807,0.2567632453,-0.0402495791,-0.830449014,0.2094639053,0.3465349669,-0.8827651699,-0.2682492114,-0.9467291369,-0.2343132028,0.1268627666,-0.6736835169,-0.1291252318,0.0352760648,0.0811145933,0.9291741328,0.7215150275,1.1653753512,-0.5541859818,-0.1574600269,-0.7323996976,-0.3635078675,-0.4629782536,0.1400878242,0.0981863303,-0.6915867679,-0.8900150963,-0.7945962534,0.2879355257,0.6468556255,0.1395343265,0.0516718631,-0.0458341367,-0.0834797195,0.4556243878,-0.1102630518,-0.4468887537,0.3275975861,0.9189395949,-0.1030787018,-0.4772762356,0.0094382739,-0.1560551789,0.6748433904,-0.0016500832,-0.6324627847,0.3361190557,-0.0003624787,-0.6126009133,-0.0393913595,0.3041922359,0.0795178273,-0.8682079151,0.2183787346,0.8138230842,-0.4789117931,0.983841756,-0.1240630942,-0.1798861845,-0.8820947685,-1.0301828657,-0.2546566237,0.632206261,0.6919012427,0.5661388286,-0.6582416116,0.0315389069,-0.4826531188,0.4863317182,-0.3258733869,0.6145683698,0.1209307994,-0.0537758837,0.2034113016,-0.08999524,-0.7675197521,-0.2155575496,-0.4872304013,-0.6121550574,0.6632903193,-0.2747756041,0.8699971097,-0.566891763,0.8077790349,-0.21908841,-0.1290041646,-0.8248847262,0.7894496299,0.1853969498,0.4039093393,-0.3341079621,0.3155514501,0.1529552015,1.0576340532,1.0065448524,-0.4058942084,-0.2204107209,-0.3767801106,-1.1070514237,0.2372070785,0.5860792899,-0.3850065647,0.1790334023,0.4954250423,0.6262400424,0.0360721557,0.5987623535,0.4963120621,-0.1917012123,-0.8461407942,-0.6735400539,-0.1450667003,0.7342171058,0.780174797,0.4957989658,-0.2496758718,0.6232269794,0.6233308452,-0.045681618,-1.1535807264,0.0987499293,0.0955194676,0.6653419728,-0.5521075082,0.7749854939,-0.713733598,-0.6069327267,-0.7121327176,0.29777743,-0.2604984829,-1.0902104814,-0.4178557621,0.0890856516,0.9687621173,-0.7058209241,0.6685321892,-0.5012936131,-0.7018122486,0.1117007827,-0.7744238797,0.3423869918,1.780778268,-0.6267088525,0.1082654834,-0.5602474443,-0.0968793358,0.9775785937,0.568749598,0.8086472278,0.9178849289,-0.5961501752,-0.3025774999,-0.5059272986,-1.4879932107,-0.596219202,-0.6320534882,0.1495436147,-1.0027798322,-0.9902744848,-0.2490255263,0.2426977947,-1.1052145605,0.5991929453,0.3241519231,-0.014428173,0.4892926489,-0.1072300369,0.4399196787,0.1654268623,0.6783963556,-0.6561360729,-0.1883897387,-0.5658679738,0.7608086524,-0.1978602979,0.807531609,-0.7131923178,-1.0898478506,-0.8432306426,0.5644528988,-0.6002041919,-0.7461210159,-0.6111633798,0.2188368103,-0.8088531681,0.5474101727,1.1135626852,-0.3610488623,0.8653269824,0.1227181496,-0.127996181,0.4465440551,0.2303530996,0.6599127132,1.0022513556,-0.0532573931,0.407279614,-0.2593618462,-0.6039319714,-0.4326839178,0.3468557934,-1.0190828233,0.4123624961,-0.6323782826,-0.1226803095,0.4840993133,-0.908487878,-0.3718211976,-0.4067991895,0.6064969556,0.686071247,-0.4070633361,1.0219369692,-0.9404306436,-0.796424804,-0.3226390626,-0.5163382738,0.1554493778,-0.1073071381,0.1624388717,-0.773020002,-0.8122907085,0.6928274716,0.0747365455,-0.2588659768,1.0239757736,1.0364556039,-0.1916229962,0.0887355388,-0.7192926358,-0.8339911094,-0.2743744642,0.3598529344,-0.1741435453,-0.4466441237,0.4331035845,-0.2861697186,-0.7287748365,0.4625525876,-0.3786398028,-1.2876294574,-0.5064586814,-0.909190666,0.817752121,1.0405311835,0.7358306319,0.598612474,0.1088195854,-0.7921278325,0.8451278839,-0.6028849343,0.8781411633,-0.0948218205,0.5698410887,0.3647576185,0.2226260009,0.2600782169,-0.1005524704,0.0999821824,0.6152435832,-0.8812749776,0.643184878,0.9868946758,0.7526845286,0.3900588892,-0.5591363073,0.7974334746,0.7648027982,-0.6979358271,0.6925350451,-0.1424936739,0.2314263329,-0.6146590039,-0.4538634881,-0.4162021513,0.7308323842,-0.0963180201,0.2036223177,0.9186359207,0.7693739858,-0.4286925676,0.7423252614,0.8418740431,-0.0935832783,0.6205302773,-0.1866491595,-0.8173007756,-0.6561416592,0.5304610501,-1.2203722259,0.7778860366,0.3468749617,0.2792299253,-0.660073944,0.6137312296,-0.5529595891,-0.4904774032,-0.0418513797,-0.6299359321,-0.5279765948,-0.5824773451,0.6579317043,-0.0885869297,0.3164228866,0.1316868699,-0.8572882261,-0.3508848503,0.4154650718,0.6816275507,0.6503728541,-0.0358201651,-1.0207893805,0.7488672076,-0.1187552885,-1.5771378198,-0.2271298114,-0.7344813521,-0.1166961974,-0.8254205357,0.5322715861,-0.3012406272,-0.0394061656,-0.2006152984,0.0885498153,-0.1285968023,-0.9834723793,-0.3864309499,0.6257433647,-0.3513841713,-0.2037057636,-0.8466322044,-0.2516893884,0.119455358,1.2219129821,0.4012199642,-0.2170150885,-0.6808977235,-0.1844659657,0.4063266501,-0.0446464617,0.1292848943,-0.107730592,-0.5648346276,-2.0576781684,0.0000897293,0.6778792625,-0.68770568,0.3743994528,-0.5110681379,-0.1678613313,-1.0992062287,-0.7417005481,-0.1757260427,-1.0881387149,-0.0596220988,-0.3213339975,-0.4205937638,0.5479671828,0.7052525576,-0.405761693,-0.9672436556,-0.1721843629,0.2266785167,1.0066250574,0.5930510859,-0.7503734506,1.1279011181,0.145799192,0.0902878816,-0.5445836007,0.1314834315,1.2643229997,-0.9129604555,0.5048461837,0.6330580433,0.1780404604,-0.0483482873,-0.9354844364,0.7886225241,0.0702480928,-0.6871985028,0.3243832282,-0.270944971,-0.8792706566,-1.0566496452,1.469867126,-0.6040507149,0.0239953703,0.2486505696,0.8541566782,0.1416337371,0.1518028247,0.2734777425,0.2078134376,0.318504541,0.3294672322,0.3876087283,-1.1826348695,-0.517545848,-0.4090993664,0.3299690023,-1.1084072086,-0.3530285653,0.262029178,0.5662323062,-0.5107817307,-1.1289252592,1.8141394053,0.7364784678,0.1114653252,-0.7023297101,-0.5500398743,0.7652794908,-0.7696083571,-0.3744918888,0.7437648643,-0.4189389487,-0.7803491229,-0.3864085314,-0.4963526496,-0.4916096417,-0.1803388671,0.3372594284,-0.7807896686,0.4699374974,0.8927208825,0.0272330238,-1.0510634027,0.594126503,-0.1571091222,0.1478516318,0.1599646238,-0.7854901768,-0.1407853397,0.2389258786,0.8505313613,-0.2948782507,0.1256019769,0.3555984509,-0.5697206055,-0.9711771102,-0.4922157605,0.4167304009,0.3533055916,0.8799892586,-0.8077651819,-0.3882359388,0.1379495505,-0.7796828217,0.1525478549,-0.4161800456,0.5164922176,0.2719521043,0.6768488581,0.6815418155,-0.3545324471,-1.1728518971,-0.009487167,-0.0249491004,-0.0918371722,-0.1275627948,-0.9862922317,-0.297365781,0.3486720768,-1.2596287242,-0.8475627382,0.7119175454,-0.3409053341,-0.6285145256,-1.1347763419,0.3188911014,-0.2884008019,0.3355740135,0.3272801129,-0.1796170095,-0.9967459932,-0.5088505444,0.6083225334,0.3998633196,-0.0233464964,0.6730751008,0.4760956703,-0.4724725948,-0.5626619589,-0.2628913827,0.287660279,0.773976304,0.2287516057,-0.2781162564,-0.9046610175,0.1320620198,1.0650810099,-0.9094279024,-0.0005944876,0.7565293688,-0.8777575275,-0.2320587618,0.4073956252,-0.831729546,-0.3677790944,0.1752617983,0.8769942747,0.4070973978,1.0395575079,0.1511000329,-0.617778426,0.8998999682,0.4099734623,0.2895105911,0.3446814478,-0.0480735759,0.3097789651,0.0276358745,-0.8264356777,0.0835977303,-0.3313538659,-0.0056978274,-0.0883035708,0.6845230781,1.0711670916,-0.5789945795,-0.3614015924,0.9604362192,-0.749154207,0.3842677936,-0.4998006279,0.8158730649,1.8614296213,-0.5279281697,0.1303927809,0.3341497229,0.418132871,-0.7514451666,0.4218064099,-0.7596867103,-0.3127542938,-0.6603363363,-0.9507784493,0.3890062569,-0.8085852237,0.7045467216,0.3852439216,0.3583897207,-0.0405451108,-0.1324180051,0.494664595,0.8491676727,1.5102350824,-1.1860271314,-0.4556119299,0.3297183849,-0.1512034642,-0.0725767102,-0.7512024642,-1.1053300114,0.2497798011,-1.2156314388,-0.2970121839,-0.6136272751,-0.3709991739,0.2249899813,0.5640703455,0.903432943,0.8942273779,-0.5858473288,-0.508741908,0.3007993458,0.3705239253,-0.3661105199,1.1527415131,0.2913169519,-0.5771899,-0.3530402047,-0.8920151462,-0.043525556,0.7501825366,-1.1340591376,-0.7972909639,-0.5965088791,1.2333022438,-0.0755733497,-1.1963364771,0.7842574634,0.4228602031,-0.4772922596,1.359864084,1.3753928147,1.117119429,-0.0163935771,0.5899966064,0.5973891768,1.3595573653,0.7636061516,-1.540531441,0.335459905,-0.4519201497,-0.3550573723,0.7494738272,0.3161861052,0.1719566694,0.5255464036,0.0705397873,-0.5438362461,-0.4287914609,0.8955857937,0.3519857625,0.2285406067,-0.0750734719,-0.1248504782,-0.8015945985,0.9289510117,-0.269135868,-0.8660502746,0.5277864882,-0.9409386307,-0.5356124758,0.5940065715,0.9684387035,-0.4811267311,-1.1762423007,-0.5153102822,0.6617958676,0.6315654161,0.0769843431,0.4153842909,-0.174856013,-0.1451028516,-0.7656164794,-0.5765624253,-0.5409260805,-1.0935194051,-0.891729883,0.0828292645,-0.0991816193,0.624370085,-0.6496638142,-0.920879396,0.6012359086,0.6365692239,-0.882595973,0.3246147345,0.3643931782,0.0507966855,-0.5570038284,-0.0614759101,0.1567351688,0.0794059079,-0.5732701471,-0.4193605634,-0.630822274,-0.1154118551,0.7008862412,-0.3097419192,-0.4836602846,0.6892128445,0.3105973717,0.0406447081,-0.7735397265,-0.5866846239,0.6435055923,-0.9280740733,0.9792675544,0.6908820215,0.8288661748,-1.1444861025,-0.2799284727,-0.9992910354,0.370580691,0.1158094411,1.2493444681,-0.2219017959,-0.7811920338,-0.449558882,-0.1767109889,0.0937445048,-0.7816193189,0.4059968543,1.1611349904,-0.9925193768,-0.4530851224,0.4839547272,-1.1945533353,-0.9162704488,0.9573872128,1.6442004966,-0.8474333145,-0.0472550526,0.5909527063,-0.8321226956,-0.6129408614,0.7776928293,-0.4798962654,0.5035889767,-0.3766540282,-0.8589969882,-1.0174859666,0.3565537584,-0.3032266634,-0.9953048021,-0.238580755,0.1496744541,-1.0650570785,0.2098531413,-0.42028829,0.6017711458,-0.3181700159,-0.4888628408,0.3876985443,0.6149305388,0.0736101715,0.167834532,0.4027585894,0.9411459225,1.1383840763,0.7928525063,-0.6254951556,0.3586672816,-0.6356628276,0.6026913242,1.2769677632,0.5850934681,0.262181976,-1.1353016337,-0.8659909556,-0.9726315591,-0.3860628987,-0.8156767901,0.7354117398,-1.4040751374,0.9474088112,-0.9278119537,-0.4348771197,-0.9373479063,-0.7547979675,0.5977744496,0.0492694457,0.0948871646,0.4245843998,-1.1484655628,0.1011872781,-0.0972238794,-0.1678972076,-0.4560711797,1.0436815256,-1.1096459146,-1.4215929487,0.1125278486,-0.6703979236,-0.7384160927,0.2416967058,-0.2066374974,-0.3281850933,-0.9642323904,0.3163900736,0.7004216477,-0.0655579724,-0.0390277225,-0.1167103934,0.8315416353,1.1931301655,0.1770913715,-1.4485863957,-1.0183848457,0.8711214716,-0.6591951481,0.0502838344,0.8749192116,1.5050201683,0.5281790694,-0.9013749406,0.570867481,0.3578121226,0.7034227496,-0.8678727873,0.0106593127,-0.4889652636,-0.1051684023,-1.1169928684,1.2133045827,0.6731223655,-0.1018950059,0.4033448989,-0.0886983533,-0.4223512051,-0.0129632835,1.0177250217,0.4670295606,-0.3470035793,-0.4780817416,0.7811485987,0.8624353259,-0.6507953626,0.5719561657,-0.7397251795,0.3752141421,-0.0450229595,0.1354863393,1.011443865,0.94819579,-0.4015330689,-0.0810660756,-0.239825934,0.9134180734,0.6218061257,0.9996567339,-0.6903234331,-0.3940652527,0.6416825484,0.4307397472,-0.5259894078,0.6367835904,-0.4272077043,-1.2972047355,-0.6479141788,-0.4037326411,-0.1491078156,-0.8045312815,0.4492663622,-0.1156079883,-0.1277169065,0.2653452221,-0.0911094632,0.5872342368,0.0790353155,-0.2639189759,1.2892430082,0.7796951297,-0.750268516,-0.4764417763,-0.5117622317,-1.0874538537,-0.6235019101,-0.7801904247,-0.7416440117,-1.671299995,-1.0958513044,0.5514108998,-0.0371669331,-0.4462421291,-0.6293285363,0.751520902,-0.4384583734,0.8233391516,0.1310648108,0.5615394126,-0.4301880108,-0.3989741055,1.0779801887,-0.1248532031,0.0019475183,1.1654623543,0.2072099215,0.0170154997,-0.650956695,0.7383837793,0.949664705,0.5647982198,0.6045800701,-0.1229531908,-0.4480960854,-0.1992867562,-0.7043823952,0.1811711872,-0.5313913513,0.0677205348,0.1445805193,0.8863240427,-0.4722080932,0.4478549808,0.2501142379,0.3631108094,-1.2507758816,0.5704268707,-0.007811596,-0.2420570227,0.6843167073,-0.8535518412,0.0197047805,-0.387735172,-0.3454033557,-0.0213464867,-0.3312414528,-0.1382831839,-0.4296986996,-0.7382511976,-0.6999775602,0.6626064726,0.8767688918,0.8729749524,1.0115205895,-0.7546680282,0.1603906154,0.5345914455,-0.162261769,-0.0514579181,-1.1852974855,-0.2303785314,-0.4753739308,0.0707439597,0.6440035025,0.8300695643,-0.5608245132,-0.6402015893,-0.9020872444,-0.6829764461,-0.9743309071,-0.1733249551,-0.3766158524,0.1145587424,-0.8062528158,-0.7393020751,-1.223654501,0.8677621251,0.0930326842,-0.0405508589,0.2515535512,-0.2658724642,0.3612099068,-0.5224096679,0.9713333588,0.4877609497,-0.5763680626,1.0007178439,0.8477434991,-0.7008691975,0.0195209051,0.1416038406,-0.3113569934,0.856410485,0.9165238317,0.169424784,-0.8593639381,0.0740321928,0.3169309105,-0.3077799944,0.305952924,0.9733711139,-0.1795446752,-0.9486216286,-0.8842608025,0.0180881135,-0.1167655076,-0.5320039686,-0.2020430619,0.4570457651,0.7180211079,-0.0789354603,-0.5388768026,0.5338532813,0.4363080379,-0.0664862944,0.9691502165,-0.13997887,0.5971156989,0.827733753,1.383930855,-0.7873312371,0.3199656844,0.3558043613,0.3804822174,-0.5272863049,-0.5795116054,0.9967120618,-0.9771467381,0.9566030722,0.3066970729,1.0607388477,-0.1467206592,-0.5779658885,0.8695002405,-0.752266832,0.5406061521,0.5079361409,-0.5085706222,-1.2851827635,0.9373307632,0.0210403446,-1.2765255101,0.3066935121,0.4353276617,0.5377100325,-0.458211354,-0.86855183,0.8814538939,-0.9495389309,0.3615726383,0.1064802486,0.7834935871,-0.2468345413,-0.2362016005,-0.2978848198,-0.5973289572,-0.2599322943,0.074864988,1.2514049028,-0.0098841607,0.2053054501,-0.4326986796,0.7089608685,0.8034380092,-0.8260832951,0.3523167363,-0.4066614881,-0.1011659196,-0.612629852,-0.1448056334,-1.1656175242,0.1167211739,-0.6551170542,-0.490363038,0.8317977103,0.9667399878,-0.9898423977,0.796356839,0.6453239251,-0.2155015114,0.6221778027,-0.0024591408,-0.4836531037,-0.8115233413,-0.3205727589,-0.7689026275,0.522547071,-0.6165696185,-0.4742746383,-0.0994904783,0.3584227388,-0.425463012,1.0620095964,0.7650171114,1.0349572684,-0.6496106973,-0.3706242109,1.3505467823,-0.380827849,-0.4275555583,0.9966506939,-0.662934839,-0.889338901,-0.8242844802,-0.0646537188,0.4097582205,0.6274242418,0.7079876068,-0.5852931718,-0.394021599,0.0238342294,-0.1653494616,0.1729013673,0.2386071896,-0.767132521,-0.6726946416,-0.6590659287,0.150083021,-0.5967361794,0.7948373414,-0.3434813046,-0.4543406745,-0.6175537284,0.7511787493,-0.399129036,-0.5334917415,0.7923492285,-0.2024717662,0.5160324089,0.8331125273,-0.09591847,-0.4652615382,-0.4911295387,0.0369349323,1.1526059119,0.0930870642,0.5601868704,0.2832204885,-0.3456968112,-0.826978586,-0.7363617739,-0.7179373754,-0.2892314492,0.6387956236,-0.0731434357,0.6069617338,-0.1161243975,-0.9279558419,-0.4394560263,-0.5552387533,-0.4116899378,0.7187931494,-0.8907404869,0.4070034352,-0.7920576609,-0.467086318,-0.5179322473,-0.1244327539,0.115333732,0.1000531992,-0.3249752774,-0.4614384332,0.732523727,1.4256885484,1.0825776656,-0.4972918054,0.2804764608,-0.2363017724,-0.2210310031,-0.9715227425,0.3485556831,-0.2092964995,-0.5508879366,-0.7829736621,0.8591172658,-0.3206068751,-0.5625642156,-0.1742305696,0.121956334,0.6076761036,-1.1868315587,-0.9105395388,-0.5285138237,0.3059439492,0.2110745004,0.0823523238,0.7690895631,0.8377287074,0.299279899,0.0124712311,0.0750923572,-0.3154688385,-0.1823297009,-1.653034946,0.4504313984,0.6883413661,-0.4533763495,-0.271378715,-0.0336690235,-0.0058431005,0.7592971645,0.7856545192,0.6025489327,0.2940114037,-0.7602094256,0.2837794818,0.3025040638,-0.1407019363,1.0599713137,0.2358593173,-0.7692976369,-0.7648374537,-0.5194263919,-0.0865431296,-0.8323126108,-1.0205598026,0.9780082539,0.0926372094,0.8226510079,-0.2474128474,-0.7680107515,-0.5745868391,-0.5589032284,-0.1097585851,-0.0420483578,-0.377996023,0.2171144552,0.9061606379,0.7200696476,0.6140598471,0.2980133384,0.172714947,-0.3244687564,-0.7495339352,-0.7300681578,-0.8562378662,-0.1376158587,-0.0289788519,-0.8971739642,0.0952791952,-0.2807937985,-0.837572355,1.0674321071,0.7360158133,1.3048070111,0.5004182909,0.2133226493,-0.9714303913,-0.4676337367,-0.6132472153,0.451400475,0.7712685558,0.3278895966,-0.1425705905,-0.9384806617,-0.5337276302,0.0583328093,0.1820686178,0.9088963118,1.1022977399,0.7159330114,-0.387117873,0.3177629854,1.0070057306,0.0258697602,0.6336100208,0.1055548726,-0.0647669544,-0.4079566496,1.1072425498,-0.1714552695,0.2923761293,-0.5556951597,-1.2548229376,-0.4020943181,-0.4076180955,-0.4580796428,-0.0401750061,0.8457831797,0.8960056037,0.7672778626,0.5571275185,1.0442784507,-0.2375769669,-0.1036368722,0.7487598975,0.323059409,0.6581748342,0.6627557182,0.7561121353,0.816770981,0.222057463,-0.077349934,-0.3810626136,-0.5272214385,0.4270240696,-0.150189052,0.2610265669,-0.5252028894,-0.4180728955,0.0255192174,-0.200304132,0.3489185641,0.9200938693,0.8407122492,1.1407168705,0.7804579806,0.3003391701,-0.2104682452,-0.8848771448,0.7089314745,-0.4381027777,-0.5042368609,-0.0139836685,0.833324875,0.7158086654,-0.468752033,0.5597998168,0.259188525,0.7414657665,0.8550440372,0.6706435366,-0.1460568992,0.0556620708,0.4613964889,1.0735474408,-0.9838242262,0.6709658234,-0.1093337396,0.4932408205,0.0214145772,0.7250288293,0.7356734085,1.0680013218,-1.3197337293,-0.6559334492,-0.3269364181,-0.3215563872,-0.938944478,-0.4249568449,0.8898585588,-0.0242265571,0.5398543836,-0.2558484381,-0.4802635985,-0.2996695053,-0.7473806675,-0.88792451,-0.0794195112,-0.2143757381,-0.9507379608,-0.9905406641,0.6983518988,0.1198757712,-0.8759395309,0.8985926872,-0.4056151464,-0.849764561,-0.2510109071,-0.7158913091,-0.6353447543,-1.462123272,0.328515268,-0.3927734442,0.8713278972,0.8825247769,0.4227805431,0.3236136432,-0.0727245567,0.1051899528,-1.0767177137,-0.5186622542,0.945187074,0.682474521,0.4933409258,1.148431354,-0.7379384281,-0.0332326903,-0.7504703238,-0.72012899,-0.3234721974,-0.9931483849,-0.4978573701,-0.830783826,-1.1651326303,0.0604640854,-0.7797680717,-0.2045652232,-0.8292554916,0.5735919781,0.2794614944,0.1404518616,0.8009178444,-0.2956700569,-0.1278322057,0.5202674708,0.5057019901,-0.2778449079,0.2383174873,-0.0876519205,0.8972969011,0.8470520304,-0.0183038616,-1.0384041075,-0.8070916461,-0.4733738515,1.0618883882,-0.2227813732,-0.2831827858,-0.0100331959,-0.5463553778,0.5965498541,-0.3940554466,-0.3497190714,0.9805928713,0.2811877287,0.9189600548,0.147193881,0.7480803649,0.2546602774,-0.3200551944,0.3303167689,-0.6932411292,0.2918498224,-0.4407210641,0.776661069,-0.6865949327,0.7247131622,0.9659404031,0.2684218018,-0.4345955361,0.0159110601,-0.3095306941,-0.4172256698,0.7074489523,-1.2399568407,0.3317027517,0.6689106312,0.8428688057,-1.110175718,-0.2867839139,0.5823870213,0.5322667556,-0.9151200897,1.0165350388,0.0559779298,1.2437975864,0.5419637747,0.119059637,-0.6511153075,-0.6567443235,-0.6214325819,1.1864492924,-0.3442523708,0.8483399493,-0.0807596701,-0.3659060805,-0.0610534013,-0.1888161376,0.3991960497,0.8503212482,-0.995103504,-0.9998903531,-0.7218005911,-0.3639562737,0.226833933,-0.8654217065,0.3561053388,-0.4684177639,-0.3856138571,-0.7285666474,-0.6828537701,0.1787937034,0.1846216295,0.030450677,0.5605909086,-0.194370755,-0.8361966906,0.7679640724,0.6922207152,1.1846706214,-0.0960919895,-0.7132530835,0.8349303985,0.5487955279,0.3961912421,-1.1332014913,-0.5379734381,0.4007689329,-0.5598506756,-1.0641470393,-0.652647708,0.5579478179,0.0118022605,0.0184372477,-0.910291218,-0.2643151393,0.4813771749,-0.1582623973,0.0550672132,1.2151303094,0.6501242048,-0.758205614,-0.9130174643,0.4820604777,0.0994031859,0.6088584328,0.1027544367,-0.0510994951,-0.7595211798,0.8247644893,0.3069991361,-0.002141144,-0.3971367158,0.9272711235,0.525427998,0.1563248819,1.2252344704,0.8093676952,0.3537947658,-0.6261167264,0.6735921139,0.4509056329,-0.5818456474,0.5973204326,0.1347022239,0.3255835071,0.824490486,-0.9106112046,0.7477250015,-0.836309426,-0.2813781343,0.1739081149,0.2189720834,0.0986048694,-0.5884477723,-0.4755600348,-0.8111146719,0.3173735796,1.2631859751,0.5890980724,-1.033455407,0.6139014862,-0.1832349947,-0.986458279,-0.535548738,0.508837964,1.4706984925,-0.3528263162,0.2675472036,0.6773325523,-0.3725135531,0.0282220381,-1.0227376607,-0.7472466473,0.7972235985,-0.133927606,0.0992362325,-0.4059634335,1.2420753475,-0.2544844353,-1.0829158317,0.7502981553,-0.3308396642,-1.4217215208,-0.177108454,0.7417160228,-0.7110060182,0.1311993181,0.4379670056,0.5274644119,-0.4719600562,0.6299737101,-0.1108049485,0.8760520479,-0.3572419541,-0.0481727393,0.734579609,1.0644180886,-0.2921363816,0.875576113,0.0111256204,1.26876697,-0.5588042,0.0294427053,0.9668501179,0.2527904494,0.3076835371,-0.6530697244,0.6619944246,0.1008852409,0.0669564893,-0.472910706,0.8581803742,-0.3315561261,-0.6056414122,-0.3946933351,0.1812462746,-0.9198940674,-0.4283921923,-0.3485152329,0.8736243066,0.8758757283,-0.0880287107,-0.0481900022,-1.0045837443,-0.5145548217,0.5695447774,0.1688944658,-0.1431945028,-0.3090640706,-0.9418654442,-0.6558808269,-0.1813006674,0.6393355695,-0.0230260886,-1.0852652498,-0.3184786079,1.2175144594,-1.5134701691,-0.0783855701,0.5117292368,-0.5427598319,0.6830523811,-0.8882872951,0.2612464244,-0.1184359763,0.8517585389,-0.9873239841,-1.0386528639,0.0187847663,-0.0662869531,0.6555132184,-0.0760371259,0.8435378321,-0.5906813381,0.0393706258,0.7095495922,0.2438714785,-0.7248867342,-0.3260532982,1.1466122236,0.582285263,-0.8501370358,-0.5285820395,0.2065123757,-0.3856332348,-0.9741962941,-1.6638503687,0.9218676996,0.4611758219,0.2329094641,0.8362446463,0.0700199872,0.8500320248,1.1444489306,-0.7556646215,0.7375214288,-0.1162258568,-0.1481730073,0.5910353606,0.2530988543,-0.2141457187,-1.125424471,-0.2086578514,0.2394764183,-0.7509383003,1.0941869473,0.6983333275,0.2654087608,-0.113912486,-0.5087575776,-0.0315334746,-0.6170333826,-0.2515670602,0.0460154192,-0.9828236226,1.1508773771,-0.0962068846,0.4417639663,-0.8338504981,1.2128360172,0.3338584286,0.3369620627,0.9279012011,-0.5903669243,-0.6543619946,-0.4256843972,0.3992107406,-0.8855922382,0.0763631021,0.258812948,-1.258426811,-0.9208662431,0.7447954522,-0.3837282556,-0.2765107324,0.2645543576,-0.8988860893,-0.7181784463,-0.3560068507,-0.5581136065,0.2425647656,1.0071796835,0.591642244,-0.7200672025,0.6322389271,0.6264286841,-0.2638806427,-0.5766233847,0.9654278758,0.74595846,-0.8528051765,0.94931728,-0.7173680601,0.6998500204,-0.7160225461,0.4676466756,0.7975788774,-0.1212503251,0.1639455001,-0.6988307816,-0.2649953272,0.5453899104,-0.2584191137,-0.6776880394,-0.427522251,0.752016839,-0.2737290166,0.12820255,0.5396632553,0.6067198841,0.5239486302,-1.4497408996,-0.6678215967,0.8395975447,-0.1455424358,-0.5760878788,0.1761764865,0.0594631465,0.8273954503,-0.9883967627,0.810222113,0.125684811,0.8934045766,-0.1273036092,-0.0317045211,-0.1169485789,0.6575199446,-0.0365973688,0.3592479623,-0.0231232355,0.1715235395,0.6612896611,0.4413736846,0.0070577703,-0.0069312999,0.1257334751,0.6368037347,0.6380088787,-0.9019253826,1.0540042432,-0.9042799494,0.9254553008,-0.0771776022,0.2056917903,-0.6765194735,0.708470385,-0.4588765639,-0.2459528059,-0.4788128437,-0.6564677631,1.1082067954,0.7661809871,-0.219737785,-0.9589915826,0.0369595375,-0.1567675009,0.7825982433,0.0432976529,0.0800631485,1.0716888634,0.4920135464,-1.1241030837,-0.2683183123,-0.125327064,-0.9389905362,0.4686521552,1.0982844534,0.4002221418,0.1824420413,-0.3407663885,0.4306314503,0.5365611751,-0.4806104175,0.9083300177,0.7639325731,-0.0415890282,-0.8722078641,0.6313910137,0.3659497363,0.7840415173,-0.0769784422,0.0699863516,0.1992848057,0.2213409402,0.5038530931,-1.0990244158,-0.059145209,0.8400394747,-0.0566399919,-0.7160153592,-0.0165898208,-0.3449125492,1.0606319026,-0.1382644139,0.2190948581,-0.6190195432,-1.0225206964,0.0520454169,0.8452114095,0.6214277623,-0.9359048195,0.3395803059,-0.4237279114,-1.0323117591,-0.5730515593,0.9021364743,0.6271130244,-0.4778658505,-0.7480869004,-0.8001844143,-0.1548872189,-0.7188770606,-0.0941952538,0.5417913331,-0.5731621475,1.0246560181,-0.0359950449,-0.2563395278,1.2982439618,0.5237305426,0.4358193889,0.0619121664,-0.2753483625,0.3179609838,-0.5967166059,1.03803738,0.1681364239,-0.9727743137,-0.6147768771,0.0334493216,-1.2457918357,-0.9584274632,0.2540608371,0.0936662068,1.5238233529,0.689207763,0.0656874895,-0.0681648161,0.6549150566,1.0842131513,0.1225235323,0.8368765515,0.7852229642,0.6073994946,-0.4868369795,0.1005860938,0.8824471738,-0.8995910714,-0.2071122851,0.7387415698,0.295301131,0.0503947869,0.0661291245,-1.4706920999,-1.5706277197,0.7020018208,-0.8616649909,1.1372679224,0.1008962663,-0.4157068188,-1.2076690818,-1.5955033373,1.6394558111,0.5228303198,0.2186417608,1.1616283331,-0.5905035299,-0.9387168486,-0.5147474064,0.6794149141,0.5225150423,-0.1943757779,-1.0077111625,-0.007532154,0.4041746942,-0.6241533727,0.8439495861,-0.0477634798,0.7153481185,0.3827392265,-1.1558195675,-0.4931896033,0.7177985929,0.4827459105,-0.8235817386,0.5125478956,0.1843819029,0.6786215679,0.6724009742,-0.4418430022,0.4282809772,-0.518441572,0.5244325129,-1.1668964784,0.1788074298,0.8056139303,-0.5019483187,0.8705746873,0.0054327037,-0.3550567684,-0.1590581821,0.7109768143,0.2835835933,-0.5132591539,0.0745346321,-0.1897188386,0.0688354978,0.4936180103,-0.2932517754,0.4703248198,0.5960668615,0.4338540495,0.199250481,-1.1505461582,0.4482496662,0.88355443,-0.6196511571,1.1581658156,-1.1511260945,0.1374504368,0.355910848,0.5566438444,1.2535137014,-0.2585815849,1.1977576295,-0.796901215,0.570951595,-0.8602793727,0.3075240594,-0.5015537884,0.8011378975,-1.0809867356,1.5536450083,-0.687074819,0.4349081503,-0.7907706381,-0.0469747152,0.6360843181,-0.4123235741,-1.1995043009,0.8468057182,-0.1462350087,-0.1212542148,1.1748695041,-0.4870784017,0.1296008199,-1.3786074911,0.4057733227,-0.1229435718,0.1873748884,0.8073873166,1.0901621637,0.8154882537,0.5988597089,-1.2593706136,-0.466643846,-0.2360459834,0.2916220084,-0.4400573253,0.388180653,0.8857696502,-0.3840764158,-0.4540858115,-0.003958599,1.5978908757,-0.325340449,-0.6767751047,0.2671620803,0.7234788233,-1.0098011412,0.0202676803,0.185983222,-1.2594258331,0.3771195577,-0.0854781099,-0.0050069703,0.5336843381,-0.8564672396,0.1894223388,0.3849584356,0.7695883431,-0.9795878987,-0.1829858542,-0.4731504165,0.3601279775,-0.625204477,-0.0949527517,0.1808047077,0.1321618387,0.3520339933,-0.1679492759,-0.1368328451,-0.9345489541,1.1259734442,-0.1948576057,0.3149132143,-0.2939169552,-0.0099182076,0.219739184,0.707850567,-0.6244822704,1.2161335794,-0.5543878619,-1.0208174255,0.6354255554,0.6022927613,-1.2320382596,-0.0724511305,-0.6010073001,-0.3589516484,-0.2927231675,0.6381540474,1.0517879484,-0.2514714263,-0.7813518683,0.7127149831,0.1670630196,0.7882504967,0.403140427,0.2936748351,-0.535646505,1.0728278836,0.670237994,-0.297430929,-1.101316241,0.4511401316,1.0207145135,-1.1980966104,-1.0060907534,-0.1425976985,-0.873468352,0.6446093456,-0.658448635,-0.8708756546,0.7750873687,-1.0477743285,-0.738706584,-0.756594167,-0.7220300968,-0.7412293258,-0.789517288,-1.1174760511,0.2016741586,-0.9980002794,-0.9842546826,0.9116613822,0.6538489059,0.4161155467,0.5094967448,0.4811003758,-0.2992686202,-0.9060024855,0.0396972398,0.9338708117,0.293772305,0.1986556607,0.2234041977,-0.0572845765,-0.8189841776,-0.5669305527,-0.4251551232,0.5970739218,0.8048150805,0.8108754341,0.9682305754,-0.0696732342,-0.7171506375,0.6230503045,-0.6779082927,0.4683857848,-0.1348013498,0.1767012447,0.6994020505,0.4441603932,-0.5291390138,0.5829399902,-0.4575337016,-0.1344086387,-0.7985316535,-0.8402576935,-0.8508406025,0.8925253859,0.0455628904,0.6276596003,-0.3061038958,1.2938287272
   -0.8228811938,-0.3089007084,0.0610054587,-0.4040531798,-0.5324705439,0.3624949779,0.6416555807,1.1899012,0.1242509639,-0.4914395482,0.8453476567,-0.0968984585,-0.9795028284,0.8195380874,-0.076393616,1.1557252559,-0.8568772526,0.0736091126,0.8604866157,-0.4699933196,0.3401048045,-0.5985149586,-0.9609723518,-0.3210022516,-0.6493168798,0.9863891937,-0.1787461504,1.4869550883,0.2228389334,-0.8997508165,0.9639675806,-0.5727381596,-1.0147864595,0.2701299916,-0.95399323,-0.9271645128,-0.6212356462,-1.0554030547,0.6138583043,0.4953152098,-1.0183237732,0.5531238666,0.7255190216,-0.7764121587,-0.0298340897,-0.7309015484,0.0805169453,-0.7819554132,0.0563926913,0.5790239971,-0.5855027532,1.0141738906,0.6553074734,-0.4438042556,-0.5543869948,0.6172850218,-0.8413516993,-0.8118439912,0.3961103715,0.2869049691,-0.4827683,-2.1711447416,-0.5803642072,0.0620416471,0.444384918,-0.9158547892,0.1720487644,-0.2042795552,0.5923283427,0.7024750825,-0.3975033392,-0.2502110592,-0.2474526663,0.0408015071,0.3447854578,0.511704299,-0.3769216691,1.0342651735,0.5659352968,0.1333236834,0.1137017334,0.4493129511,-1.2269013576,-0.0674954105,-0.5053533239,0.6844643063,0.7097708729,0.6509609772,0.8974684852,0.7233250162,0.4752826692,-0.7382000706,0.9864783444,-0.2686991323,0.7717491275,-0.6286138308,-0.6705432175,-0.4445002309,-0.9237167979,0.8355158633,0.7919819934,0.7065421887,-0.2165526683,0.0312187306,0.027981913,0.9690538784,-1.132751107,0.5513283735,0.6050806288,0.5638100138,0.4769747058,0.4126040509,-0.4070570136,-0.3118724274,0.8596064959,0.8718987866,0.6529481845,0.4470371694,-0.1787600106,-0.6360221661,-0.5575327047,0.0291087441,-0.542179931,-0.953938831,-1.1539274019,-0.7543801626,-0.3108255614,-0.2322633819,0.2965896036,-0.3379038135,-0.9762031713,1.0463719726,0.6269068614,-1.0588532519,-0.5059167256,1.0340350946,0.468208535,0.5838842745,-0.1878374062,0.2240369543,-0.288831782,-0.244003863,-0.2824104979,0.4206875642,0.9298395189,-0.7335353077,-0.5039968795,-0.3767317232,-0.869679712,-0.7302887811,0.1545642664,0.5389493374,0.0657149208,-0.9844390865,-0.4681054024,-0.6018349615,0.1190043007,0.1788026137,-0.6020018652,0.0014259085,-0.816437652,0.9553040176,0.6909287081,-0.3907861467,0.8666382086,0.9134818358,1.2640850858,-0.2973243687,0.2875327555,0.0351336571,0.0026127346,-3.3310063797,0.3077493653,0.5070000204,-0.5846323722,0.2071329226,-0.9855527764,0.8813227841,0.9228380832,-0.7275088708,-0.9461190132,-0.7919251742,-0.5807994258,-0.619184956,-0.0966916748,0.3415393571,0.8970171356,0.7342624418,1.2106194589,0.5698963794,-0.60135713,0.009029567,0.175263479,0.9063869147,1.0362117083,0.0344252836,-0.8478996344,0.8447053314,-0.9472079227,0.9390804461,-0.5451709578,-0.3457436012,-0.0013328769,0.79791083,0.1183939993,0.3252321751,-0.4122118657,0.8485942454,0.3710598418,-0.5739303541,-0.1080443551,-0.9053769159,0.5737045506,0.8041882136,-1.1285730409,0.1761135431,0.4860453389,-0.4295021413,0.5716235666,-0.9235703795,-0.1404467559,-0.7860169142,0.601120262,0.9959369717,0.5460415614,0.0219876409,-0.5581683053,0.1099002558,-0.5809904036,0.7615487569,-0.6662904402,0.7357911526,0.7487920521,1.0508752014,-0.3780746351,-0.8916121517,0.3677151042,-0.9044163062,0.655599281,-0.1150124969,0.127925881,-0.5004733749,0.7256650295,-0.4062679643,-0.4454805252,0.696901617,0.1354030319,-0.7621994853,0.6630087522,0.8716356037,-0.1621253432,-0.0106888499,0.4309992463,-1.004865907,0.2990413344,0.7150343538,0.2891694032,0.1932524927,0.050757267,0.957910237,-0.3476529388,-0.4050250292,0.3942381722,-0.1254086421,-0.1289443985,0.8742005838,-0.9517615745,0.9469461144,-0.1601854337,-0.0644748291,0.8481116826,-0.4525483186,-1.0792712468,0.8026257423,-0.9177408918,-0.2318483943,-0.0723519265,-0.7539202346,0.2828579118,1.1713497105,-0.990651708,0.9744195422,1.2713679437,-0.126843135,0.4398520441,0.4385910372,-0.7285163107,-0.5098239208,0.6791468081,0.092955292,-0.9906627768,-0.4231289312,0.3661038169,-1.5151768203,-0.0147830016,-0.7461412922,-0.2987018201,0.5806266562,-0.1571021222,0.6705513517,0.1579857387,0.5456351383,-0.3389744663,-1.3232531742,0.3854767215,0.7341497574,1.3293904417,-0.5439074412,-0.7267879975,0.4990212161,-1.4597396842,-0.9084120814,-0.185003316,-0.315493665,0.4227499276,-1.0323758508,-0.8594773432,0.5109238341,0.5010976536,-0.332938627,0.7539485798,-0.9482297412,-0.7248893523,0.0466386768,-0.2594609923,-0.4596765919,1.154359158,0.3030248372,0.8544845289,0.3896889176,0.0031443752,-0.872248918,-0.1247681498,-0.3311943213,-0.9887482473,-0.4259099979,0.7123194981,0.1376357115,-0.4916333881,0.8182131794,-0.6916897334,-0.8617045874,-0.4303000821,0.9941506235,-0.43022344,-0.5825792488,-0.874620864,0.0382854912,-0.8592559635,0.5872274939,-0.3259012621,-0.8379523412,-0.388077846,0.7102043649,0.4779235711,-0.8814966909,-0.2168748605,0.5663273958,0.873108316,0.3772397515,0.6536217297,-0.081577788,0.4372985927,0.3687996369,0.2659080019,0.4818025299,0.2468506309,-0.3270569687,-0.518778045,0.0707741801,0.5656722265,0.3371667497,0.886521026,0.5335650685,-0.5731243664,-0.0559069762,0.3812383792,-0.331159438,-0.3428709713,0.4602791726,-0.9409082264,-0.4880253911,0.392666917,0.3618215001,0.265826148,-0.9996958231,-0.7956687315,0.433490858,-0.7725564402,-0.7060717222,-0.6567275977,-0.8611548265,0.9791646333,0.2017064587,0.0344625212,-0.6564944907,0.2972400694,-0.7242333908,0.7507225177,-0.1202956109,-0.1030602702,-0.1881602508,-0.1480302709,-0.5969044892,0.1544314107,-0.6264900804,-0.7555256246,-0.7085095581,-0.0898372554,0.3911295499,0.3614026858,1.4081166434,0.1015197225,-0.6121042725,-0.670536058,0.3114152865,0.9147388965,0.1400961454,-0.1473716663,0.6654386272,0.744941539,0.1993781156,-0.0176999462,0.0817622305,-0.7484767749,-0.2855964727,-0.3098982988,0.2534447288,-0.5198627448,-0.064142766,0.1492078821,-1.046653965,-0.272963547,0.4556236064,-0.5415007298,-0.5767609574,-0.4071927806,0.6600655991,1.1372567844,0.0962772788,-0.1029588092,0.0996066373,0.257496962,0.7417853671,0.0406598711,-0.2151912409,0.2034352907,-0.0381419385,-0.2971020655,0.5237591044,-1.0065235101,-0.3270976918,-0.6301702176,-0.2814464199,0.9918792211,-0.7239402591,-0.1236196438,-0.7429539184,0.6469021604,-0.7598905777,0.9949445787,-0.0293309388,-0.2373761364,0.4244848775,0.3402885397,-0.7354344198,-0.8445191856,1.2500595964,-0.0841913521,-0.4732098878,-1.0576836906,0.6219424453,-0.7353118092,0.4305022287,1.0380855393,-0.0998404961,-0.2870879955,0.3984172427,-0.2209083558,0.8804805844,-0.8734011957,0.160260269,-0.5242641119,-0.1547795578,-0.6831506289,-0.9017740926,0.1208046643,-0.4301453681,0.6224282991,-0.7896290335,-0.5907434354,-0.4367399969,0.4438934756,-0.6803709597,0.159956536,-0.6507254524,-1.2202952031,0.7878757052,-0.131917442,-0.7839941033,0.3996613548,-0.6136452032,-0.6776105474,-0.4125072621,0.0655172296,-1.0378260473,0.3495217853,-0.2006758507,-0.3327355036,-0.6743553665,-0.1599730519,-0.0731887764,-0.5972114062,-0.7266675179,-0.0569926753,0.8836600686,-0.50543588,-0.6691245943,0.2989291646,0.455700506,-0.860859273,0.1527641435,0.1195441339,0.0624870257,-0.6994106158,0.2364606004,-0.0883770143,-0.0319966399,-0.2864281863,-0.2570776286,0.853214126,-0.0829213094,-0.1815571175,-0.1617909873,0.9215800743,-0.1549334144,-0.029780903,0.4131745939,-0.2181835006,-0.5664351682,0.3482490537,1.1721441513,-0.9474626774,0.020488551,-0.5353791839,0.0404661113,-0.5319292002,0.0291476251,-0.2276956097,-0.5005913835,-0.9475966756,-0.529757764,-0.9159708208,0.1758271023,1.1901392138,-0.9713221377,0.0730165267,0.4992560495,-0.3552096489,0.0622134052,0.0526541218,0.9838949257,1.0546082693,0.7368358576,0.4624667679,-0.2465147521,0.6045466377,-0.9214008194,0.6707752778,0.0402068023,0.0479243232,-0.9218569244,-0.4079822068,-0.9338096658,0.7044485673,-0.5589207521,1.190794186,0.8418398447,-0.0103917689,1.005119211,-0.1166915773,-0.9996612937,-1.5631479578,-0.6294618674,-0.5592626937,0.6617265922,-0.4051547608,0.4056518181,1.2082850397,-0.4685576852,-0.0468749612,1.0275797062,0.2644148131,-1.0173919298,0.9148957803,0.0094883169,-0.1340639492,0.4187820604,0.5263420823,0.2990271673,0.0803698309,0.2719345007,0.359176722,0.2361602161,0.8154477031,0.0091431929,0.3104079491,-0.7266305438,1.2343107037,-0.695099912,-0.5113389463,-0.4624682322,0.6719544186,-0.0523689524,-0.4551150014,1.386088794,0.2313112425,0.6333688935,0.8633358913,-0.743466794,0.7592776435,-0.0932275561,-0.3045020168,-0.6792982654,1.1047467262,-0.7683342738,1.289702576,1.0561591371,0.5366880152,0.3049551748,0.1573248692,-1.5752477784,-0.4975147263,-0.3495493796,0.1023071452,1.2186015035,0.77936457,0.8976677107,-1.0199394603,0.4260977328,-0.0644528187,-0.6104502392,-0.1129224078,-0.4013741531,-0.2888481365,0.0305765129,-0.4437126967,-0.0615887159,-0.0415956353,0.3660474677,-0.7342653209,-0.5446018477,-0.8079349316,-0.6253549814,0.4399507987,-1.6878685149,-0.4219227155,1.1603524908,-0.1918997873,-0.6105081162,0.0797727079,0.0693542042,0.360859988,0.1810168304,-0.5963171955,0.5731302814,0.3364655157,-0.3400033766,-0.5237992627,-1.2767098465,0.5782681113,0.7481071122,-0.9632144596,-0.8050872126,0.4921842671,0.0962029366,-0.9435232675,-0.5064726168,-1.1468743835,-1.1281683379,1.0441284782,-0.5771181746,0.6043448555,-0.6272653911,0.7466773581,-0.6211313884,-0.1189716949,0.5490372482,-0.9997271865,-0.6213614944,-0.6326500572,1.1880882385,1.1379137257,0.6404754284,0.6058467977,0.2201359272,0.5368503877,-0.2054307768,0.0363129214,-0.0654191908,0.3850173227,0.6024540456,0.269738469,0.1177349911,0.4768108405,0.4148457972,0.3266669645,1.1336544117,-0.9322233638,-0.2889730549,-0.1766409035,-0.8156932819,-0.6605282148,0.8025350813,1.2748174845,-0.7794200304,0.2388755204,0.246791982,0.2247528306,1.0322050045,0.5547153471,0.0179306167,0.333688089,-0.4020995098,0.7237069427,-0.6458835174,0.6802192864,-0.1408774409,-0.806417656,-0.1339085386,0.6953548534,-0.5658345162,0.2807183582,0.8181839934,1.2392088416,0.2288254887,0.0436055598,0.3144101305,-0.9414921785,0.7586045626,-0.3272504369,0.5067466236,0.3226658427,-0.1310686957,-0.4400490768,0.6275319047,-0.5288558885,0.4908228103,0.5226354529,-0.1665291677,-0.2820703248,-0.6280313044,-0.4037243315,0.765144229,-0.7818570677,0.4285665216,-0.3270045851,-0.7032802895,-0.4267974217,-0.5125483067,0.4819168388,0.6062810932,0.2098181536,0.460577845,-0.5676826502,0.0009457635,-1.1348365261,-0.6092860526,-0.5449261957,0.4675142335,0.1565014781,-0.7736330236,1.0142522063,0.4333187325,-0.716235256,0.4863610015,-0.7090503152,-0.4376127218,-1.1150262948,-0.3831700998,0.9966888549,-0.3139495835,0.5253766278,0.1838681499,-0.6216542426,-0.5959148631,-0.0313773456,0.7960624768,0.2509061783,-0.1773275478,0.2006009555,0.6877069624,-1.316110257,0.358504347,-0.0710318531,0.1268595411,-0.0921312885,-0.2688642177,0.9907010846,0.4143308771,0.3788314385,0.0366792502,-0.5891230797,0.3988951151,0.4447636452,-0.6152827086,-1.2918667378,-0.2496002886,-1.1413376197,-0.0398446567,-0.5625011884,-0.3039846791,0.8428378987,0.5921935554,0.3605073534,-0.0033613178,0.1368518915,0.1061582106,0.754963468,-0.498229163,0.0195738489,0.8082307365,0.5656548844,0.9433928917,0.85410156,0.0769837561,-0.103019527,-0.1900960258,-0.7872029017,0.5757267718,0.1489027777,0.471359059,-0.4752566136,-0.5250158061,-1.1188281549,0.4189060669,-0.0328465894,-0.9449431563,-0.6007671348,-0.6060746984,-0.5460231594,-0.0340522299,-0.0486326331,0.0874476351,-0.2976339622,-0.6449217854,0.7196020004,-0.8924226859,-0.7889089063,0.315909168,-1.2127361997,-0.8510694836,1.1158835356,0.1097562207,0.1739580085,0.2738959743,1.2981593819,-1.0587169893,0.5192908644,-0.1682455076,-0.1252710735,-0.5658446867,1.2941715678,-1.0572263443,-0.4547499459,0.3757156393,-0.525508021,-0.8681901561,0.2197900005,0.5367906123,-1.2066069157,-0.6993296035,-0.0251260629,-0.3691313891,-0.7230210529,0.4289745744,-0.0152264664,-0.6280106256,0.0649460167,-0.0274171172,-0.1009535842,0.6499825386,-0.7465272362,0.2277089307,0.7463617026,0.1003925063,0.4581624865,0.0114612977,0.21496415,0.0125484404,0.6280092262,-0.7088043046,-0.7027366898,-0.412498132,0.5179117787,-0.8230491729,-0.1297145455,0.1906304715,-0.1809937343,1.1035310818,0.3466132021,-0.4799451419,-1.0090979888,0.2965778494,0.4078085583,-0.3450099922,-0.6062860378,-0.169332282,-1.1401631924,0.9152666756,-0.3165925299,0.5321990242,-0.3502206639,0.9623368367,0.3485436278,-0.4959403235,-0.7454517321,0.079045501,0.3291893867,0.6598264355,0.3080361463,0.9560948784,0.9952017052,0.7287457601,0.0500719244,1.6579354004,1.1266312804,0.3241789292,-0.2864192515,1.395709421,0.7575910783,0.5908866504,0.1155009593,0.9720132209,-0.8512027819,-0.5941446732,0.0245962932,-0.7404505375,-0.5403427279,-0.4238196523,1.0181460872,0.7152429601,-0.2547843025,0.0894171951,-0.2054945785,0.1312677567,0.5401012939,-0.6833069203,0.4734538328,-0.2998969058,-1.1728329675,1.2471714477,0.4962799209,-0.3480611778,0.2170005914,-0.1218604113,0.1527003606,-0.7318980556,-0.6414811316,-0.9823491181,-0.7026749011,0.1910213717,0.2487743596,-0.9041067503,-0.988732657,-0.556223995,1.3137755747,-0.2788950273,0.8211718416,-1.2595317547,-0.070375728,-0.30799095,-0.1194582446,-1.0445641117,0.6096584832,-0.1092483017,-0.08675299,-0.2690148322,0.6264130388,-0.0614008601,-0.1458718712,0.7943109444,-0.5752424246,0.1113137237,-0.5361522096,-0.2471111489,0.7833445368,0.4403646571,0.9989281006,1.2285832879,-0.2924202276,-0.98206305,0.9708513994,-0.2858864897,0.509044833,-0.591588958,0.2021016919,-0.0913656127,0.3023929506,-0.6343622125,0.9345544393,-0.2825760739,0.8634352754,-0.029973664,-1.4880369673,0.9500535447,-1.0883827454,-1.102576658,-0.1674602297,1.0554925692,-0.0441016865,0.9829056143,0.1708097597,-0.138888172,-1.1183101798,0.8370751827,0.1611822336,-0.490943023,-0.793131629,-1.0001900934,-0.8066256881,-0.5988606511,0.4127277607,0.719986847,1.1673723319,-0.6314114938,-0.2109950296,-0.4016230566,1.2561761436,0.3349427947,0.6909603602,1.0883217002,0.1257767349,-0.1683239951,0.5283951878,-0.1565848186,-1.1963433145,0.062952895,-0.4471501534,0.2706877239,0.4171135933,0.9045136018,-1.221482897,-0.5512994634,-0.678245796,-0.7730520975,-0.8408152368,-0.6396442987,-0.5985797489,0.6618779439,1.2749423671,0.2848089407,0.7642718574,0.2429293299,-0.8262323474,-0.288061273,-0.5920768333,0.1742870379,-0.0077294441,0.2697663267,0.8716537463,0.3689812866,-0.2891759226,-0.5191931817,0.6706135996,-0.2321250401,-0.0298815107,0.2605563534,-0.5480298755,-0.2093121595,0.0859632363,-0.7188137364,0.91510893,-1.030590697,0.4845579414,1.4133291092,0.8982098214,0.2134672633,-0.8919276412,-0.5219483727,0.4678286914,0.6049462123,0.3460432503,0.7417827788,-0.7040459037,0.8784929437,-0.2265644141,-0.7573528091,0.5934902905,1.319463849,0.852435761,-0.8198648019,-0.3064284528,0.8944117151,0.8262295727,-0.8050439457,-0.1416600622,1.2546480449,0.7778335925,-0.351102735,0.6481691436,0.5235868722,0.239677574,-0.3034695449,0.7329624958,0.8488295069,-0.7366853944,1.3046285237,-0.2118970218,0.0885783962,-1.273051981,0.836829845,-0.0076439495,0.0398983637,0.1136890242,-0.743237848,-0.3363561674,0.2715171772,-0.4969511558,-0.0462224745,-0.7779172641,0.1838935476,0.6649315722,-0.6084097442,0.4918317351,-0.6940201039,0.621955189,-0.1500591339,-1.3777869176,0.4298879823,-0.7474470941,0.6725627408,1.5830038834,0.5198837551,-1.0790634475,0.5365264636,0.4313441808,-0.3576162036,0.7629266328,-0.5250499568,-0.0172928896,-0.2158424685,-0.2332584711,0.5555283548,0.0526874826,-0.6055235352,-0.3369066059,-0.2627524099,-0.7155066421,0.6893241029,0.6144228195,-0.4786183544,0.6610206557,0.4042939204,-0.390345272,-0.6563612045,-1.1427866061,0.2355942999,0.8106045997,-1.0635820725,-0.7964946221,0.1371609359,0.5145593832,0.2329881041,-1.1304795919,0.3805803199,1.0674664011,-0.1493124039,-0.819067149,0.0055122698,-0.9615699803,0.2152981011,0.225619292,-0.7197537428,-0.1124103485,0.2051758951,0.3445278285,-0.5574797282,0.6511203524,-1.3064538372,-0.2241673552,-0.2909382658,-0.3651164335,-0.9576252803,-0.5700401424,-0.1552865599,-0.8927237589,-0.027064942,-0.2859684534,0.705447509,0.6954067496,0.8433371974,-0.0689500135,-0.8386738204,0.8360646425,1.1072067127,-0.8029494098,0.0667246154,-0.1327551103,-0.2015588232,-0.4318701632,0.5968836961,0.4794397231,-1.209439842,1.2137255336,-0.5176253874,-1.1056370176,0.8739524294,0.5199981126,0.3196266757,0.9327287552,-0.948509095,0.7386704021,-0.345211375,-0.4868987054,0.2926219586,0.6689427726,0.5277339087,0.5260705764,0.0019854109,-0.4075311141,0.2653989879,-0.2127655491,-0.7145275107,0.8205904718,-0.0883568056,-0.0117902999,-0.9793003622,-0.4699951654,-0.2724771514,0.8026739374,1.1146032238,1.1996722394,-0.0746328568,0.9610864529,-0.0267136382,0.1883904015,1.094247088,0.3555255494,-0.4165262493,0.5725787764,0.7217474843,-0.5152423998,-0.2210482061,0.2430991569,0.1714652951,0.0965144457,-0.3832830844,0.8606618732,-0.815890949,-0.5285400561,0.6285440592,0.5294662901,-0.8548986781,-1.0051939043,-1.1642162946,0.1346093108,-0.5812873392,0.4385112749,0.6121509639,0.6473555256,-0.5961327833,1.0842225438,-0.7440992737,-0.7981313589,0.7910978613,0.7279985129,-0.0004116807,-0.2291451361,0.2995071101,0.4640253299,1.3240152241,0.3139328188,-0.1874685273,-0.7344910386,-0.809473015,-0.8201529875,-0.1838592013,0.8710897417,-0.6944806798,-0.3834847626,-1.1167322873,0.0910113979,0.1428759078,0.6329467047,0.2537508445,-0.0325274657,0.3612924374,-0.2859551688,-0.4602385117,0.4651305953,-0.2500895834,0.5117016693,0.9741408915,-0.0149044241,-0.4395544145,0.7645315823,-0.1473644314,-0.6098904046,0.1233288835,-0.4327513671,-1.0291333132,0.0056162602,0.2065610869,-0.0444289281,0.2299192295,0.4614513817,0.6971400309,0.7099155325,-0.6222972811,0.534508088,0.1208948047,0.1123225418,0.3555019712,-0.2952105107,0.0736721453,0.760251561,0.2620404436,0.3638436553,-0.2174320321,0.4496323209,-0.3039919988,-0.5057328389,-1.0005454931,-0.9533056443,0.6007519155,-1.1696156723,0.2388762284,-0.7696705216,0.1605345976,-0.2701857139,-0.3966150577,0.6918558632,-0.7254877343,0.9468450964,-0.821287328,0.3952783671,-0.1246156315,0.4981082924,0.151274139,-0.3998523011,1.0319241777,-0.5173466396,-1.2814317493,-0.4624335127,1.0394745705,-0.6617859288,-0.914807041,-0.1960348477,0.1015809381,0.5607094538,-0.3003268687,0.1459425156,-0.1489234504,0.3106212264,-0.4701484579,-0.6733655719,1.0070236086,0.3255942832,0.4907613293,-0.8198453151,-1.0692991919,-0.5390854794,0.3424029002,0.8309719023,0.2349444579,0.0127563204,0.1089557242,0.7005333344,-0.6721898336,0.2019384927,0.4191133461,0.1692022131,0.296328665,0.780998939,-0.7574613302,0.0000475639,-0.4092369732,0.757515475,-0.5194743114,0.8136094639,-0.2494181558,0.8766178825,-1.1750100491,0.8835587899,0.2046643002,-0.4722113321,-0.7143008549,-0.7769970689,0.0411230221,-0.5703777754,0.7878016363,1.1577097514,-0.5406611772,0.111134958,0.698353874,-1.1872418913,-0.7977093872,-0.3247303252,0.9918461627,-0.3066773828,-0.894079233,-0.5275463932,0.1808993297,0.7437853905,-0.1856290507,0.9927117294,0.8131299253,1.0883152609,0.9891693913,-0.1397519794,-0.6433555221,-0.2932080492,0.9519581297,-0.3331380461,0.0537474981,0.7258945079,0.5687071364,0.3077386738,0.3238447194,0.8957441838,0.494041326,-0.6717731057,0.3199220933,-0.9368039167,-0.4856554653,0.701358319,-0.4062447689,0.7193249198,-0.0835366517,-0.2084885213,-0.5688809751,0.9356245323,0.0755798469,-0.5620133311,-0.3119560351,-0.3084463714,-0.8940832295,-0.4585913796,0.7220925019,0.8557434387,-0.4714209109,0.2964293426,-0.6289086001,-0.6536272928,-0.5273308715,0.4524047752,-0.3962981839,0.1624061054,-0.762470024,0.179762364,0.0109362934,-0.5982224797,0.870618538,0.203374064,0.6431529549,-0.1093793544,0.7652568091,0.0399666581,-0.4820755281,-0.8773104781,0.640847536,0.1523173156,-0.1454135474,0.972214523,0.2542231984,1.0705483168,-0.3547232769,-0.7286845537,-0.8946784268,-0.8405784985,0.3823680857,-0.6249542667,0.1061084685,0.2065850681,0.3725872056,1.0656006643,0.0206059172,0.9319614803,0.3794284175,0.3135477607,0.2849837235,0.8779912714,0.7322371999,-0.9924721376,0.6923091095,-0.0808916079,-0.806480549,0.7796612572,0.1434970289,0.6192884199,-0.1460837137,-0.1802544349,-0.9497696501,0.4971498928,0.742310022,0.7787310887,-0.156354447,-0.5672840326,-0.6586347426,0.2100538313,0.5759495164,0.4715349208,-0.2580570998,-0.7654169924,-0.5774161341,-0.9472396688,-0.3215411103,-0.3954707619,0.8469851935,-0.6413273923,-0.096545049,-1.0139149268,-0.628440859,1.0447726212,0.2148074986,-0.6091126019,0.5507884644,-0.0460246936,0.0300394178,-0.073204456,-0.9341013816,-0.8852402162,-0.4090392015,-0.2373244648,-0.5988596448,-1.1520339812,-0.0799863671,-0.843402383,0.1955749037,0.9124580606,0.7395315334,0.151677358,0.7257143754,1.0622855313,0.1962283473,0.8269620201,0.514526188,-0.0117724871,-0.6134697786,-0.0136470187,0.5433533119,-0.4590218107,0.2186015749,0.3594642844,0.1505028821,-0.7823183449,-0.9934780333,-0.0460797896,-0.4035736432,-0.7787723135,-0.0764669151,0.8716092564,0.6035081627,-0.7977035125,1.0108557899,-0.3214352394,0.8834393228,-0.9771112412,-0.754802109,-0.1164569322,-0.4820058704,0.1313747818,0.4351087187,-0.61508994,-0.8676255487,0.6284403197,-0.3374331014,0.1786312441,0.5417660217,-0.0101301871,1.0271731995,-0.5131310083,0.0303825593,3.3194181306,-0.3412893371,-0.1083608617,1.3854346952,-0.6046052306,0.7495941067,-0.9145563697,-0.1546674982,-0.13897694,0.9935626395,-0.9295956816,0.8823768128,-0.1341671388,1.0538699652,-0.203438839,-0.8721248006,-0.6990827654,-0.7780480598,0.736931257,0.8955860063,-0.3842276553,1.0887066575,-0.7353018609,-0.780637007,0.1424510658,-0.8036868912,-1.3447168233,0.5146034649,-0.552151783,-0.7580137147,-0.040747106,-0.6891106273,0.8518523468,0.1012975768,0.3638050334,1.0774649954,0.1578591962,-0.8154284606,-0.7963225943,-0.2325942321,-0.8939604885,-0.3579634107,-0.3596980497,-0.3605204408,-0.3873597193,-0.5346507858,-1.0364575938,-0.1781574122,0.3395067716,-0.5870651418,0.2669934961,0.6180522419,0.9082316961,1.2951020439,-0.2335848393,0.7882290802,-0.786351886,0.435531323,-0.4769120661,0.5877013412,-0.3949972618,-1.2853189049,-0.1197713456,-0.8082330804,0.8359274178,-1.2935078765,0.4471908514,0.4151298293,0.7043263977,0.3721383966,-1.036640406,-0.2927314055,0.3043449116,-0.9524892047,0.8084785246,0.6075416394,0.1722028611,-0.4151474711,0.2389064076,0.3193895367,0.7773283787,0.2910527482,-0.7933954937,-0.0103663379,-0.8606496451,0.6006649633,-0.8596551846,0.3946960615,0.7480923244,-0.3619975699,0.209797795,-0.7023517655,0.2151631527,0.0216623413,-0.6021598279,-0.650557377,0.454796486,0.8825421421,-0.7338845692,-0.5673404954,-0.918415704,-0.9470427076,-0.8449151929,0.8185098601,0.1556928799,0.9339619972,-0.0842114845,-0.5189636258,0.6052739112,0.5492136193,0.7322974949,-0.7016911801,0.7889034576,-0.0425274252,0.17645555,-0.8637127084,0.3656001688,-0.2763755302,0.6556578684,-0.8602285892,-0.294467874,-1.0690207925,0.2050150034,0.2647226779,-0.8794943698,-0.2847156582,0.7123020573,0.0797173305,0.5169100374,-0.7324184243,0.9536140025,-0.3366073127,0.2209964871,0.7859223176,0.4351758772,0.3986550615,-0.8209376482,0.4110969515,0.9920439713,0.0608917699,-0.0006888033,0.2884064073,0.3502228588,0.3977645969,0.5338811153,0.7462410473,0.9444570469,-0.8418406471,0.2136403079,0.6551192447,-0.6794623229,0.2639995037,-0.0844406094,-0.3812512458,-0.0295823114,0.2132255409,0.6465139212,1.3681078707,0.2089040682,-0.591251791,0.1980814964,1.2521190391,-0.833534433,0.004202581,0.9340992126,0.7423553795,0.5979522957,-1.0610584767,-0.4022349631,0.353520688,0.4822142618,0.5000695983,0.9490632077,0.0841974993,0.0735246427,-1.2406464092,0.1418282917,-0.3530904693,-0.1192198751,-1.6021094728,0.266969941,-1.2915577261,-0.7370512015,-0.2415044807,0.7710355689,-0.5066043052,-0.7852417985,-1.153093903,-1.0522808934,1.0105073061,0.7415592693,0.8376891539,-0.9683196975,1.3860816295,1.0714864248,1.1772098439,0.3868719614,0.3594578176,0.187146362,-0.0295972424,0.1741076531,-0.1804713188,0.5708633883,-0.2223135446,0.1975667732,-0.4044925867,-0.6703500014,-1.3856568121,0.5194671743,-0.7708487233,0.9320967915,0.5866690333,0.9028086029,-0.7719691284,-0.0839620432,-0.7629297783,-0.6859809545,-0.8462748828,-0.7293447085,-0.0110783969,0.9685539832,0.3326101301,0.2152169274,-0.430876128,1.2313312309,0.93029419,0.761444142,0.3972679504,0.3555062418,-0.8157763278,-0.1248973768,-0.7465211806,1.2908643029,-0.037358587,-0.2177398433,-0.4513995209,0.5425842176,0.8746793946,0.3810123738,-0.887619354,-0.1064865818,-0.7848895416,-1.1351068898,0.7770206415,-0.1669249417,0.6681142245,-0.7839071324,1.5368489515,-0.852417908,0.0024025912,0.214227847,-0.8423684825,-0.236801699,0.0936891551,-0.8063974382,1.5055686892,-0.1396810797,0.6299766934,0.0157564547,-1.2462468118,-0.2921132157,-0.0354964259,-0.5116787993,-1.5174546482,-0.4706843555,-0.8656131875,-0.870778582,1.2103745947,-1.3267268479,-0.3191460953,0.0678354136,0.5423681601,-0.3454566622,0.4452794087,0.5660730547,-0.4373936013,0.2438368881,-0.6245150638,0.0479746379,-1.006867643,0.0760860452,-0.6608179147,-0.699308457,-0.8275242912,0.6762721595,-0.4870407219,-0.9894378367,1.3820952536,0.7028603914,-0.6532109386,-0.7120071014,-0.5255263065,0.8056449714,0.2660144829,0.9324087955,-0.6329345742,0.5859287561,-0.400578602,-0.080223511,-0.462411065,-0.7737620735,0.6723237574,0.1674345063,0.7905804531,0.7415944786,-0.9254103569,-0.9244376667,0.8626343448,-0.2803809867,-0.5162972935,-0.3304979922,0.3580826789,0.9007794578,0.420407326,-0.7320390434,-1.0838428218,-0.40000393,0.3425065119,0.1770555692,0.3496450779,1.3309098508,0.2190744379,-0.3062428324,0.5993627764,1.0838264922,0.3917310377,0.671033045,0.3790832268,-0.1270300576,0.1300270643,-0.4076464412,-0.0525751141,0.6487798846,-0.0123814927,-0.6807347469,0.3534159571,-0.549482191,-1.1565366847,0.4608861742,1.3855548369,0.7415885888,-0.0219540663,-1.1977623718,1.2247219507,-0.2135405993,-0.6819464973,0.2270983448,0.7785003984,-0.1271513119,0.2627442738,-1.1636029892,-0.7530103268,0.7875978801,-0.8022232566,-0.2925680998,0.1573234481,1.2469390675,-0.1623472087,1.2336695436,-0.3660414928,-0.4764139319,-0.1625375156,-0.5175486783,-1.5545507759,-0.8126701921,0.2606780281,-0.8870027541,0.5733493387,0.3373077069,0.3711674428,0.4603774244,0.5513171143,-0.3182169091,-0.9682517212,0.2429624488,0.4851677216,-0.1348257039,0.1118661915,-0.1567064406,0.4412386944,0.4651735504,0.4438210876,0.8693990477,-0.4033362117,-0.6650775018,0.1327093893,-0.2983741044,0.2704234022,0.666439165,0.2873798993,-0.3137850875,-0.9873001285,0.0087712262,-0.3802950577,0.3166945781,0.2458577895,-0.7282643781,-0.6140682432,-0.9362454495,-0.9100732328,0.3060753607,-0.6563882691,0.9299151159,-0.2579708878,1.1719213007,0.9591874672,0.1568770642,0.4110938331,0.3081060425,-1.3450168599,-0.8778683937,0.6880259484,0.0431339829,0.7169996204,-0.703686763,0.0995201439,0.9411846263,0.8075442133,0.7995560894,0.5492590201,-1.0207573567,0.3308850587,-0.2615019629,0.3880823484,0.2369933151,-0.2132283709,-0.1978776116,-0.7252876522,0.4860979258,0.7121224081,-0.0767081476,-0.7948576205,-0.099185148,-0.4085253087,0.2190221862,-0.764136202,-0.340560581,0.1354489803,0.2021785283,0.2038243246,0.1102458218,1.2430201389,-0.7957945598,0.9157980185,0.6032848836,-1.4646308304,0.414056176,0.1234991557,0.6321392242,0.5653131676,0.2291837431,0.6393438392,0.4163835904,-0.8049313724,0.0555956322,-0.1171492459,-0.8476491784,0.2635171029,-0.1193212903,0.57739714,-0.2640376884,0.7122450008,0.2987313913,0.8209691027,0.4525119714,-1.0328173179,1.2353571028,-1.0117030715,0.6856881547,-0.6513800027,-0.3285097388,0.4933906788,0.438053309,-0.3935326354
   0.8368085443,0.4377009919,-0.7378377785,0.2330337192,-0.8732357146,0.2948507076,0.6834823512,1.0899610963,0.6550297205,1.1372813078,0.2768525391,0.6986855241,-0.7959131748,0.2507230342,-0.1197853518,0.123477626,-0.8421643399,-1.0463446738,0.0246151169,0.3329953364,0.2051043873,0.7173967218,0.82369079,-0.6464562451,-0.2693096312,0.6637018878,-0.3615211421,1.275164501,0.1590768584,0.5089183808,-0.1166929226,-0.6382994813,0.4532286004,-0.0491440545,0.0831475249,-0.7687477252,0.1689037956,-0.9137070009,0.4622310417,0.4473034717,0.4556181888,1.5662938493,1.002521836,1.4089835327,-0.2910940713,-0.6399122022,0.3326730242,0.7596106801,0.820590243,-0.7316175087,-0.0892195531,0.4118302798,-0.7184191321,-0.0771899575,0.4132464141,0.87178427,-0.852660136,0.4037903409,-1.0005294485,0.9721732767,0.0441542497,0.4087804341,-0.6538274528,0.5133722467,0.2683740405,0.2645853842,0.4271299887,0.5837291357,-1.1970661893,0.9042065766,-0.6401453779,0.3690042003,-0.8944707281,-0.3276194736,-0.1894723007,0.8632248902,0.6314870838,0.657149924,-0.1903987348,0.6748087959,0.821093229,-0.815846881,-0.7494725017,-0.4693396666,0.3822811031,0.9632569021,-0.676820605,-0.303461651,0.6221503013,-1.1736594285,0.4122229442,-0.1329146112,-0.936332958,-0.7559750634,-0.4139480213,-0.7080660406,0.074848356,-0.7895643529,-0.1783701992,-0.4988265236,-0.0205656225,-0.4412917439,-0.8199006875,-0.6082482831,-0.5949714413,-0.2651274303,-0.3399965784,0.3202338329,0.8671864064,-0.7673861028,0.0815153252,0.3126308653,-0.6865942489,-0.5526279356,1.0588623393,-1.144647541,0.6896187421,0.7309785604,-0.1001754634,0.5681345325,0.9005328483,0.012247411,0.7280466657,-0.308446506,-0.3685383059,-1.1285807458,0.2677787387,-0.9392930318,0.0857270174,-0.5224787711,1.1028240834,-0.8198800803,-0.5821145688,-0.1357554228,-0.7056755753,-0.9505935183,0.241737009,-0.7704825828,0.8113947457,0.7776402744,0.85692767,0.8000541298,-0.6793213414,-0.644839547,-1.2468947304,0.4084348916,-0.0081841003,0.4113193677,-0.3527580511,-0.4088415167,0.0480153718,0.420777892,-0.7331807381,0.4003734738,1.0778406377,0.8310236248,-0.3280357666,0.6088467007,0.0448162972,0.4596779218,0.4961750548,-0.8223174253,0.5511071192,0.4772237449,-0.2452432374,0.3208679682,0.3550252077,0.9112381112,-0.8416002178,-0.5282417473,-0.5327914128,0.67399698,0.9151933093,0.4717025735,-0.4624616976,-1.3602242087,-0.3317164089,-0.9458125854,0.6309347543,1.0496026653,0.5405775916,0.9754187351,-0.834912065,0.329219004,1.1591463262,-1.2073997553,0.2325525557,-0.7678062535,0.4783529071,0.8669751182,-0.7418754341,0.0660764818,0.5498015071,-0.8160807673,-0.6962533776,0.8490306051,0.2052281944,0.740586199,-0.1451133279,-0.7727167947,-0.2596621767,-0.0752993305,-0.9508514512,-0.5391219812,-0.0173343352,0.2510233511,0.6641090935,0.277163145,-0.3099493383,0.5724757371,0.0398058305,-1.1606925629,1.3850641109,0.8850363057,0.2813279481,0.0727707032,0.5954154776,-0.2809997216,0.6161541829,-0.0789702287,-0.8180959631,0.7613960819,0.6287802319,-0.5377586665,1.6004452732,-0.1725228016,0.0118419024,-0.557774329,0.2852254767,-0.2024465101,0.2199881395,-1.0183231641,0.8490925633,0.6003186308,-0.459670328,1.0083106589,1.2916553913,-0.3542581169,0.6483668467,0.9610017844,0.6015036336,-0.5042582488,0.0823545162,1.2713218642,-1.0215472334,0.1262736215,0.7630206874,0.6578913061,1.2479080419,0.9133643349,-0.4345557561,0.4059728948,-1.5123866046,0.3031050806,0.0993951559,-0.7301504857,-0.7312083957,1.2635673088,-1.3446943486,0.3963894198,-1.0864429129,0.0054636034,0.1796045057,-0.1951775582,-1.3854831111,-0.1903985583,1.1959284353,0.9566249822,0.3290396038,-0.4285453544,0.9512608862,-0.4019051429,-0.0495052902,-0.5880786596,0.2143958185,-1.238811775,0.2562051063,-1.14768078,0.2079973192,-0.1990341777,-1.0863260546,0.0620660181,-1.2075722569,-0.5616678218,-0.608328564,-0.9383633828,0.2300629501,-0.218540978,0.8698316017,0.1802953292,-1.232028593,1.0876091571,-0.0458280763,0.1802546856,0.3109765253,1.3090535656,-0.7560778199,0.4633879245,-0.120369271,-0.4319205776,0.7231233417,0.773309901,-0.1256963772,-0.615164115,-0.715014814,-0.0949938237,-0.055206735,-0.3080794859,0.8918213977,-0.8280258662,0.0320399499,0.5743258616,-0.6611835132,0.9913296949,-0.5395802478,-0.7552545396,0.4608201338,-1.1478817475,-0.9307325974,0.4890126425,-0.2159494805,0.1212604625,0.5457187142,-0.1895609549,0.5242209386,-0.6428241707,-0.865225356,-0.5786850306,0.7291105927,0.1557058564,0.692733882,-0.0755272909,-0.5918259823,0.1256783804,0.726094719,1.0690845379,-0.972531517,-0.6183604928,0.6001495086,-0.1558255018,0.4981620381,-1.0568547833,-0.7892665515,0.2085848379,1.0867988109,-0.0047425774,-0.7069352141,0.1401725004,-0.8312128421,-0.4789831093,0.8890001267,-0.4220151244,-0.1352506199,0.0777069013,0.2978817439,0.0731822453,-0.216753879,-0.5023133931,-0.591651606,0.4770147866,-0.8950353381,1.1459793849,-1.0461220841,0.7007160154,0.2536346019,-0.5709840704,1.2778958214,-0.7643544403,-0.5914895956,0.5196637029,-1.0699950227,-0.7321085556,0.8334109931,-0.4309489117,-0.2084803977,0.1180889906,-0.9160984991,-0.3451078025,0.1407439747,-0.6777218538,-0.5954153283,-0.2659558571,0.7206448132,1.0367311137,0.439900087,-0.2798325692,1.3882452503,-0.2994888825,-0.2972742695,-0.0909479405,-0.3391258609,0.0961881615,0.7872660686,0.5490926533,1.1767592058,-0.1768683618,1.83074702,0.0806445644,0.1038691812,0.7333348484,-0.2305161838,0.6255365393,-0.2456810545,-0.0240412519,0.7668613768,1.244247443,-1.1147889966,0.329753623,-0.4495362947,-0.4030488397,0.5478040871,-0.8953864175,-0.0004944146,-0.2688105317,-1.1200860827,0.3284722095,0.3778183841,-0.5403663748,-1.1004977146,0.5122782226,-1.0727129404,0.6162842004,-1.1536198322,-0.5499746247,0.0184297497,0.8013417927,-0.2959661688,-0.6923504063,0.1563397035,0.255355814,-0.2866808402,1.1765363282,0.0370445257,0.0308140377,0.4912015209,-0.434052396,0.632675968,-0.5754453672,-0.2486770259,-0.9537424625,0.4235373751,-0.1905023657,-0.4072165786,-0.8556453179,-0.8299367038,-0.2095647993,-1.1293919924,0.1027496545,-0.974369416,-0.1056312861,0.4526164308,1.1669652186,-0.0210848129,0.6364349246,0.0989920107,-0.5728331032,0.2555227666,-0.5426785858,-1.15777669,-0.6994470336,-0.5270004569,-0.9561231124,0.3208037013,0.2231472395,0.0665576278,-0.5325578241,0.1983326563,-0.9638315851,1.052370788,2.3440064182,-0.7930109026,0.8888466447,-0.046508145,-0.3384212847,2.6666322119,-0.9784933237,-0.8929573017,0.3300033362,-0.1097604207,-1.2283467877,-0.1405590557,0.760095807,-0.0272849223,0.2503625575,0.277079443,-0.3184117123,1.1031051308,-0.5033998231,1.221613056,0.7192682306,-0.6891589324,1.2972070145,-1.2903726834,-1.4381835085,-0.2944674262,0.6038859994,0.2163380679,1.3696527066,0.8832970079,0.4909165657,1.6613981154,0.5521203272,0.6726482933,0.4588289765,0.8287895098,0.4189844219,0.598116853,0.2731233819,0.0221774435,-0.2979456351,0.7741989177,-0.9400431166,-0.7731530901,-1.4386869284,-0.4676819447,-0.2105319112,-0.3294711782,-0.3287888396,0.5734822248,-0.6511076141,-0.1004686965,1.4278445232,0.7917104109,0.2712184059,-0.2189185595,-0.7818366776,0.8229126009,-0.3496614529,-0.7869225939,-0.8521026233,-0.9893269683,-0.0114590291,-0.6777992266,0.7453917681,1.8899215292,-1.5059674511,-0.2181557787,1.1355626672,-0.9624229154,-1.1135358314,-0.6753353441,0.386629714,0.0689352988,0.4159960703,-0.9281886761,-0.6122079565,0.6440556047,0.9330058464,-0.5853483936,0.1955929219,0.2676041367,-0.0953148733,0.020315241,0.4522095611,-0.835491129,1.1454675242,0.7628628818,-0.4466451455,-0.3460865137,0.3092553031,1.8755183447,0.8753535142,1.0941699109,-0.1677969048,-1.4238410003,-0.654428867,0.400257953,-0.9310896544,0.0918095306,-1.2515540029,-0.2004285081,0.8350936323,0.1942276562,-0.0599202964,-1.4653622764,-0.3635926394,0.4833596443,-0.24975066,0.5474691184,-0.5787200862,0.1623644466,-0.2248303119,0.6712172473,0.6454949784,0.4953410932,0.6920373244,0.2290014427,0.2250589162,0.568067943,-0.143620567,0.0490148597,-0.1983505553,1.1839090348,-0.9103387232,0.9548505221,0.5302256099,-0.2193449464,0.1242220916,0.4952689092,-1.1759873149,0.5816515293,0.071543879,-0.4953888173,-0.4654414548,-0.5246458669,-0.5760511808,-0.7573383608,1.0715932679,0.4283510898,-0.6179521256,-0.6430769734,1.0415308178,0.4668192686,0.0517016696,0.3256728961,1.5749371993,-1.0202770392,-0.6283601822,-0.9398733276,-0.9125371763,0.406258495,-0.8177866894,-1.3807688671,0.5543320616,-1.0915753896,0.3790624567,-0.7090234016,0.6907338552,-0.4612501812,0.6162903521,-0.921667304,1.0362531472,1.0767702103,0.4935534677,0.3636674808,-0.2068539187,1.4209792601,-0.0482010058,0.7394523718,-0.0543563426,0.9865173387,0.1900776098,0.395534283,-0.1204209372,0.0309834454,0.2506253372,-0.9254933719,1.7218619268,-1.0996766569,-1.2575194537,-0.3147062787,-1.5045924499,0.0632005389,-0.159607198,0.1695980499,-2.145935174,0.0972617057,1.0045589928,-0.1862985281,0.1518310582,1.5731799854,-0.3028727729,-0.6314678742,-0.2122698111,0.4131735421,1.0706890944,0.5870306519,-0.2652765853,-0.0577815292,-1.2065241413,-0.0501198727,-1.788396596,1.5361322893,-0.7149693705,-1.5131246184,1.2675544219,1.0660126472,-0.9224138648,1.0359088116,-0.3261029912,-0.6889561997,0.6735606133,-0.2463325389,-1.0970196515,0.3515734183,-0.8279011521,1.0990578154,-0.0037331389,0.7873415869,0.6824777374,-1.03678069,-0.6252073373,0.2349429442,1.1419172526,0.1800264677,0.2302997664,1.2541327437,1.0564687366,0.9986698601,0.7275747705,-0.1885585845,-0.0028831286,0.116555122,-0.0538943993,-0.306116768,0.1140822005,-1.5233379879,-0.2182168026,1.1772379657,0.0829219317,-1.4404832635,0.2337461128,0.0610038058,-1.0599562415,-0.2157124969,-0.5773840345,0.5133083273,-1.1402907888,0.6815840077,0.5453469041,-1.2549816251,0.3164148577,0.9697723467,0.827546262,0.6028400542,0.1356573445,0.2391732376,-1.0370399155,-0.4965346731,-0.3850818965,0.4488454656,0.4036899152,1.3654112233,0.4510949064,0.6189268177,1.7546450016,-0.8267460708,-0.9309810457,-0.6521824687,0.1545344881,0.2405397187,-1.1347676727,-0.7003193632,0.5554325225,-0.1929899243,-0.059177834,0.8846165664,-0.1793864137,-0.3284302768,-0.7487874586,-0.8313273225,-0.9251258559,0.7165026392,0.8201398139,-0.4437450116,-1.1228127228,0.5245880422,0.40732402,0.4320973934,-0.7313028055,-1.1838940494,-0.0919029584,-1.0391010367,0.1516705279,0.6910266051,1.1746846212,-0.8262631178,0.3523474434,0.8219613464,0.3228599087,0.3205172156,-0.0201294254,-0.6634372701,0.8783876871,-1.0863994079,-0.7494647356,0.1863795972,0.247861958,-0.838782043,-0.7789719841,0.8326583085,0.1546096967,-0.6943850458,-0.3119519872,-1.0811210865,-0.8722627169,-0.2459873884,-0.6177407136,0.7243909408,-0.8333608244,-0.8630262507,0.3452671939,-0.1337941159,-0.3080986063,-0.2957160059,0.7766971619,-0.1297611032,0.3628092075,0.4352315095,1.1059092059,0.918901687,-1.3154372634,-0.561967831,0.1063647487,-1.0516795782,0.1808959251,0.2350283438,0.4946103333,0.2248098317,-0.2921598786,-1.1278145804,-1.0402501509,-0.2727394509,0.2425223147,-0.4153685606,0.7019810367,0.8295645841,0.8916760981,0.559978995,0.5399237696,0.351968363,0.1661293323,0.3236257639,-0.5377368774,0.5249105736,0.6665038796,-1.0700585045,0.5254122841,-1.5395171449,0.1279084051,-0.0680927504,-0.5799675127,0.4497495957,0.123350779,0.7126258753,-0.642522956,0.7648324036,0.1501183726,-0.6047567269,-0.3189810937,0.7836309998,0.6119961989,-0.2986381771,0.733171961,0.83716286,0.4099148113,0.5899268132,-0.5554646815,0.6273591428,-0.1305620363,0.2581686256,1.1639375072,-0.5069972967,-0.0053968917,-1.1272097183,-0.2190714149,0.4469197556,-0.8326865642,-0.5894812225,0.5400949023,0.643452964,1.2749603714,-0.6347210364,0.8695852762,0.790867126,-0.8227698442,0.3342855968,0.1253201697,-0.5945591551,-0.2995619334,-0.350563093,-1.0474843751,-0.1642380882,-0.78286834,-0.2017680793,0.8737479225,-0.5889213772,-0.2010592258,-0.7999946797,-0.4172106497,0.1348047825,-0.2120456435,0.4015001369,0.9429920862,0.043566257,0.3814529532,-0.0565273538,-0.5189634565,-0.6194006538,-0.3335637552,-0.4007957104,0.7251495076,0.4178377534,-0.9487317256,-0.0474606293,-0.9214305566,-1.037783508,1.0251990888,0.8349978846,-0.3378130293,-0.52791837,-0.374077259,0.6981713848,0.3480283188,0.2752039095,-0.6734103167,0.595100392,-0.3739491145,0.6042266508,0.4294165549,-0.6899019522,0.1503168369,0.3967175727,0.6921307367,-0.9968884812,-0.303425833,-0.1899302227,-0.3416725626,0.9478287732,-1.0842016558,-0.3633156467,-0.1631796119,0.9774174262,-0.2446297137,-0.5096593841,-0.5922474403,0.1133974408,-0.4058911522,0.4450130294,0.9179576644,-0.706036017,0.8422469038,0.0552691581,0.5673434191,0.9906436225,-1.0246079333,-0.5558826961,0.2670661761,0.0724763645,-0.3448888989,-0.1216914041,0.2820017608,-1.6766362042,-0.1835089428,0.4922116626,-0.8488533084,0.4277910949,0.7172277434,0.9850901789,-1.0864450271,-0.6605805116,-0.7941073617,-0.2180729924,0.5175218566,-0.4892260011,1.0446045891,0.1359661013,0.802476248,-0.4506204516,-0.312663156,0.0018936177,-0.0044231886,0.9268369811,0.6354312009,0.5699908647,-0.2807529929,-0.4527378164,-0.8908140562,-0.3742153764,-0.1323614325,-0.3676942406,0.2986379785,0.826858058,0.1096358368,0.2742521648,-0.3038270258,0.5797720315,-0.3385774446,-0.2978652231,-0.4709326928,0.4204839441,-0.9036471652,-0.4530306559,0.9905139945,0.2611085818,0.525784816,1.213819842,-0.2265996828,0.7264312938,0.2522251729,-0.9040899182,0.7826757257,0.3499679144,-0.8411334144,0.1230605805,-0.0692458666,0.6480342082,0.5997013561,-0.4468235279,0.718041423,0.1609954561,-0.2951772755,0.7126661647,-1.2655018392,0.0730202028,-0.7793351594,0.2131269602,-0.5763147078,-0.2104753367,-0.1334656933,-1.0077669708,0.6142919636,0.0571661496,0.0770577836,-0.2070438821,-0.3907422348,0.8189987729,0.7400341723,0.0505665612,-0.9684448763,-0.4401476066,-0.3036326203,-0.261511221,1.2267513199,0.8535186016,-0.2987258231,-0.4368109117,0.139071528,-0.3762097737,1.0285286728,-0.7547522698,0.8080527678,0.3659397349,-0.0565716144,-0.5314401065,0.1316204788,0.1445639917,-1.0742372864,0.7342110361,-0.0456907393,0.4510622336,0.5322033952,0.1614763366,0.7378701377,-0.4786310733,-0.2496962466,0.025421515,0.4966767272,-0.8818742041,0.3868880871,-0.3347428818,0.8186504181,-0.6505698686,0.5143841579,-0.635274528,0.4378939704,0.1869260509,0.7178509174,-0.1207101016,-0.4589369806,0.5942999717,-0.068458472,0.8250351189,0.1044162492,-1.3704420631,0.0548075918,-0.0940611922,0.848874998,0.3503498741,1.369083518,-0.8536387904,0.4727926576,-0.1940965066,0.0085433888,0.8112256984,1.236983488,0.2323791825,-0.0001647403,0.5091185687,0.5300126016,0.2795893366,0.5336924946,0.7400482451,0.3468954678,1.2967188624,-0.7107702349,-0.2176862587,0.6714934762,-0.2785381757,0.2322494034,1.2412020282,-0.0837328345,0.6694320338,0.8851898267,-1.230722959,0.2096449526,-1.1234386763,0.2897090278,-1.5648892418,0.4454945204,0.2492147457,0.5653687094,-0.1069361737,0.6077609266,0.9003738536,-0.6346073203,-0.1661214237,-0.6324574607,0.0906938316,0.2632717568,-1.0195520459,1.9345709384,0.0460441382,1.1210566785,0.4874870646,1.3489671825,0.3525539323,-0.6653380719,-0.2366044247,0.9332248574,-0.0858097706,0.496773922,-0.3951869346,-0.1740974531,0.9547957962,-0.7201674226,-0.0485877494,0.4912412866,0.8953340079,-0.4514555996,0.077489199,-0.6489252069,1.3929710882,-0.6420209071,-0.5616711208,1.4510058062,0.0420987657,-0.6479045062,0.2444046977,-1.0180617516,0.0838589224,-0.8433949678,0.6261180595,-1.1916821743,-0.5846101732,0.7611923033,-0.8188139335,-0.8325487202,-0.5080324672,-0.2397788898,-0.6526440343,-0.4806169564,-1.2937241751,-0.5911058731,-1.3494448012,0.3511661506,0.1978977581,-0.8364371249,0.244661358,0.2141927568,-1.374509638,0.7782085077,0.0114451102,0.6503198002,0.1763059993,0.6118345381,0.5897056226,0.9593716258,0.0966488436,-0.2380765744,0.6760259865,1.3606387882,-1.7226850544,0.2290044901,0.4406104965,0.903766297,-1.0197457986,0.5881418879,0.3044808643,0.9246148463,0.1003288208,-0.1762177469,0.5818767644,1.1312626922,1.0899446361,0.1988322171,0.2065222702,-0.4987788082,0.2451234222,0.069463454,0.9768777568,0.2217629,0.1021651369,-0.964001738,0.1793355463,-0.3892483012,-0.5159456939,0.8022059988,-0.0675896264,-0.4961633403,-0.7094015722,0.9953978986,0.2792989163,0.1154150716,-0.1004947129,-0.7515580596,-0.0099549773,-0.8219637327,-0.441040921,-0.661032129,0.3524025616,-0.3823694081,-0.7671934115,0.7284233745,-0.8383168836,-0.0611413686,-0.427439043,-0.2975282941,1.0205182178,-0.8077181837,1.2924596406,0.7618290644,0.6075685632,0.1428284941,0.8528276514,-0.0957700414,0.1400658838,-0.6205491071,-0.1791284463,0.0825065196,-0.090652248,-0.9630215863,-0.65948496,-0.3017920434,0.0234529222,-0.4342564174,-0.4813012975,-0.551138703,-0.5730878279,0.5011705224,-0.1666901938,1.0171992897,-1.103496017,-0.0099998736,0.3429473945,-0.7867460795,-0.9531669987,-0.4729011143,-0.0540357285,0.1665760411,-0.9177721562,0.1544653873,-0.1780417937,0.0831329292,-0.5879058681,-0.1231862537,0.1120783143,-1.1077172845,0.7128079053,0.9941997794,-0.389535296,0.1104878446,0.1355628188,-0.8534650244,0.0218038722,-0.8093016172,0.0294300131,0.6056161271,0.9547626941,0.7487223302,-0.9157070168,-0.8361431924,-0.5714413527,-0.2815126373,-0.17031946,-0.7131548973,-0.8575446278,-0.3637884521,-0.4374224217,-0.8333882333,0.7536974143,0.044349849,-1.4252635693,0.1455494177,0.2638706319,0.1747403379,-0.0899627481,-0.6180529435,-0.4039508695,0.1402233559,0.5470513694,-0.1137213856,0.3992408361,-1.0707946586,-0.5825184617,0.7975988508,0.8674452104,0.3965008747,-0.2652012932,0.8355251684,-0.1675146827,-0.4431561488,0.5330962095,0.3892981399,0.5195017983,-0.3572952972,-1.055331124,-0.7169729157,-0.1508825021,0.989330283,-0.6450177232,0.5369763934,-0.1052166013,0.5252632501,0.6745366467,-0.468126554,-0.3235039538,0.3957310205,-0.9014558663,0.552592096,-0.4446350652,-0.89313164,-1.0713218776,0.0761131122,-0.9224117665,0.2702369116,0.2965472536,0.7654625657,0.9665401774,-0.893435735,-0.211197651,0.1991491901,-0.6792035872,-1.2945751639,-1.0134311805,0.0897248041,-0.0027185516,-0.206326814,0.7572051608,0.1520539215,-0.2349770397,-0.5265581748,-0.5393240361,1.009799356,0.6406441823,0.2952174188,0.456459379,-0.3089861158,-1.3420719775,0.3960702235,-0.2792403379,-0.5376837463,0.3198363884,0.7336594047,1.2811161859,0.6154086231,0.393912326,0.5656359653,0.5510645035,0.0731122417,0.6724700081,-0.6128654132,-1.125504679,1.0585192565,-1.1112854226,0.2730998642,0.4152847534,-1.0383415164,-0.3745730556,-0.3510914724,-0.7770210945,-0.1755888513,-0.5301168007,-0.1547804086,-0.2346655659,1.0534577192,0.2948070457,-0.0764262708,0.7626324575,-0.0412460466,0.9013803328,-0.1837215393,-0.4687069183,0.4948425437,0.1833554179,0.1652073968,-0.7916167191,0.0606714392,0.3350873052,0.237882777,-0.2581560713,-0.4090601082,-1.5527953868,-0.7555402807,0.0429194236,-0.1031955538,0.3263510698,1.1489788425,-0.6727675078,-0.8384744774,-0.4867320569,-0.9038993745,-0.0195186364,-0.3097886553,-0.1959136616,-0.0820364816,-1.2007875726,-1.0039037437,0.8272904797,0.0421011405,1.4505701397,0.9583364641,0.0166239848,-0.1984576137,-0.0538655601,-0.1148292551,1.0387432287,0.0407052702,0.6319746585,0.6612577838,-0.4818551601,-0.3578228129,-0.6662265809,0.1714401747,0.9621688387,-0.3071042118,-0.3427059454,-0.303393982,0.7503915947,1.0188623821,-0.3924816581,-0.1119675,-0.9477774566,-0.819225085,-0.2488224153,0.9351080178,-0.1619949348,-1.433782264,0.4344090297,-0.2083219854,-0.6573561441,0.3383836179,-0.1336724808,0.2821518283,0.8717932804,-1.3247390534,-0.0996348224,-0.1606597356,0.4180823307,-0.0713506425,0.2837707005,0.5367190229,0.2841125543,-0.6110988246,0.5798255926,0.8472132008,0.0028192791,-0.4258993905,0.0276200089,0.4957250506,0.9652651401,-0.5125806109,-0.2898069881,0.4039689901,-0.004847335,-0.5856015828,-0.0571825651,-0.1921022843,-0.1628593804,-0.0622497068,-0.4463101366,0.2167405782,0.1851055702,0.2877565577,0.529540575,0.6615952606,-0.3273555575,-0.2495254401,-0.9823941068,0.386437381,-1.2015287026,0.0366148678,0.488978502,0.9449475532,-0.5399971419,-0.0505823483,0.3119070103,1.121663841,-0.4198571453,0.0357711692,0.5465334115,-0.7244624677,0.465361949,-0.135853379,0.1000738402,-1.0349373999,-1.0104242413,0.8360150319,0.491882842,0.0579759027,-0.1215211701,0.4454414048,-0.7647774365,-0.3890148308,1.0716629015,0.816507768,-0.0235300085,0.6834715124,-0.7933794338,-0.4031853519,-0.9093712839,-0.4372434956,0.181282433,1.0539660226,0.7313933848,-0.7416556641,0.4069004127,-0.2927823158,0.5768828946,-1.1768272448,-0.1665847437,-0.3919911789,0.2632739212,0.5142699101,0.0018100401,1.9684441885,-0.3216166914,-0.5810468313,1.0068182676,-0.8504245107,-1.7643208868,-0.6093582635,0.3326657508,0.8337187543,0.5736376641,-0.5006630331,0.0418656319,0.7871678924,-2.5234244494,0.0523328454,-0.4463649248,1.1997726905,-1.6103607916,0.3101548767,-0.2715413022,1.1700950676,-1.8187769763,0.4118213276,-1.1130013289,0.6045529087,-1.2863523799,-0.2634171419,-0.3095063663,-0.3271188764,1.3441586823,-0.0980607748,0.2473713618,-0.7006784792,1.1485224267,-0.459242532,0.3719533796,0.1349235651,-1.982129136,0.8402730344,0.4238935798,0.5524229401,0.6699848622,-0.4467361639,-0.0932852709,-0.340244555,0.4571833843,0.8011954327,-0.281304943,0.705052456,0.0719034516,-0.2595035545,-1.3308742474,0.039646391,-0.7000900208,-0.048589074,-0.2987590594,0.1275203965,0.9571281677,0.5832296877,-0.0292414788,-0.1330721876,-0.0766174307,-0.9926588503,-1.0267256192,-0.0485553236,-0.424860136,0.5723790683,0.8249438073,-0.7274689602,0.3961790784,0.1964359223,0.1665470215,0.9006043605,0.7959751289,0.6183855719,-0.3448493897,0.2153996471,-0.0109223868,-0.0592253939,0.8200531984,0.4215744741,-0.1007684675,0.4573001586,-0.0753668673,0.3547645441,-0.7503320243,-0.0794105116,-1.0463992927,-0.3396629906,0.6466254579,-0.2478440715,0.9342580631,-0.1992429141,-1.0415018988,-0.2026789901,-1.1392715864,0.3544760402,0.6724318058,0.0434579076,0.1670961046,-1.0788445347,-0.6076607709,-0.9312348904,-0.5219134965,-0.3979628575,0.4998321137,-0.0843163129,0.2891253338,1.1322457479,-0.1450787455,0.2747509766,0.4963232179,0.4574009895,0.2418277303,1.3301120829,0.5206030489,0.7362276051,0.3312021388,-0.6655270216,-0.2068227885,-0.720630598,-1.445706038,0.2849218442,0.696300461,-0.674191319,0.0113284379,-0.6196091979,1.164727863,0.7378414959,0.971092132,-0.6691647267,1.0720698001,1.2164947822,0.1487372179,-0.4633384186,-0.0721773877,-0.8057837074,0.4701762054,-0.3853627843,0.352715065,-0.7469705301,1.1284982211,-0.4699021305,-0.1405336752,0.0382225733,0.6309318216,-0.2859107583,0.988378776,-0.5825342685,0.8523577714,-0.3285606213,-0.4840282952,0.1924849159,-0.2070442318,-0.5018892538,-0.4698926648,0.3317368048,-0.9843542004,-1.1696733857,0.8550769031,-1.1117829381,0.0399866315,0.1937542596,-0.2426532632,0.5905309957,0.310762932,-0.2701479197,-0.7420571362,-0.8356454901,-1.0007558028,-0.7358542765,-0.1134520038,0.3785474955,-1.0200720098,0.4872427811,-0.2611606481,-0.1247989407,1.1472502768,-0.7749250168,-0.8004903501,-0.9215979378,-0.9345150546,0.3652761344,-0.2495111526,-1.1847559537,-0.1373255817,-0.4735858412,0.7245380501,0.5241144677,-0.9493374487,0.2446096409,0.8979065012,-0.132091344,0.4115679912,0.3231846019,0.5733618491,0.2347460111,0.7825958593,-0.7999608439,0.3854135812,0.0223114663,-0.3178464318,-0.8888473277,-0.3691677595,0.2024202726,-0.9245789758,-0.4983594434,1.0687174738,0.1651344849,0.1029437059,0.7296691807,-0.1022153021,-1.0576361517,-0.271519693,-1.160246728,-0.5818950441,0.0301359444,-0.5788060906,0.9610916942,-0.0036885227,-0.3056179059,0.0796785222,-0.1162263865,-0.4566062995,0.1248088719,-2.0148704688,0.1521482059,1.119282921,-0.5235578555,-0.6895553548,-1.0259175705,-0.0400423941,-0.0218476884,-0.4540467752,0.365857898,-0.1252223287,0.5835065211,-1.8824379233,-0.0000000137,-0.8268313923,-0.3337813604,-0.383424457,-0.3399790657,0.5525843232,-0.419119368,-0.9898939559,-1.4095482444,-0.5507475524,-0.4452331861,-0.233589028,0.4143663369,0.3731761893,0.6885316039,-0.0143749795,-0.4480603505,0.2492696412,0.2536783313,0.930803857,-0.2824591759,0.0714948543,-0.7255366131,1.2093742752,0.9961831554,0.1848243537,-0.6305679959,0.4765230541,-1.1710062725,1.0407397443,0.5313244672,1.1754770449,0.0653818717,-0.2328337776,1.0238046885,-1.674598033,0.692390169,-1.0772407337,0.2199518315,-0.8213366162,0.3733732932,-0.9611751998,0.3448919978,0.7901223077,0.463190642,-0.4106697837,0.7382322332,0.4351527387,1.4264954224,0.1251051034,0.7237359322,0.1650274039,0.2109562555,-0.7441955561,-0.8167880428,1.2461534427,-0.2135983712,0.1842685778,-1.1005767503,-0.1045904545,0.9178511911,-0.6644404019,-0.1477210165,0.7513359102,-1.0090765152,0.0602387652,-0.4601383589,-0.0202639308,-0.3159934381,0.3325969275,1.372607786,-0.3957214131,0.5929091799,-0.789937229,0.527669214,-0.2939347826,-0.8030771919,0.6816795521,0.0458522968,-0.5228678559,0.321560433,0.411130194,0.0009484584,0.4786896775,0.4693217705,0.4366469353,0.8150450169,0.9385261119,0.3068503189,-0.7216002548,-0.2447857,-0.8843605303,-0.2364600529,0.4541387118,0.4903355242,-1.3251346062,-0.4233605826,-0.5475433112,0.2448244538,-0.8899243012,0.113507444,-0.676054482,0.8750950984,-0.8218388057,-0.4455885696,-0.1921787797,0.6025969521,0.5603689205,-0.2416319909,-0.0665124857,-1.0091733097,-0.1321833561,0.1258828253,-1.0476601797,0.0734125652,0.7433825741,0.1723783013,-0.498274148,0.2291532263,1.353161603,-0.3416536678,0.6903501226,0.5570841743,0.4240258996,0.3700765819,-0.7383520152,-1.0726622682,0.5007676961,-1.3300169357,0.8261861623,0.9964612192,0.6299692623,1.0565269726,1.0957960436,0.2323343804,-0.2597868308,-1.138423685,0.4081729104,0.8090993733,0.5422732401,-1.0863627024,0.4854849347,-0.9196020874,-0.7027074807,-0.377767381,0.2983677531,-0.6027887223,-1.1354727021,-0.4397516377,-0.2300307913,-0.0879642522,1.4059594729,0.5125754306,0.6040857638,0.9437824865,0.8681668903,1.1524992166,1.1790223062,-0.108635804,0.593779531,-0.9505494454,-1.4032114318,0.3850448967,-1.2310503,-0.3331558001,0.9781236232,-0.7523694514,-0.3663477244,0.1825718547,-0.9745647519,0.4291395662,0.1962367848,0.7478147807,-1.2764244381,0.5334421489,0.0583341624,-0.2358128426,0.5446301647,1.3223529973,0.6224956459,-0.5367223819,-0.3803338037,0.7811471377,-0.3737729614,0.1144193697,0.81795701,0.6808544717,0.8393694128,-0.0461850529,0.9721140276,0.0008168519,0.5683572564,0.6103257236,0.889899086,-0.5507100293,0.9657648155,0.8339161967,0.0292309672,-0.3701022057,-0.1721194003,1.2510600346,1.1587696819,-0.6121870815,-0.7710039292,-0.3454690915,0.4445624289,0.629122619,-0.1206098877,-0.5952149254,-0.9142598468,-0.9913563687,0.7900042308,-0.1361862995,1.0164519164,0.9794792409,0.6027743556,0.8997487761,0.6069551832,-0.0349670025,0.0588137617,-0.387542311,-0.4279391541,-0.1603266692,0.8762527608,-1.0554691522,0.6381651347,-0.3058389824,-0.9657224784,-0.2830162963,0.5089627096,-0.3909477147,-1.4622851835,-0.4371695585,-0.2541056954,1.4332283999,-0.25080193,0.3763036859,-0.9318329028,0.7043247721,-1.0645325634,0.7223055311,0.6124857133,0.8408151995,-0.0062807684,-0.4240759342,-0.0968571707,0.8734419584,-0.752601644,0.961305951,0.9261744247,0.1526887482,-1.1596831851,0.2843147016,-0.8296194673,0.9303193449,-1.0795196424,-0.7957893255,0.3995021714,0.7807459658,0.0129193506,0.79409806,0.0700840776,0.9519225187,-0.5999922433,-0.6997978874,0.754658868,0.9632106572,-0.5971777487,0.8911738792,0.5668505313,-0.4703324126,0.3704626202,-0.7591978204,-1.0303389068,-0.008694614,0.4019162384,0.3181380571,-0.8956605187,0.2723007081,-0.1889142596,0.3474361058,0.2361029034,1.0067282896,0.9846576219,0.6288811144
