encog,BasicNetwork,java,3.4.0,1,1738689025219
[BASIC]
[BASIC:PARAMS]
[BASIC:NETWORK]
beginTraining=0
connectionLimit=0
contextTargetOffset=0,0,0,0,0,0,0,0,0
contextTargetSize=0,0,0,0,0,0,0,0,0
endTraining=8
hasContext=f
inputCount=6
layerCounts=1,61,61,61,61,61,61,61,7
layerFeedCounts=1,60,60,60,60,60,60,60,6
layerContextCount=0,0,0,0,0,0,0,0,0
layerIndex=0,1,62,123,184,245,306,367,428
output=-0.0717306269,0.9999716899,0.798851765,-0.9769670887,0.9996995579,0.9997370131,-0.9996884387,0.9454527418,-0.9999340081,-0.9999636046,-0.9999909033,1,0.6769914715,-0.6557353921,0.9985265681,-0.9997856758,-0.9011367722,-0.9935784026,0.9916295286,1,-0.9996433884,-0.9873313125,-0.7334586226,0.9999965004,0.9999999972,-0.9150161601,0.9999937491,0.9999999902,-0.9999999998,-0.9999999479,0.8995127542,-0.9999999996,0.9999998193,-0.9890535722,0.9998502679,0.1820072056,0.9999660351,0.9933359166,0.9877116968,0.8876361409,0.9631644552,-0.9938146699,0.9921807119,-0.987561814,0.999986807,0.9601613571,-0.9992884391,-0.9401379997,0.9999999999,0.914988756,-0.4690943565,0.9999999366,-0.4549154048,0.9999970415,-1,0.9999872287,0.9999583787,0.9992784603,0.9687057189,0.9999992648,0.3078747257,1,-0.9999961748,-0.9835231807,0.9999999855,0.9994155619,0.9995222034,0.998523494,1,-0.9999990118,0.9999999999,0.9861345935,-0.9896587522,-0.9999999998,-0.999999999,0.9984865057,0.999972685,-0.9999996869,0.9972410737,0.9998573568,-1,-0.9999953731,-1,-0.9999971877,0.9986265492,0.998457082,-0.9999999937,-1,-0.9999525672,-1,0.4907141813,0.9245405734,0.9999997323,0.9999999993,-1,0.9974645344,1,-0.9989377091,-0.9999999906,-0.9999928681,0.9999960747,0.793787424,-1,0.9941548202,-0.9999999889,-0.9999993361,-0.9750074465,-0.9999833311,-1,0.3794960684,-0.9833520964,0.9985255959,-1,0.9999999971,-0.9999539839,-0.9999997281,0.9999847611,-0.9999989735,0.9994971861,-1,-0.9378486275,0.999960553,1,-0.9999978515,1,0.9849823983,0.9999983799,0.7008657444,1,-0.9999998487,-1,0.999914263,0.9967201139,0.9999999744,-0.9510267801,-0.8350778676,0.9997471778,1,-0.5698821102,-0.9993208491,0.9999999999,0.2592584875,0.9999818934,0.9997870599,-0.9993303883,-0.9992820417,0.9999961367,-0.9999999369,-0.9530994141,1,0.9999875677,0.9961379181,0.9497218712,-1,0.9999999348,-0.8225255089,-0.9999999796,-1,0.9999998296,-0.1954168343,-1,0.9915378279,-1,-0.9998302049,0.9999681318,-0.9999999471,-0.9999962792,0.9999738308,-1,0.9835135315,-0.999999764,-0.9999731009,1,0.9998700283,0.5699216274,-0.9999991541,-0.9999999994,0.9999329373,-0.9998630137,-0.9999999993,-1,0.9968341962,-0.8795263181,1,-0.2923951479,-0.9995806481,0.9983226233,-1,-0.9997860699,-0.9999975695,0.7748824039,-0.8736818246,-0.999344205,0.9320222073,-1,-1,1,-0.9979842031,-1,0.9999974543,-0.9998983593,-0.9997789579,1,-0.9652765777,1,0.9999980557,-0.9999986208,0.9469185689,-1,-0.9978904452,-0.491537805,-1,0.9991525639,0.9999999874,0.9999999921,-0.9993047445,-1,-1,0.9949699396,0.9687037201,-0.8968399661,-0.9999998966,-0.9985723382,-1,0.999988831,0.9574004273,0.9999920811,-0.999999823,-0.992896456,0.8477230271,-0.9999957482,0.9999646049,-1,0.6604927586,1,-0.9976271639,-1,-1,-1,-0.999305529,0.9999998223,0.9999999725,0.9966986299,-0.9999989182,1,0.9999563894,-0.9996751382,-0.7078219252,-0.9999994736,-0.9999992664,0.3213196597,-0.9999999999,-1,-0.99998142,-1,-0.9999847726,-0.9999169086,-0.9999447702,0.9999912235,0.9994654248,-0.9971161341,1,0.9999999862,0.6821300164,-0.9999721588,1,0.9999991984,1,1,0.9999680678,0.9999998336,1,0.9999050073,1,-0.8796371123,-0.999534741,-0.9732733482,-1,0.993729179,1,0.9939549869,0.9999999998,-0.7778316706,-0.9906770173,-0.957974335,0.9999999999,-0.9999985941,0.9999999706,-0.9995784703,0.9988267368,-0.9999999905,0.0198905664,-0.8876127987,-0.9999901013,0.9999748822,0.9999930415,0.9999993929,-0.9959347204,-1,-0.9962608136,-1,0.9999999997,-0.9978685764,0.9993057549,-0.1797520097,1,-0.999931119,0.9999926073,0.8716819143,-0.9999985825,0.9869173965,-0.9997099223,-0.9993839356,0.6118981575,0.9943824349,0.999987819,0.9999364158,0.999060214,0.9512282594,0.9880094463,0.6294677966,-0.9999999999,0.8522446254,0.9693276745,-0.995035812,0.9909081543,0.4887674684,-0.9999960477,0.9999995459,-0.9999658863,-0.9996966509,-0.9482422146,-0.9999415324,0.9999028603,-0.3026014807,0.8642165383,-0.9999415974,-0.9999915922,-1,-0.7502118521,0.9972199332,1,0.9886760718,0.9989087418,0.9962141839,0.6285999257,-0.9951780768,0.9999997783,-0.9999999793,0.7741608963,0.6268178512,0.9999999448,-1,1,0.9999999998,1,0.9999963057,-0.7024199865,-1,0.9987012606,-1,-0.9999999993,0.2246340677,0.3669672165,0.9999902294,-0.9561410841,1,-0.3957164897,-0.8041550659,-0.2395293413,-0.4854976924,0.3835767637,0.4211019082,-0.0209219113,-0.8467766068,0.0793035242,0.5774021361,-0.4718575409,0.7493173495,-0.6212175695,0.9032209839,-0.6720403119,0.8617836308,-0.394986962,0.0360266992,0.3334103522,0.4926211884,0.6757625612,0.7399022735,0.9397375224,-0.7493006619,-0.5494228586,-0.6162202939,-0.5065991396,-0.3060068281,0.8090831524,0.7647154478,-0.1267080062,-0.9930575719,0.2538564069,0.0271658686,0.1881238739,0.2934549775,0.1510983781,0.2834563486,0.4267004957,0.5209390694,0.58939779,0.2364634755,0.4612823036,-0.8292461649,0.8497642811,-0.4782534072,-0.4644152299,0.0858507167,-0.6709961363,-0.7777798498,-0.1406570936,-0.2839269282,-0.2444053138,-0.3973517763,-0.4054401314,0.8342212011,-0.4678245677,-0.3797013824,-0.3175855602,-0.1050999345,1,0.047666667,0.028333333,-0.325333333,-0.065666667,0.14,-0.002,1
outputCount=1
weightIndex=0,61,3721,7381,11041,14701,18361,22021,22441
weights=##0
##double#22441
   -0.2884775346,0.2179331301,-0.1214626439,0.2222388038,-0.0205790167,-0.4705473999,-0.5573914746,-0.2719517034,-0.0065087031,0.606466407,-0.8607956925,-0.0438725093,-0.5379806175,-0.0795690119,0.4259317563,-0.1313051811,-0.6143482153,0.4176549938,-0.1239185301,-0.2834212927,0.2155317766,0.0315931116,-0.9200646804,0.0864449201,0.0903228247,0.6847489214,0.5180572415,0.1432411613,-0.4425662776,-0.4622889988,-0.9295735527,-1.1772190177,-0.2988326314,-0.6911638803,0.2960901055,0.4890963311,-0.0707382341,-0.043391922,0.6578467609,-0.2071939561,0.0428377679,-0.4170666755,0.2075961929,-0.2408218774,-0.75699211,-0.9226540423,0.1343449769,-0.8183204655,-0.0723491528,-0.0993822168,-0.3022577422,-0.1521956055,0.6458253891,0.0182308309,0.1060300099,0.8911333741,-0.6944252811,0.0426683892,0.0766568927,0.2029915056,0.535459659,-0.9417563601,0.3902055056,0.0859122537,-0.8871840279,0.5888061981,-0.2028366224,-0.980590659,0.8561017862,-0.3268093166,0.5296277877,0.0710647136,0.6898144221,-0.915271942,0.9174815283,-0.5769194454,0.2943116246,1.0549892184,0.4688699413,-0.524041265,-0.7719748,-1.2396061903,-0.4477226111,0.1632428839,0.6533953284,0.1614816858,0.2590219725,-0.7323994934,-0.5907764399,-0.251860358,-1.0124804082,0.0387062899,1.0250485474,0.0572602366,-0.203052291,-0.5177855348,0.1805152404,-0.6699249899,-0.0394948494,-0.553048276,0.9642169669,0.3388748921,-0.8619978588,0.4153238504,-0.8550007119,0.1307738435,0.6380310224,1.0559424406,0.5096631525,-1.1853644425,0.6274023626,-0.254496386,0.1652191125,0.9799966945,0.719195158,0.9605594044,-0.1566569829,0.0273210357,-0.656283133,-0.2908369702,0.2444298993,0.2440737122,0.8248089528,-0.0436562047,-0.5395723407,0.5150065617,-0.9621188667,0.2889779873,0.6401908976,0.6222459654,0.7689818481,0.1418219511,-0.9617829118,-0.2086102616,0.2556139471,0.6422195273,0.6077583384,0.8930267171,0.9171526556,-0.6181939926,0.4051161589,1.0054413221,0.3265544659,-0.6854565435,-0.305316191,-0.7436580307,1.0275595185,-0.3113134983,-0.0370845137,-0.3004801012,0.1364912805,-0.6006879618,-0.93264171,-0.1059269229,0.6678604712,0.3292947511,-0.4798500025,0.1098730563,0.1181762706,-0.6341735725,-0.2022275309,-0.9069520124,-0.8440233773,-0.6944262359,0.2741072178,-0.5822576114,-0.9452333381,0.1842114835,-0.235015253,0.7648441584,-0.8346869272,0.0741476866,-0.2345125397,-0.0287853207,-0.1063786992,-0.7016655752,-1.2040509342,-0.5773134454,-0.2627786587,-0.8718646712,-0.4042497493,1.1856527675,0.2507375484,0.1596715312,-0.5750100847,1.2861566602,-0.354156052,-0.7484332916,-0.5802749506,0.2669870938,-0.6965067723,0.3494831865,-0.0777398051,0.5130437806,0.1205702348,0.879422741,-0.539282597,-0.5637362002,0.5602097751,-0.2675413894,0.6137957643,-0.3988292938,-0.8792953214,0.3847949142,0.1183258664,-0.7806324049,0.1213305389,-0.2031731747,-0.8612047904,1.2517956838,-0.1819368397,-0.4620817901,0.0944063502,0.8620577016,-0.3801678784,0.3387611572,-0.5234164309,-0.8679949251,0.9790125391,-0.4309659739,0.0909861178,-0.2452204978,1.7445262322,-0.0902325439,0.3546437743,0.4006203576,0.326507281,-0.6790186583,-1.4539763961,-0.4984007405,0.1994169867,-0.3240037882,0.3532239957,0.5809913394,-0.5009042954,0.1608727917,0.5654314972,0.4486424983,0.3996364424,-0.4864250734,-0.3397484892,-0.6074177753,-0.7117759448,-0.9055384959,0.5741051758,-0.4512658871,-1.0621178333,-0.9348662794,-0.2634461778,0.5943607307,-0.0764294923,-0.4403336102,-0.797546716,-0.2955385369,-0.6941880625,0.635232756,-0.789053103,-1.0360551264,-0.265816931,0.1994436717,-0.5281225249,-0.0002717481,-0.6118212938,0.8143103956,0.5025818868,0.3279928187,-0.4080864287,0.7779705468,-0.8723554578,-0.4755732967,-1.1245414991,-0.3992290677,0.3025408737,0.6647028983,0.5412606754,0.4363066926,0.0854289331,-0.153086436,-0.7010688523,-0.2483562914,-0.5980576014,-0.4056863937,0.3175552926,0.7156026839,0.1986807192,0.3364704662,-0.7500122819,-0.7126472062,-0.0996384479,0.2639928589,-0.4888584681,0.603284089,0.0081246004,0.5344803839,0.6267300371,-0.3288325442,0.6054697703,0.5945104954,0.3184121528,0.2692602165,-0.2635483422,-0.6455449999,0.3877860333,1.7246481605,0.6506687614,-0.6784842978,-0.0353787436,0.7087368678,0.6667267564,-1.2440134991,0.3791904286,0.7972389465,-0.4436941761,-0.0023916758,0.134232726,-0.2274451559,0.6091753382,-0.0868891005,-0.6207465168,-0.5482794573,-0.819776894,-0.1011443868,-0.0443658058,-0.1156824836,-0.3133790654,-0.4910606778,0.4442649441,-0.7240470654,0.0530132685,0.2010981844,-0.5892782229,0.2989042374,0.9491828622,0.2559024436,0.574198996,0.0226696225,-0.1078459949,0.4968690758,0.3610894969,-0.3410048193,-0.7093208915,0.005757197,-0.3894251605,-1.2132738266,0.3534816597,-0.5579552984,-1.1181624026,-0.2785225893,0.8165003093,-0.9737069681,-0.3091419792,0.4362042202,0.1444096069,0.3184153784,1.0205573624,-0.5854164329,0.4362126753,-0.5634627678,-0.3461388788,-0.7393968784,0.0086082194,0.7873765157,-0.9873867275,-0.2742041046,-1.0342228684,0.7935287524,0.7526572486,-0.4529320271,-0.2006782479,-0.6884051263,0.012456797,0.6057330104,0.3970562689,0.478267619,-0.6488890785,0.2300431915,0.8980940376,-0.2453725789,0.9309017072,-0.6250196726,-0.275204122,-0.4549169105,0.6350467156,3.410741982,1.1158941322,-0.9004565159,-0.4106853934,0.0946685929,0.0034742465,-1.1298117345,0.5222361524,0.9150199501,-0.0646260004,0.9080062106,0.212419434,-0.0373297489,0.829568366,0.2613365047,0.9500160296,0.9239975002,-0.0222748882,-0.8581627599,-0.8975449153,0.5564673332,-0.1912797902,0.1141105216,0.4400872117,0.6763037762,0.7782626207,0.8679391834,-0.4728573041,0.5203677024,1.0359234621,0.0591351803,0.0802075713,-1.0237111769,0.8576303095,-0.6394263149,-0.1865404263,-0.8494209222,-0.3084570282,1.086771155,0.361230919,-0.3493030271,-0.2456040057,0.4551496181,-0.1811369728,-0.3254179286,0.6066257407,-0.2434402725,-1.0400978261,0.4645525405,1.0151694068,-0.3031542286,-0.9942471703,0.4833475111,0.168633438,-0.4714025714,-0.2123298175,0.3337769599,-0.4710262877,0.7613617347,0.7896377834,-0.3389270166,0.3172025448,-0.3273382756,0.6182924328,0.2781804071,0.6816267799,0.7915020284,0.2440414715,-0.7354228524,-0.1841117996,0.4604387373,-0.0167405955,-0.8675116169,0.2406798031,0.8799030551,0.0410931569,0.9247984626,-0.0159548877,-0.0082713214,-0.4891256821,-0.9061979275,-1.0100841012,-0.682279536,0.2931347537,0.8484958434,-0.0137941536,0.9639816169,0.0882977394,0.7925967115,-0.8221595384,0.8931487247,0.8301031611,-0.7574523001,0.1142056845,-0.3435248991,-0.6415226206,-0.1941946186,-0.0258303711,0.7809655673,-0.6766768369,0.1176889172,-0.4316664135,0.6654788504,-0.486570099,-0.5203347709,0.5503744993,0.471730801,-0.1440092772,-0.5624626364,1.1953545619,-0.0753933665,0.7509751083,-0.8817039318,0.7595249074,-0.8538801732,0.3579086238,0.8605335591,-0.7530323702,-0.6793013758,-0.1096025012,-0.5989641385,-0.671226574,0.4243852634,-0.5719474891,-0.8229572216,0.3872869955,-0.3528071109,-0.6067381469,-0.5015394251,0.8466205572,0.5698334191,0.0576141184,0.0076140082,0.9310065967,0.0399316317,0.5809057167,-0.6478445417,-0.2393211292,-0.8421091498,1.0439006302,-0.5649700764,0.3067600401,0.6504688202,0.1120187111,-0.6956216335,0.3423990426,-0.380413446,0.4082613578,-0.67942927,-0.0646375371,0.6487972516,-0.5751258077,-0.9395746144,-0.7458706795,-1.3559590534,-0.0113697616,0.1948147751,-0.5283913016,0.9402944314,-1.0064483236,0.5389294981,0.759569012,0.8346797437,-0.0798269794,0.0688420772,-0.9021893692,-0.12384734,0.8876965063,0.7177729012,0.3284048298,0.8792102081,0.1721032739,0.5838229579,0.3124258507,0.6486755744,-0.2984926825,-0.1903971549,-0.6434406439,-0.7905105827,-0.7194320322,-1.2713395061,-0.2575206115,0.9735512563,0.820075952,0.4638047654,-0.5423927989,0.4756077085,-0.1209598514,-0.1202303045,-0.8376551914,-0.4357310281,-0.5942941737,-0.6394374291,0.439414769,-1.322902835,0.4939432396,-1.0478425676,0.6904665475,-0.2871153028,0.5687233709,-0.3030133025,0.8402858116,-0.5342074248,-0.1233776501,-0.9783717381,0.1071523118,0.6452586813,-0.6764662786,0.2755718393,-0.2696804403,0.8439497139,-0.1751858735,0.9658923569,-0.2126214623,0.4624503355,-0.3445126199,0.3735581802,-0.3509966642,0.9357805935,0.9312375216,-0.2523288543,1.2956577129,-1.225941009,-0.4045797962,0.4582594641,0.9263195749,0.2452119105,0.588108603,-1.5793935465,-0.4594646932,-0.8827240871,-0.2876046178,-0.0303619908,0.1571673069,0.3827184923,-0.7722754318,-0.4539680994,0.153695177,1.0988422884,-0.984299839,-0.3202362169,-0.4587499365,-0.2890305162,0.9801898885,0.5205015962,-0.2979627503,0.920573152,-0.5139390114,-0.5620922243,-0.1485089756,0.4790706427,-0.784486865,-0.3809274865,-0.3438106456,0.8743900288,-0.2339265633,-0.1535383833,0.1942334142,0.3938147114,0.7020357569,-0.3278841778,0.7434055837,-0.898732321,0.6293559428,-0.238915219,-0.8752352341,-0.152264571,0.8602363458,-0.1211508949,-0.6386056333,-0.5327114531,-0.9781859556,-0.1433517222,0.1965935392,0.4603024714,0.1666009074,-0.3583621067,1.3310262863,-1.7523982037,0.6554993324,-0.5956082885,-0.4857256097,0.0970087348,-0.5412716325,1.9258239674,-0.7188806249,-0.3848037709,-0.5683441529,-0.3203507705,-0.2340843439,1.1340962357,0.6985926014,0.5382587445,0.7767769629,-0.7767639561,-1.1395787099,-0.1240859502,0.0912365089,-0.8747948643,-0.6149845637,-1.3396602042,-0.4793983456,0.6091483466,0.8671138592,-0.4610820842,0.4856299223,0.2461947882,-0.9666336982,-0.4379442324,0.0862235316,-0.1437869791,0.5471714432,-0.9871329056,-0.3366232267,-0.4388130823,-0.1861000999,-0.8990220884,0.8654582612,-0.9989711908,0.8288638727,-1.013805211,0.4254455721,0.2569951305,-0.7425355324,-1.2139529269,-1.0659274464,0.4890321694,-0.420275111,-0.4812605516,0.9648582795,-0.7603951077,-0.3326398705,0.3523307474,-0.7006079693,-0.7545696913,-0.6421436502,0.2984061898,-0.4521194115,-0.7120822822,0.83013423,-0.5020413078,-0.3488423385,-0.0796840858,-0.6652592942,-0.4558496324,-0.2067551488,-0.452571288,-0.854277923,0.7774628666,-0.3753661431,-0.519739539,0.1791201097,-0.4667906947,0.1178306829,0.5642120551,-0.1551521238,0.1335347092,-0.3906892034,-0.5016510214,0.5871165779,0.5608163938,0.4228423182,-0.4179014171,0.8351211039,0.6205903091,-0.6996596894,0.8440572523,-0.0240590269,0.4701065301,0.1794071911,-0.5279901578,0.1881065326,-0.5310349121,-0.5215739431,0.7039078524,-0.7013545674,-0.4218616915,-0.9803457485,0.7745188338,-1.208401592,0.8411965164,0.4263069947,-1.0953418088,0.9454685568,0.24497934,-0.2349627363,-0.0019137219,-0.0760203238,-0.8889446384,-0.9841577703,0.7073440583,1.0285312138,0.0558195094,-0.8758946806,-0.5270200857,-0.3783126102,0.1474950238,0.6739459851,0.3728835245,0.1360528113,0.5032179644,-0.2578723341,-0.7977639005,0.6817758978,0.8247954549,0.216054529,0.2478614457,0.565275122,0.2357908933,0.2512429281,-0.4856876882,0.6794493106,0.0224847553,-0.6059588797,1.2349453847,1.1595328696,-0.8011391083,0.8492179423,-0.7582171179,-0.2487641224,0.0881249102,-0.0285036549,0.0753012909,-0.1728206301,-0.8385405213,0.5986757683,0.6836726105,-0.7863347375,-0.7970967314,-0.5835285601,-0.276715269,-1.028669372,-0.7638902435,-0.3371579501,1.5311533824,0.5441484284,-0.8546495408,-0.870785079,0.9137966528,0.3662406548,-0.0300543929,0.6182686253,0.1277134631,0.853559999,-0.6580666741,0.7781605342,-0.4259131546,-0.3424894885,0.7689416155,0.4717598218,-0.9590541365,-0.2982277827,-0.2351421825,-0.1152188627,-0.4139925245,-1.1183606703,-0.1644422567,0.1413268913,0.2826871177,-0.2914415459,0.7121816892,-0.5238637148,0.9929077025,0.5381809746,0.1863991932,1.2002258698,0.1725540328,0.3850289278,-0.219986496,-0.4996436947,0.3811454599,-0.9278888484,0.4682103181,-0.5839869021,-0.3643068806,0.0278279265,0.0410570207,0.0668528109,0.0302868055,-0.6758368532,0.3234461444,-0.3339595948,-0.9828040408,-0.9059794574,-0.5792553708,0.3239463553,-0.2672642539,-0.6037053248,-1.5910639658,0.6784804812,-1.0277432981,1.5498818279,-0.6822731049,0.6039158727,0.8371365273,0.0319234132,0.3949876342,-0.3639861625,-0.9805537431,1.1320419351,0.7085597815,-0.2093358593,-0.1838430493,-1.0625177377,-0.8187693202,0.4214137557,-0.8588331948,0.7630885082,-0.6210330894,-0.455964691,-0.2008939526,0.4261442976,1.0012172775,0.7787622769,-0.8996069962,0.3822241085,0.7611175331,-1.1533012392,-0.3440520496,0.307683494,0.6157886176,1.001057992,-0.8033689711,-0.4690384482,-0.8550818242,0.8409928986,-0.9534529898,0.0630089119,0.8072120088,0.3312156612,0.0454803736,-0.320102699,-0.8956917661,-0.5483483614,-1.1523217767,0.6026735552,-0.9759408416,-0.4487245003,0.7648305776,-0.1687225876,-0.1087447555,0.7710818921,0.4174067173,-0.6940220953,0.7543527087,-0.5105699875,-0.3604497016,-0.6145879551,0.6357145058,-0.1990352284,0.4872169777,0.8632425615,-0.4353679327,-0.621641964,0.1663894049,-0.4821712148,-0.3617032561,0.041662452,0.5322642554,0.8537883931,-0.1446503107,0.9266945147,-0.6272054811,-0.9487840085,0.2890615629,-1.1470486213,0.1631839582,-0.4922922186,-0.623693815,1.1468550472,0.2914545915,0.6180686493,0.0879985607,0.4344041482,0.4726813979,0.9598177339,-0.069827936,0.3857052392,0.6362062508,0.3894617552,0.4597590137,-0.658127912,0.2884715321,0.7607819252,0.5275440503,-0.3157200577,0.2453078359,-0.1698556948,-0.0678258153,0.4717414407,-0.4445343852,-0.5214927505,0.6335076105,-0.3529361902,-0.6378183283,-0.0851334735,0.8534259757,0.9462544599,-0.0575915007,-0.0802828472,0.4808109911,-0.4855770761,-0.9217327065,0.9151926824,-0.8747836393,1.0354148873,1.0320391319,-0.8120665566,-0.9241828213,0.1904229676,0.5933353001,-0.1587618848,-0.42504713,0.887894582,-0.6013325904,0.7280051682,-0.7760889951,0.4759013283,0.5017010977,0.4247366549,-0.3508536563,-0.7010198948,-0.6134399867,-0.3672037974,0.4843048243,1.0736861143,0.6010137375,0.4637467475,-0.7764945688,-0.0414423902,-1.0133589113,-0.5545578276,0.8948678663,0.5966184601,-0.0155339317,0.2760381433,-0.0622867507,0.5582167352,0.5912170523,1.0379822501,-0.9437157644,0.670119267,-0.3711697079,0.3666682256,-0.279311714,-0.099079738,-0.753630492,0.7965446094,-0.6211491559,0.0727066138,-0.2343602137,0.5285485541,-0.196756352,-0.2499850019,-0.2722137637,0.0360108732,0.1702949855,1.0580876654,1.0789780075,0.9040484304,0.0650051552,0.8564689197,0.811281982,0.6620896318,0.2072495303,0.2884898178,0.0079649817,-0.0376648371,0.1330721108,0.0057379414,0.2963938354,0.3083489566,-0.1626414377,0.8937530007,-0.5089880044,-0.5508039779,0.623425789,0.614089389,-0.4821641832,-0.4205600136,0.5771708697,0.7765353935,-0.6257713008,0.2293971302,-0.7991548606,-0.4882251142,1.4255655253,0.5984166025,-0.0542688827,0.7435151429,0.6800346598,-0.2913046899,-0.5714576058,0.2094166941,0.6499475684,-0.1629626694,1.0799486663,0.5339406689,0.5087758437,-1.0334516462,0.5390776791,-0.2388969402,-0.268049499,0.4693753354,0.104738477,0.147614571,-0.0622648917,0.6286316002,0.9522891923,0.6281814245,-0.7746333889,0.2870707701,0.2303312567,-0.8003105246,-0.4280240405,0.9186012783,-0.7245553598,0.0402833366,0.8583776277,0.0253182483,0.1396477326,0.41324298,-0.656757725,0.8648265569,1.0772672739,0.9053570037,0.9200878964,0.5398491365,0.0660338536,-0.9501827749,0.8550399582,0.072200703,0.7101809391,-0.7477768435,-0.6067870637,-0.8457670694,-0.6027094408,-0.0765606725,0.0981813617,0.9164484676,-0.8934615614,-0.0761669928,-0.1548887082,0.7510330755,0.2196750803,-0.6273275727,-0.7185358706,0.0410762657,-0.7314358286,-0.950390817,0.1704449274,-0.7654111668,0.3530714031,0.3684535016,-0.5524399265,0.7753143698,-0.3846911701,0.8348035412,-0.8296617488,-0.0818946211,0.2323857011,-0.8063743104,-0.3963856591,-0.8481116249,0.5231389286,0.0664196582,-0.328306874,0.3825180051,-0.9128120629,-0.1287764933,-0.5321659519,-0.430914391,-0.3793882864,-0.8972200758,-0.553490289,0.0130845315,-0.268452878,-0.6662801424,0.6446738225,0.1410133959,-0.4361226844,0.7655471495,0.9462043639,0.8170710651,0.893196349,-0.3498742327,0.2462912826,-0.4883189519,0.8086028436,-0.4240100009,1.0533288882,0.4586647231,0.7310344571,0.8185217939,1.1418228975,0.8012624717,0.4608269922,-0.2335147339,1.1938029351,0.2998366209,-0.4071725571,-0.7510081027,-0.1155159392,0.9544765102,-0.2628313675,0.8967317169,10.1442024505,-0.1400534868,0.227132087,-0.7965619292,0.2459591298,-0.3246181673,0.4994554243,0.1741200446,5.2399938244,-0.2688416854,-0.3424984704,0.346098643,-0.5287384508,0.0084762094,0.5238750108,0.4132420848,0.1761766381,-0.9238770359,-0.0454282519,0.337541355,-0.1538753637,-0.028243323,-0.8658550833,-0.8720575727,0.3422449071,0.7045433426,0.5271698389,0.540563856,0.5492333372,0.3736173535,0.9442458413,-0.2595727132,0.9322791138,-0.5247617951,0.3938869025,1.1016765658,-0.1684917741,-1.0615745019,-0.1809679521,-0.1315249343,0.2048670649,0.8245094626,-0.5427379266,0.9127058244,0.2627897702,0.5051222229,0.5727341269,-0.6997002288,-0.1064343026,0.6250895337,0.4914470639,-0.775724205,0.4794095144,0.0018814696,0.1718597182,0.8333164944,-0.9229261682,-0.2085491377,0.0718612969,0.44228663,0.4624920111,0.1217390739,0.7579109582,0.5716393621,0.3647268946,-0.0631757591,1.6008325069,0.3826993549,-0.0967688484,0.919038465,0.8784462008,0.3997275585,-0.6509423565,0.5394324084,0.0265771362,0.2826636181,0.8129515527,0.772068866,-0.2970663863,-0.8882510725,-0.3262262309,-0.1401417915,-0.7958358373,-0.9473949871,-0.4180589796,0.2920578526,1.0990594233,0.961513752,1.025984458,-0.1554884545,0.1376913669,0.4982567758,-0.3507142126,0.1411648703,-0.2801793096,1.3349045563,-0.3994334291,-0.1838721523,-0.9025592335,0.4701687079,-0.4979616445,0.8122993632,0.1488310126,-0.2516017505,-0.8664500801,-0.0510767069,-0.2266134457,0.9819228679,0.43684151,0.6366383317,0.0653966864,-0.2500953224,0.485476373,-0.5443730894,0.0616209636,0.7053711309,0.2165455388,0.6940964544,0.6351200046,0.0800383171,0.757102094,1.1797246061,-0.2613077832,0.0631784129,-1.3447343011,-0.0522645452,0.6019423371,0.4373888292,0.9626136512,-0.6449218725,-0.8165632543,0.0756158038,-0.831890873,0.6439875922,-0.0904377546,0.6737370968,0.5651193297,0.8365484171,0.9088940752,1.5519838877,0.4867824106,0.1679271364,0.7635523207,-0.7455202467,-0.6848826138,0.199433747,-0.0294528691,-0.0719351149,-0.0897945383,-0.1983447547,0.8044253843,-0.2257213476,-0.9732133487,0.4813387294,-0.4396598428,0.8105641921,1.1530411473,-0.7749185608,-0.9576463045,0.2900529675,0.0030223934,-0.1341686863,0.6419636751,0.0136267545,-0.0148026642,-0.2289881902,-0.1700557646,0.1383854886,-1.0269408901,0.5310950667,-0.568864243,-0.0070313992,-0.0351926459,0.6209802188,-0.300904829,-0.3118066995,0.5929139013,-0.7895289106,0.6113968413,1.3284869795,-0.0022573148,0.2718523612,0.7333076327,-0.5009744104,-0.1053847344,-0.8550325938,-0.7932362593,-0.9691460112,-0.8763345705,0.8997136265,-0.8024335452,0.6714005309,-1.3743364006,1.0731131877,-0.8628170246,0.8685203516,-0.0615796148,0.2784385162,-0.37018197,0.4723993222,0.633861889,-0.9015037378,-0.4511842951,-1.098271697,0.4453219334,-0.5002496256,-0.7433657134,-0.7780851154,0.250900377,-0.3730444162,-0.8157526991,0.0493261465,-0.7471080365,-0.5777603723,0.8352166673,1.2767399255,-0.1999804348,-0.3460712507,-0.2887963708,-0.319165629,-1.0875231477,-0.8025444357,0.6254319489,-0.0153259963,0.5705827311,0.2652939295,-0.8425761741,-1.005644382,1.0617863256,-0.8277465233,-0.7519148077,0.5885871527,-0.4662161217,1.0491402273,-0.5340485589,-0.8621834064,0.4973483925,-0.3277966003,-0.8949075338,-0.1384788065,-0.6835280246,0.3713037434,-0.6033132167,2.1274684894,-1.238021191,-0.7815874935,-0.4423447414,0.8988144627,0.96451998,-0.8965821724,0.0220661777,-1.2801128534,0.3650704447,-0.4414496532,0.1034750079,-0.2644535953,0.5986895519,1.0445734585,-0.0161073399,-1.4236558653,-0.3489363205,-0.2288101965,-0.4772639541,0.0761214999,0.5741040747,0.3242026978,0.3448535401,-0.9585533858,0.0811825434,-0.5773393606,0.3544772051,0.7939169783,-0.6169006003,0.9458161525,0.0147182488,0.0221198268,-0.7237565098,0.5974474334,-0.0562522699,0.7116152229,0.0039407528,0.8010094186,-1.037087328,0.4506999678,-0.5552968394,0.4778438943,-0.3077927024,-0.6543452073,1.4150550133,0.5664758766,0.0486284473,-0.4452352992,2.1175521952,0.4292427363,-0.7768883414,0.2485730167,-0.0143261156,0.0576148621,1.6313810619,-0.5448489643,0.7760283555,-0.3298486983,0.5582394767,0.1662078534,0.2277693468,1.1781021563,0.0969083302,-0.4466843849,-1.0899136227,0.988651021,0.0848579435,-0.2308924524,0.2830732513,1.1907647684,0.1914320026,0.6112899964,-1.1638860272,-0.081612154,-0.5906972383,-0.3685339338,0.3951033929,-0.5943084358,-0.7100486647,-0.0769698395,-0.3881709793,-0.6473501795,0.2496331274,-0.4914791771,-0.6627116337,-1.2399703781,-0.2926263398,-0.2041629507,0.9745422363,0.3249869493,0.2105381877,-0.7624082499,0.9574690898,0.8249670091,-0.4702364587,-0.9952394837,-0.9387016555,-0.7252655157,-0.08284425,0.7768621597,0.5683966217,-0.2611518427,-0.6003913295,0.5362814964,-0.6570722173,0.7025876754,-0.7567297738,0.0069121336,0.8146118511,0.478993547,-0.0919220524,-0.1298861835,-0.1372885274,-0.7822432726,0.2011192117,0.0269469199,-0.0337272036,0.0021181352,1.1120728884,0.6022357767,0.2283658127,-0.2519342167,0.8989541232,-0.481629057,-0.1227492032,-0.1101037682,0.5453478678,-0.7230387348,-0.1885099363,0.507988272,0.6905019041,0.9024644237,-0.2476864632,-0.5748924416,0.0854538257,-0.4930758153,0.3347852942,0.6614191916,-0.2329474362,0.2119533014,0.6945464565,0.553009751,0.1548870277,-0.99097898,-0.0759655905,-0.3310393575,0.5552531478,-0.1188435682,-0.0149839499,-0.6159828171,-0.9127860669,-0.2513097593,-0.8270179553,0.8576598067,0.4067988206,0.7629740467,0.6998174824,-1.0322012407,-0.9056270688,-0.4397772924,0.9693118101,0.2786129687,0.8109199089,-0.5813963176,0.7358674549,-0.9738219796,0.2590978819,1.3781983035,0.8237716886,-1.0755217028,-0.3081401774,-0.9835521765,-0.8886084271,0.0374618241,0.6373627992,-0.4482049646,0.7480451526,-1.1003467342,-0.641186905,-0.2576667708,-0.9481050513,0.6682448889,-0.5961781869,0.5013167006,0.5726690573,-0.6294494082,-0.8568070276,-0.0790115305,0.3058152352,0.3217400343,-0.7307542104,-0.7628754586,-0.1352249361,-0.3798837951,-0.7961942022,-0.7283620032,-0.1439758537,-0.3261710505,-0.2669038439,0.4083283795,0.1486508356,-0.1152915729,1.2157156472,0.6935239784,0.4759133632,-0.9497614624,0.1476710007,0.7293905157,-0.6159490997,-0.5302139111,-0.7184145113,-0.9652659659,-0.6445181502,-0.4693938769,-0.0342597049,-0.3148360494,0.0551044425,0.2674560661,0.6683560575,0.3179507168,0.2585517725,-0.5616562126,-0.6264898004,-0.1129567185,-0.5997385729,0.2032473494,-1.1410009539,-0.7364788954,-0.766867383,-0.6846874779,0.2743287725,0.2030642353,0.2962730208,0.0047319592,-0.1984911923,-0.7856145388,-0.5403812388,1.5353734933,-0.610549294,0.3707812847,-0.0510481065,-0.4661035097,-0.7646323475,-0.3483094103,0.026833763,-0.8851080198,0.0448120259,-0.4129884315,-0.4335969503,-0.7636555238,-0.2692077279,-0.1603274584,-0.6580894915,0.6831612951,0.1195356171,0.8834722879,-0.4451833306,-0.9004689815,0.043672363,-0.5534311774,-0.532872876,0.2845591054,-0.2587648265,0.0810920721,0.4708254755,0.4927295773,-1.8227856198,0.2114287034,-0.0940936654,0.6855895634,0.87252275,0.9659342388,0.112672207,0.5210043177,0.8121850993,-0.0093492473,1.6360235034,0.3876524601,0.6316292367,-0.0389464887,-0.9388147564,-0.9825211076,-0.5021643026,-0.4977175959,-0.6297203378,0.0735885084,0.6903425029,0.4412830701,-0.3003070878,-0.1992364835,0.127774313,1.2074679861,-0.0961326504,0.5081769673,-0.1952287056,-1.0213339104,0.1972415826,-0.9600409975,0.3416290993,0.3125104041,0.222127532,0.8778154293,-0.1839420759,0.718906798,0.9648374003,0.9266157048,0.0505161702,0.7416195327,0.8495133775,-0.6785148595,5.6058767338,-0.0004545117,-0.6874259198,-0.2442500013,0.4329647037,0.2522912977,-0.0674968124,-0.5065768196,-0.0772964458,0.5268044285,-0.3785647387,0.6399800312,0.3418282143,0.4386757919,-0.3449990407,0.4946842039,-0.9369515098,-0.1562484901,-0.0831740688,-0.8122771297,-0.385427518,-0.229925583,0.7943209001,0.1180175418,-0.092757455,0.8568072485,-0.0980338805,0.4445848848,0.3377117822,0.1388767987,-0.6238240387,0.8437913025,-0.7391629105,-0.1499530654,0.0970052886,-0.9855264313,-0.6290693272,-0.7076872934,0.6539145142,0.6253734305,-0.6601092415,-1.065563672,-1.3683474077,0.0144903286,0.7886241646,-0.8923063119,1.0125380082,0.9540647698,-0.1283709905,-0.399904311,-0.6474158805,1.5761780616,-0.5958632886,-0.2283782324,-0.631246582,0.1721755022,0.3992640781,0.2976677625,0.4816021394,0.2683265997,-0.5907889923,-0.7966560312,0.8181562488,0.3906312055,0.3777166214,0.1507794579,0.3819062526,-0.1223421681,0.2139957702,0.2987747374,1.475467785,0.1292666547,-0.2534774796,-1.1746702086,0.7529112213,-0.7361964174,0.4240388331,-0.6283474592,-0.8051585644,0.4514395379,0.6052811727,-0.422475621,0.0918371979,0.1791415065,0.7735287625,0.336602877,-0.912006463,0.0246176799,-0.407658577,0.5994203079,-0.65012,-0.6333178198,-0.5289337626,0.3799665061,-0.578348166,0.6415567068,1.041337535,-1.0162382211,-0.1623047719,1.0057384767,-0.3858585385,-0.2868703613,0.2626868931,-0.8043239505,0.6431225263,0.0520628026,0.8885281386,-0.9004318934,-0.6066656885,-0.8340209034,-0.2039409589,0.6815774202,-0.4076065781,0.3826598518,0.5606615921,-0.5528885508,-0.0964080548,0.7973692346,0.0851449792,-0.3473069935,0.1582979081,-0.6546158787,0.1951252003,0.6286439885,-0.1718675735,0.9075273438,-0.1040550275,-0.3755698864,0.3343838426,-0.1705538869,-0.5146338422,-0.3062477447,0.6397518915,-0.6976404172,-0.2816413709,0.8318199146,0.0908647201,-0.8734948904,-0.451857497,0.8200751308,0.772060538,1.0296800272,-0.5880419411,-0.0031613287,0.5926694845,-0.811443307,0.6770111268,-0.4539328753,0.2511153115,2.210314402,-0.599708604,0.5359380101,-0.0286699904,-0.0281842784,0.8472357362,0.1266423597,-0.5365579155,-0.6679929104,0.4040943746,-0.4481449068,0.4232385006,-0.7148509503,-3.044313773,-0.8305247209,-0.5710070429,0.2330338138,0.2754989263,-0.1563987259,-0.6173365324,-1.1487087557,-0.9958905709,0.1909201762,0.2467500049,-0.2769317461,0.450124161,0.7659555203,-0.8402429142,0.0742068482,-0.7944532193,0.3225238126,0.7687861827,-0.8255687077,-0.3892614611,0.8559756134,-0.2670791315,1.1731341771,1.2131366917,0.2045054333,-0.8878490711,0.1389231058,-0.0929448534,0.3509048006,0.1567481211,-0.786303977,0.1268767541,-1.042320546,0.5250477619,0.4456049901,0.1924296088,0.8946723853,-1.1806371718,-0.4596764841,-0.7050076008,0.6350877251,-0.2805670977,2.3404577216,-0.0896578455,-0.4752875867,0.2082060723,0.3223165236,1.3866874862,0.6435961726,-0.7265031981,-0.7840444214,0.8187588972,-1.022405662,-0.0261810006,1.0141305792,-0.4721992045,-0.0838612763,-0.9202115683,-0.1805114196,-0.7696490099,-0.7282473835,-0.0939150837,0.6320383644,0.7155035866,-0.3505036678,-0.887878326,-1.0971618163,0.61762271,-0.1701184319,0.3788766023,-0.8987116516,-1.016397092,0.2858804554,0.2223843438,-0.2376405042,4.287986224,0.8488372338,-0.6917957095,0.6509676818,0.4770907092,-0.2439103044,0.7650968216,0.9536818316,-0.4713096678,-0.0536142972,-3.1516536814,0.6942315969,-0.7097128487,-0.7615391492,-0.5495740702,-0.6114571365,-0.5349384634,-1.0409097657,0.2924924994,-0.1727744895,-0.4124218127,0.41127585,0.3328923654,-0.4785333303,0.6897031071,1.0033157826,-0.3848653011,0.6120191169,-0.9135032128,-1.0723769761,0.0310600144,0.4356255008,0.1828382099,-0.0356789734,-0.7285193185,0.2018046023,-0.9709905266,0.8570280868,-0.7648433059,-0.6803864517,0.2973433661,-0.4642041551,-0.0084042558,-0.2855187513,0.671544603,0.8679982103,-0.2023667443,0.8637371893,0.5225587771,0.3467400813,1.3376146081,0.3719630692,0.547489262,-0.2180585471,-0.5582439842,0.4074998679,0.2807447645,-0.6038631781,1.4098474059,-0.7128469952,0.3939302112,0.8231722821,-0.2195304616,0.0684317686,-0.2495786054,-0.177604346,0.1836076411
   1.0653516749,-0.1517432646,-0.540161896,-0.6177327002,-0.4178438785,-0.8671658548,0.6015837961,-0.5254604288,-0.259356383,0.6377289983,0.001540894,-0.6203035076,-0.8840047912,-0.1162093981,-0.7088886039,0.154576492,-0.7414670496,-0.4766310832,0.4957328877,1.0713046563,0.4715495764,-0.4474905604,-0.5663185931,0.1674128687,-0.6662648668,0.6698429769,0.9707128731,0.2085846531,0.887566872,0.5317037953,-0.2212777213,0.3203564049,-0.332806308,0.6307958431,0.035742099,1.1125368843,0.3109984132,-0.2300160733,0.1028421366,-0.9203776133,0.7554558821,0.0031126942,0.5633989239,0.4700034317,0.9240324173,-0.3950024471,-0.7729134733,-0.3895758995,-0.8826765678,-0.5087495361,0.5475102497,-0.9606292217,-0.8089381775,0.8014141776,-0.1847224287,-0.3120861216,0.0316790908,-0.6823973118,0.0905904061,0.2608886859,0.6571828074,-0.6587365248,0.016500192,0.1243712064,-0.3514481041,1.1479465812,-0.2746923632,0.0312996877,0.1022739307,-0.5166339749,-0.9044560964,-0.4498687964,0.310178901,-0.0692626682,-0.610068333,0.6188347205,-0.1047891564,-0.3602001661,-0.3545314612,-0.7738265658,-0.5649624585,-0.5612277352,-0.5823937585,0.12367839,0.8552255555,0.0136695665,0.7075212255,0.7603615064,-0.4392064819,-0.724615175,-0.0196863398,0.7057145857,-0.5097708325,-0.1049009178,0.0675483045,-0.5825836154,0.3574007497,0.9560301973,-0.7570315832,1.3223793614,-0.1545305204,0.4843871887,-0.2716294073,-0.5624895685,-1.0494833243,-0.4179689871,-0.7727876589,0.2118995495,-0.264202384,1.1159908522,0.7563887321,0.5781480073,-0.0509487544,1.0066839665,0.035432384,-0.3496416295,-0.5996591312,1.040513178,-0.6498030102,0.7073284947,-0.0997875598,-0.6465303875,-0.0135664364,0.6226727232,-0.659902343,0.8324408423,-0.845147737,-0.6067669732,-0.2268285594,-1.0030197795,-0.4315462742,-0.2752254501,1.4552992846,0.3603972968,0.2941351767,-0.9939266539,0.8834372342,0.7457432218,-0.1770608376,-0.7809425789,0.4774025598,0.588799529,-0.5477903028,0.1997844439,-0.4954774476,-0.7726416798,-0.3442508527,0.1834061907,0.5707976471,-0.8230200712,0.4288708618,0.1239662248,-0.3211686238,0.5325900086,0.6506371409,0.2769469519,0.2495904106,-0.4629235686,-0.2677544179,-0.7847836303,-0.185520348,-0.7258459544,-0.1957230573,-0.7614316483,-0.2160949887,0.2184426431,-0.8786317183,0.3343618802,0.9469466575,0.0005718524,0.1359555872,0.9230082701,-1.2637455819,0.0076172284,0.343176817,0.8975445561,-1.1582998416,0.2378767814,-0.4276407894,0.8932984768,-0.1722587928,-0.0405807193,1.0952848145,-0.8271073951,0.348047775,-0.6412184918,0.7295885153,0.9674894027,0.0264739032,0.2578124953,0.0020165149,-0.775438243,0.8316148405,0.6353204886,0.7919616364,-0.6622263355,0.0311693671,0.1753996182,0.1900632562,0.7057193956,0.794460799,-0.9653215153,0.3469845002,0.1761322813,-0.6618322673,0.0392278856,0.8986684875,0.2074543936,0.433115134,-0.4303281085,-0.0564282463,0.2285071028,-0.832741609,0.5949855206,-0.8616814119,-0.0886768033,-0.3625001384,-0.3884932949,1.4878133615,0.6465335624,0.3285508365,1.1354075567,-0.7567474864,0.7255773203,-0.3771364572,-0.3680287898,-0.4725677608,-0.665192227,-0.9714100236,0.0438856844,-0.4021792378,-0.463170554,-0.3102103778,-0.5870719913,0.3997011269,-0.6433364838,-0.1832014317,0.3186801173,1.1125794612,-0.0651792573,-0.6811619101,-0.6343429499,0.0070679235,-0.8294731023,0.9447818265,0.908192847,0.4850802862,0.303292965,0.4923834803,0.2344198159,0.8230732455,-0.3601276836,0.5837096616,-0.7168422674,-0.0823472213,-0.5308943057,0.5514025913,-0.0153392725,0.3495898747,-0.741907225,0.232386106,0.9715569726,-1.0949070528,0.6335792508,0.0954379051,-0.0551768778,-0.4211922333,0.2002891648,0.2389144462,-0.6651850509,0.7790600403,-0.6423899021,0.198762276,0.7188273801,-0.0417113383,0.2753016618,0.0542209317,-0.4418207291,0.4515059182,0.5206361922,-0.0052475816,-0.2323591935,1.3051353881,-0.6355284515,-0.0986508353,0.5456441935,-1.0517862185,-0.5893332942,-0.0916607846,-1.096812375,0.8050584765,-0.5285896381,0.8241926861,0.4566385249,-0.6916695084,0.5734066247,-0.2924490808,-0.9171722696,-0.2038999465,-0.7695000331,0.3432105357,0.3950456832,-0.6760113114,0.587412729,0.02530376,-0.8722172085,-0.5505126975,0.4858807331,-0.470855714,-0.5822007825,-1.3482757739,0.6618820086,0.1978410216,0.9016262571,-0.1923166461,0.2633116839,0.964831709,-0.4706288642,-0.5220990696,-0.0291780015,-0.3844698802,-0.3342093008,-0.2383267605,0.2990924115,-1.0542260406,-0.3435569004,-0.3070759385,-1.1866137914,0.1685000779,-0.2209378922,-0.623690398,-0.9744758425,1.0279090742,0.4732325929,0.3353854967,0.078605884,0.4318532755,0.5429123643,0.2696014672,-0.1524276208,0.4193398187,0.3944969515,-0.5034612813,-0.1553383888,0.1917524058,0.9287339547,0.4191520583,0.6387353473,-0.0885176875,0.0842954679,0.1014672141,0.599731079,-0.1196558583,-0.7753671378,-0.8589553843,0.4285301966,-0.2526181735,-0.1736006403,-0.5395745037,-0.1521951233,0.2416401711,-0.0945359494,0.8050966936,-0.3585314527,0.535885997,-1.0095793453,0.0700511408,0.200127019,0.7895794556,-0.0046566022,-0.9504220002,0.9554891887,0.5332596125,0.4134004241,0.7475827037,-0.976334123,-0.4208383589,-0.7579765782,0.4027207255,0.0692846515,0.0643571137,-0.3525742624,-0.9514906024,-0.6715486521,-0.6743264308,-1.1443337208,-0.0673895878,-0.5482995007,0.5163749666,-0.9623091005,-0.2025327433,0.9142541342,0.9361757008,0.6724039904,0.1891779133,0.2600648348,0.7113275144,0.1216112368,0.943767267,-0.8340836943,-0.4438392071,-0.9008568702,0.7881230689,-0.146113105,-1.0308874722,0.9022930494,0.7323428384,0.3388089151,0.7374119953,0.3445596961,0.8257110414,0.5104867481,0.0903918094,-0.3272281365,-0.9977699355,0.5173872807,-0.4441119739,-1.0013250559,-0.4945479847,-0.0560306722,-0.4610444973,-0.47091863,-0.2553053783,-0.8794948315,-0.2430214062,-0.5247842364,-0.769666646,-0.4091236037,-1.0610685513,-0.0643242105,0.7047751339,0.2685579203,0.5959101835,0.1525238755,1.0391692255,-0.4108765622,-0.4703310964,-0.9344119332,0.5575041024,-1.24863728,-0.237394576,0.8466747627,-0.174042979,-0.8544964036,0.3755031195,-0.9709006369,0.0624924668,-0.4193082762,0.0702063657,0.5570970277,0.5646383768,-0.936729898,0.2530700823,0.3670678161,0.0651067722,0.3260671948,0.2460460224,0.6349368815,0.9463543382,-0.0732131725,0.1754605589,-0.5952984163,0.336409019,0.8438178949,-0.6590645765,0.9532226039,0.4742503692,0.7080405001,0.2980961897,0.695023813,0.3212747253,1.1888137142,-0.4097080622,-0.8151736409,0.0724250976,-0.3848715182,-0.5872692693,-0.3495347032,0.0349496919,0.8801197624,-0.0972987576,0.7302866863,-0.7070088619,0.3354877862,0.8354931863,1.2330087429,-0.3930695326,0.7145542485,0.2595197355,0.027160864,0.4919213037,-0.1325757035,-0.9120184812,-0.5785750003,-0.2131060522,0.0873016824,0.1796985956,-0.7262598686,-0.2377830153,0.5103293603,-0.7255066366,0.2592753863,-0.487002898,0.0807740972,-0.3399646126,-0.2776412406,0.0516221516,-0.2861270327,0.4131744472,-0.4834153976,-0.2538769925,0.0728529624,-0.8738224768,0.8270965341,-0.8856290438,0.3264477795,-0.6656179439,-1.0445438146,-0.9052528424,0.7590807396,0.2761054761,-0.40516281,0.2882581722,0.2839648826,-0.6359616572,-0.625625682,0.1055114325,1.0938244599,-0.0995155088,-0.9740930971,-0.3255827008,-0.2949471464,-0.0835736868,0.9870239734,0.4841717781,-0.8771480092,0.0521606774,-0.2109545303,-0.7755158358,-0.2970894194,0.5599958563,-0.3174993977,0.590613131,-1.0024728552,-0.3384257439,0.9113562923,-0.7284064052,0.3753562514,0.5448470919,0.3237948016,-0.2317535856,-0.8959736514,0.5091560912,-0.4413977602,0.560666471,0.4163327713,-0.9147183072,-0.1896124751,-0.1107269545,-1.1870115917,-0.9920168247,-0.4976052942,-0.2840964849,0.1303000944,0.8769343389,-0.005939922,0.3975281776,1.0569570459,-0.7038548718,1.142805388,-0.3024515633,0.7051374456,0.3117064534,0.458089307,-0.8313960164,-0.6065361794,0.8145105441,-0.7612917603,-0.1627020829,-0.0900102123,0.3274119302,0.1507569101,-0.6300116455,0.4916524966,0.1604915471,-0.2573371829,0.2169829679,-0.5181789138,0.9735789962,0.1012196333,-0.911339194,0.4721050355,-0.6581772218,0.270543285,-0.5225520935,-0.9165783874,0.5183445933,0.2573276632,-0.0901492069,-0.5209349671,0.1989092191,0.8452280962,0.2821606632,0.1903133929,-0.2535974207,-0.4267546806,-0.2993034718,-0.0987004246,-0.5313996427,1.2392171447,-0.2161391553,0.9142670719,-0.1400382706,0.1594243227,-0.323765996,1.1544932221,0.0475298367,0.9668494192,0.9537651375,-0.3354752221,-0.7257256033,0.1410473774,-1.1225812664,-0.0253488547,-0.9531616955,-0.7529092935,1.0422208503,-0.9034122213,0.8535128794,-0.3917922702,-0.3804369216,-0.8124388503,0.7583666295,-0.0464345229,-0.7094972301,-0.8644902768,-0.6493317883,-0.970586761,-0.108670453,0.8691818914,-0.0986203636,-0.3545455436,0.7931096984,0.7533793866,-0.1561422308,0.7762653269,-0.5510242709,1.0614811575,-0.3521211924,0.413720114,-0.2857996636,-1.0381333393,0.4010892355,2.9912646315,-0.1611480334,0.7907468595,-0.9319559389,-0.3650841041,-0.8368521483,0.9308170358,-0.2103975592,0.5209270806,0.5263023495,-0.8851955062,0.4587604385,-0.9101818638,-0.0902065287,0.2968480913,0.4895370989,0.7761703464,-0.5983372333,-0.1834351228,-0.4274018034,-0.0199559185,0.2044151721,-0.085025588,0.5732263536,-0.0082674713,-0.1130223414,0.6405287651,0.5500667164,0.8199489741,-0.8546917219,0.0369371877,-0.5244616298,0.7811896909,-0.0319961514,0.0962843055,-0.5603887905,0.1305412667,-0.6609822264,-0.7070995081,0.0295531737,0.123269409,0.7758756405,-0.8439487789,-0.4799825897,-0.5931542099,0.1309429182,-0.8712473224,-1.2703483303,0.3592689648,0.666270524,0.4475425087,0.3401237559,-0.0149901745,0.1491451246,0.2085378518,-0.5467354454,0.0691935726,-0.4987650544,-0.8674542617,0.7016012024,0.355582174,0.1383165252,0.5702001258,0.0188764433,-0.8370656562,0.6142180347,0.0945164683,-0.1392716513,0.1614300491,-0.1657416631,-0.4267972783,-0.2567495311,-0.7218264163,0.8920969258,0.5675461262,0.67861188,-1.1819869331,-0.213752575,-0.230127417,0.3994949302,0.9227499062,-0.1146047517,-0.9539979521,-0.4446791378,0.7107217806,-0.191822561,0.2480077442,-1.2380997601,-0.7318044932,0.0571328655,-1.0173315137,0.8347380763,0.1144494004,1.0229475767,0.3307690222,-1.027516737,0.2639541554,0.2647374526,1.0631180161,-0.210876229,-0.4972717643,-0.3350833075,-0.6190187333,0.7870557758,-0.1352760226,0.1899534666,0.5023513577,0.3406669704,-0.0330950166,-0.6987316102,-0.8722447949,0.7119148722,0.2141882584,-0.2140728349,0.3450330283,0.6671731789,0.5641877951,0.7846900673,0.6269105331,0.6892974395,-0.8260079335,-0.4165270641,-0.0365235287,1.0854775153,-0.7697908603,-1.0267112686,0.4758768518,-0.297852303,0.4205489656,-0.9979526872,0.2583642058,0.816930181,0.845307019,-0.693668163,-0.4328644507,-0.5724468415,0.5937867115,-0.5123320212,0.770751291,0.285990305,0.0064961502,0.3759212879,0.0875879592,-0.510984706,-0.1538459729,-0.5891607068,-0.1132016074,-0.3686659938,0.1836275704,-0.0902344641,0.5393443789,-0.4047751319,0.0032146548,0.27668012,-0.4781417123,-0.0460292151,0.302056066,0.234734943,0.4349148472,0.630074672,1.1386764433,-0.3388654528,0.8418813262,-0.3577765212,0.1348081221,0.1651196289,-0.1726840193,-0.4195339746,0.2776075542,0.586122117,-0.8609046539,0.4759783932,-0.662725514,0.4511736856,0.4607624151,-0.5994992141,0.2320710109,-0.2400777933,0.1519987784,0.5931970335,0.5435885408,0.8053790389,-1.0023100597,-0.7154552769,-0.4023259832,0.77831309,-0.8672788257,-0.3493711816,0.1849377739,-0.2552378637,-0.3084190196,0.0679393688,0.5599259137,-0.7053473036,0.6285878333,-0.7982047515,0.3184963769,-0.996102002,0.1716653,-0.288182659,-0.4229306771,0.2701724594,0.613084309,0.469079854,-0.1992969393,-1.0392699461,-0.5164300325,-0.5241740892,0.0646257578,0.2424578053,-0.6590716211,-0.2291825107,-0.9639785698,1.1192696819,-0.0687656325,1.3072195217,-0.5223684122,-0.473386079,-0.5793337559,0.0180558469,-0.2371385514,-0.1487485652,-0.0885260118,0.5574502665,-0.5488429738,0.4236865793,-0.9593344628,0.381380802,2.7698602968,0.6208777606,0.7752156249,0.3760286007,1.0878642702,-0.1858253275,-0.1695205884,0.3170120325,-0.1796540305,0.7797846103,-0.380202699,0.2751526037,1.1712939778,-0.5048118002,-0.9283688154,0.0269055688,4.2254781675,-0.6396648606,0.4001541324,-0.5065167309,0.7596994301,-1.0768747197,0.5557962113,-0.3295489083,-0.0260765981,0.4453252814,-0.458805369,-0.0195036869,-0.6052952446,0.3925762156,0.4707367808,0.4605399758,1.0134938782,0.6987466854,-0.4885821078,-0.3222054999,-0.6257317094,0.7795331918,0.859528815,-0.4353932533,-0.1817975087,-0.4695190095,0.7082460112,1.0041884241,-0.9623051477,-0.0146272425,0.3549373796,-0.7425238971,-0.6740665952,0.4781563506,0.0935189915,-0.7957470096,-0.5507540288,0.7370218124,0.4478266275,0.4870933346,-0.1026888758,-0.1396291972,0.8082249894,-0.4684837327,-0.7037702579,-0.330133973,0.0075091648,-0.9784763351,-0.0258434153,1.2880004724,-1.8023540981,-0.5036500789,0.845542828,-0.2681757003,0.7531394958,-0.1573470961,0.6798006111,0.5034209849,-0.3830111539,-0.0912921522,-0.4809674205,0.359302246,-0.5751990756,-0.398067805,-0.1273870793,-0.7058702025,0.4892535935,0.4870459265,0.6028635198,0.0812004647,-0.8273312192,-0.1595294419,-0.3873751194,0.3515790121,-0.7343018905,-0.1328589882,-0.9229711332,-0.5156173431,-0.7646188393,-0.0816155805,-0.4426572564,1.3415812324,-1.1750265869,0.4658737816,-0.3941160237,0.8213329498,0.6601125537,-0.762727472,0.5794553698,0.8184807444,-0.7994783311,1.0655439185,0.953429907,0.7119940741,-0.3188299419,-0.3613211126,0.0185329145,-1.0988614195,0.6742263933,1.5885407495,0.446438596,0.1840691203,0.2708449706,-0.2613493959,0.9831122951,-0.2430010607,-0.7633379896,0.0417787189,0.661058626,-0.5251680967,-1.0611989279,0.481262122,0.7773142331,0.9025779039,0.5420056038,-0.3409622934,-0.5865782809,-0.257938147,0.9209020113,-0.7061411677,-0.6325362771,0.4710735168,0.6220026584,-0.8660560013,0.4909128156,0.3819772995,-0.2825641112,0.2105296851,0.0634197333,0.2196574357,-0.3073364467,-0.5296685715,-0.3573929109,1.0953480805,0.5711184335,-0.4404103845,-0.3746080332,0.7758030047,-0.2967744455,-0.5217184728,-0.9451349925,0.6969295509,0.777933092,-0.4512633418,-0.9003256697,-0.3898751116,-0.8140794989,-0.4045233367,1.0582144333,-0.4074223316,-0.1452097199,0.5757051816,0.0353559248,0.2058441263,0.8159953777,0.6584132474,-0.2268099657,0.4883651401,0.2267650926,-0.5467968702,0.5671585799,0.3916690376,0.2051807395,0.4908830186,-0.0452614281,0.1487529743,0.8887256166,-0.905470788,0.847412304,0.6937322777,0.1970113983,-0.2355059676,0.2953043162,-0.7502039331,-0.3461508776,-0.2068074092,0.1061186423,-0.652940091,0.2565395998,1.2295892271,0.5145525558,0.9281170002,0.6289633757,0.0312781157,-0.7382324989,-0.4800258549,-0.8238177719,-0.4657996691,0.4791823282,-0.5315133842,0.7295194524,-0.5809548394,-0.0025817775,0.1149780196,0.875917227,0.2053343716,0.4691395576,0.8118116936,-0.3360914493,0.9474722836,-0.8568984883,0.319496291,-0.9311926663,-0.6812877373,-0.073028573,0.9701830193,0.9622901169,-0.5536682851,-0.0037023359,0.2673181395,0.6772476067,0.220069226,0.8838404362,-0.9819126693,0.8454207726,0.8662308393,-0.5521025166,0.737866938,0.4191658858,-0.0865828589,1.1278507417,-0.2342920757,0.2023056919,0.1534973042,1.0041410052,0.8507928017,-0.0380293936,-0.5745180129,-0.3240173085,-0.0806044352,-0.0478697658,-0.6034271302,0.4947568568,-0.6153230274,-0.6397186923,0.0057392104,0.3327435475,0.8162798839,0.3668876353,-0.6323115757,-0.7980636718,-0.6577797512,-0.635206289,-0.8229972483,0.6485174691,0.7897657768,-0.7754367366,0.055480899,-0.6587944392,0.9328273552,0.3276742341,1.2631334789,0.4326122143,0.7712557134,-0.7164618311,-0.9419279288,-0.0559064056,-0.7768027125,-0.7036113631,-0.1846707041,0.5757404006,0.5549929517,0.4451607902,-0.4604081345,-0.1469152338,-0.6267645225,0.1448357636,0.2154745156,-1.088277717,-0.4208638349,-0.4185916498,-0.8192810008,-0.4865992839,0.0906763899,-1.2858379987,0.4341599483,0.7530826305,0.0218749711,-0.2122500483,0.6044018659,-0.9864784815,-0.3706954958,-0.374329207,-0.247579517,0.7997001342,-0.838963104,0.6336392161,-0.1370616944,-0.0880830428,0.5619287354,0.3124394661,-0.4094665212,-0.146391718,-0.5884357222,0.602922315,-0.0308986124,-0.730879663,0.2550897454,0.4883823134,0.2960513931,0.7914630946,0.9513360865,0.1539594936,0.4169138029,-0.4199570403,-0.053713701,0.3617571464,0.5782589977,-0.5435150847,-0.1299408867,0.4464019974,-0.3471948859,-0.3548833473,-0.8578160397,-0.7012693481,0.2659681978,1.0235317651,-0.0973010754,-0.7073316778,0.5964745211,-1.07882295,-1.0193562234,0.5104847635,-0.0091733578,-0.9289402425,0.0104982688,0.9437998936,0.0078184295,0.3813884803,1.0275220676,-0.3036029276,0.034789412,-0.649069452,-0.6422935441,-0.8116224901,1.0401571258,0.2751127363,0.5174282544,-0.5451177706,-0.3123256111,0.1392756704,-1.0838867405,-0.197947729,-0.3107601223,0.6851420474,-0.4911614613,0.5609358451,-0.1238027512,-0.475841723,1.3154960159,-0.7794054029,-0.8058913646,-0.014199251,0.0734341442,-0.1416437045,-0.7781486627,1.1683239588,-0.6284755377,-0.0022856207,0.6211400051,-0.2588607937,0.5850330343,-0.3353241427,-0.8295964662,0.5899047777,-1.2101174248,-0.9052806952,1.721799379,0.049774093,-0.6313219815,0.5936030145,0.5189925146,-0.3931721132,0.639232366,0.1113454619,1.1310908193,0.834679732,0.6422631467,0.2029123078,0.9746281476,0.0804761082,-0.1388274549,-1.0963097548,-0.8458638466,0.2552145634,-0.0641945258,-0.0630712567,0.1655318003,-0.7314416487,1.2854204425,0.2467167008,1.1717682367,1.3946919502,0.43185885,1.0713373397,0.0524795865,-0.5896749206,-0.3084266776,0.075326647,0.5162420204,0.0293335077,0.3698299816,-0.6392432008,0.270490039,-0.423124424,-1.1744127108,0.2207844931,1.2424883342,-0.9238732203,0.733579839,-0.159313645,1.075147388,0.6844432412,0.0350806692,-0.4841986299,1.0021066029,0.9146872964,0.1473386248,-0.9896244634,1.4810642726,0.6775116143,0.5933756281,0.1077947981,0.3474243639,0.6527698523,0.134201887,0.5022950776,-0.4798998084,0.3449051167,-0.8703594061,-0.9404636011,-0.0739122196,0.3583569853,-0.2295031958,0.3344435793,0.4395631672,-0.6371961952,-1.0665226988,-0.6740960523,0.3362345798,0.0899988472,0.7530254265,-1.1069975231,-0.2108020714,1.1126925042,0.6737891809,0.9204953532,0.5610765512,-0.7276527373,0.740795496,0.4967441904,0.8113575748,0.0949800024,0.2720822235,-0.1145261802,0.503512032,0.6202834332,-0.5218777808,0.8342395663,0.8740766097,0.089022769,-0.2951776641,-0.9122590066,0.0016769642,0.5111571133,-0.3900706667,0.3757381554,-1.0425325904,-0.2217806334,0.416430465,-0.5020311393,0.5048809512,-0.3152602571,0.9554729619,0.292526093,0.1475811647,0.6373393683,0.1473774508,0.8269601246,0.8338532124,0.3077440964,0.9161900822,-1.0246769985,0.6679605758,-0.5382685486,0.7384545125,-0.9636219409,0.8692595513,0.8925884953,0.3541711229,0.8755932255,0.0811056825,-0.415115748,0.2589955388,0.3956188447,0.0403616102,-0.752462524,-0.133039289,0.777753876,-0.8712779492,0.6510995035,-0.4526925725,-0.7990836957,-0.7923284908,-0.5429938505,-0.6855796399,-0.8576864368,-1.0067814097,-0.3414883277,-0.2664523476,-0.3262101895,1.3537886127,-0.1137956233,-0.2160763592,-0.6283785286,0.262013852,-0.662162161,0.7255817623,-0.1641622778,0.3042391431,-0.6109538748,-0.6850530485,-0.4063837686,-0.4760544884,-0.1411103618,0.6525624355,0.1771641221,0.8130830075,0.1393714016,0.4086942521,0.7437122753,0.2367066666,-0.7376761538,-0.9942042735,0.9983157988,0.6474575543,-0.444843309,-0.1782935778,0.9918884967,0.7531108926,-0.602146592,-0.5304328793,0.1251828933,-0.5540132142,0.9721621304,-0.524028878,-0.460675607,-0.8967854363,0.4187070636,0.5015974632,0.3217863349,-0.8227700733,0.4409715685,0.462485773,0.5582946792,-0.1289868663,-0.2540371,-0.5581308438,-0.0248129087,0.503959931,0.703356375,0.804555109,0.8904069952,0.9284094445,0.3159208969,-0.7791841258,0.2940990857,-0.7364051747,-0.1144431817,0.3137079661,0.7834882955,-0.396305805,0.4253109218,-0.0611553664,0.3505137042,-0.7942411551,0.2182773213,0.7554390456,0.9634155038,-0.9576170073,-0.6334148426,0.2047467616,0.2822898817,-0.9010471326,-0.5948524143,0.4529365413,1.0246827547,-0.6218219389,-0.5813771808,-0.4508115802,0.7353956575,0.7193713618,-0.6458560659,-0.1938924762,-0.5915435837,0.315981896,-0.1904129353,0.6091933178,0.5111704894,-0.129860562,-0.1256574148,0.6138387737,0.7322920949,-0.0154409921,0.3881562605,0.0793324666,0.4873811811,-0.8682898337,0.9581275867,-0.0537221895,-1.0486311569,0.34870064,0.0232448864,-0.2497605769,-0.1640627511,0.4068001617,-0.7390399568,-0.2020477093,1.0429907383,0.9108647636,0.2729761213,0.1054968041,0.4357770301,-0.0141372788,0.5385653709,-1.122166035,-0.2701625436,-0.3693106898,-0.787529185,-0.4481503997,-0.5594447516,-0.1552647954,0.4108721718,0.9324034094,0.5822663434,-0.3637332755,-0.4613309534,-0.4005039571,0.4639897087,0.8795115305,0.3039879705,0.7996846506,-0.1487214698,-0.8945446298,1.2341417542,0.5962628247,-0.1413606985,0.3792578718,0.9760403359,-0.1964452885,-0.089873986,0.0249369218,0.1205237497,0.7325921242,-0.6991810653,-1.5778176508,0.0148034011,-0.78925006,0.6788970847,-0.2654709874,0.5897686109,1.0366434672,1.4432624247,0.6674281448,-0.4051189579,0.8343654377,-0.2820970263,-0.4652292305,0.5239496852,0.7106688633,0.2598029325,-0.634769952,-0.5110540006,0.9708840069,1.2020243653,0.2743551622,0.2005186374,0.0694466255,-0.3604122137,-0.9550774182,-0.2773305386,-0.5161672232,-0.7298107801,0.5740944616,-0.8136093481,-0.9129817455,0.7522753373,0.8114041015,-0.3553114132,-0.0146556696,-0.4597293578,-0.4259500131,0.0356787702,-0.3717431168,0.2032930848,0.9333596805,0.6592350911,-1.2720754181,0.2467861433,0.5662476711,-1.0910157128,-0.0440601125,-0.2292963327,0.6645153242,-0.0150424652,0.9452045595,-3.7706339091,-0.0054340849,-0.2478418621,-0.2251189638,-0.5795775156,0.0407893494,0.4069819031,-0.5231381277,0.1277018928,0.5772882325,-0.1175746861,-0.2780107046,-1.4559452365,-1.2645426104,0.5412922196,0.925967847,-0.6588922462,0.4508423025,0.992499008,-0.1159246185,0.1005594476,-1.1765575447,-0.7106868717,0.7650662686,-0.1451463755,0.7364117531,-0.0929143366,-0.7036785989,-0.1384368787,0.4017673569,0.5829165469,-0.1339906681,0.3413697298,0.0557025217,-0.0201571679,0.2262648088,-0.885368533,-0.1446281307,-0.5477707625,0.9676501758,0.2327387078,-0.4294887076,-0.066955578,0.3183245721,0.6808640645,0.8335459402,0.5987268087,-0.6490771363,0.4167649048,0.442139603,-0.8649842997,-0.7440662416,0.6745493618,0.6104986333,-0.1929093792,0.3590030701,1.2446697249,-0.153231467,-0.0015842004,0.2778181401,-0.3310842473,0.5455725084,0.3244550903,-0.8742266223,-0.8468350308,0.4130335483,-0.6404464212,-0.0211826772,-0.0994313149,0.5328017987,0.0183659742,-0.2158280781,0.0549224201,-0.7817703049,0.5162773172,-0.3642991776,-0.0137227797,-0.1178741406,-1.3353969614,-0.6694651327,-0.478863738,0.0081591746,1.066148506,-0.3196702318,-0.690600952,0.9733388625,-0.1474944281,-0.2134465706,0.0030872764,0.2579103571,1.0666918043,0.202043883,0.5940563386,0.6461797687,0.3720614704,2.0832601233,0.3528194964,-1.0310679936,0.1996765925,-0.2403634276,1.0168558523,0.1843571515,-1.0759940583,-0.7900233186,0.5446692707,0.8561974618,-0.1046892973,0.2006180667,0.8299470071,0.1648968008,0.2336515936,-0.7611342115,0.4424228575,-0.4220084437,0.0726388944,0.1827127745,-0.8284391452,0.6706652053,-0.1572644665,-0.8392283301,-0.7567521408,0.9991158695,-0.4457642104,-0.4498943717,0.2024696679,0.6503685572,-0.6004031501,-0.5077499934,0.602816885,-0.7583884037,0.1730382881,0.4232355585,0.2294820018,-0.8149381303,-0.2309898258,-0.601478333,-0.1407619804,-0.6534026121,0.113028047,-0.6747937628,-0.9062671525,0.6494341941,-0.7737377742,0.5865091349,-0.2117965432,-0.1671897997,-0.0954223426,0.9031513355,-0.7583714505,0.3157731493,-0.5587936089,0.238883318,-0.1919037116,-0.6601545574,0.6490391444,0.3031763143,0.7030303357,0.764804967,0.6113353359,-0.5926329392,-0.0336406086,1.0004731028,0.7450584789,0.2733576465,1.1278243259,0.7515879648,0.5873618429,-0.8106237961,0.4239713777,-0.4802081684,0.5699427909,-0.8056145028,-0.2938214643,0.5320471213,-0.8618151637,2.0150719933,0.0850000243,0.9222301023,-0.6179523918,0.0100009311,-0.6871487389,1.0888290848,0.0659246361,-0.1117756796,0.875926152,-0.1778456406,0.6256729972,0.0008654297,-0.8581108059,-0.736653521,-0.1464061696,0.1533280437,0.7590085354,1.0235831549,2.4641328221,0.5577255224,-1.5447002887,-0.5729327715,0.7633911693,-0.808792659,-0.6601194891,1.0203006591,0.9413550918,0.3156940878,-1.1516780038,-0.0938588917,0.4473576923,-0.0391160723,-0.5753687867,0.4191718473,-1.6549559406,-0.5685829312,0.3441343585,0.0563216124,-0.814834796,0.7069864742,0.4615518527,-0.7269942469,-0.2276615259,0.4635304928,0.2450287914,-1.1439645547,0.2416995117,-0.006696367,-3.512991483,0.9080241772,0.0521535107,0.3844776787,0.435657393,0.3703534815,0.3158979728,-0.0443737244,-0.653531455,-1.0053593548,0.5029278299,-0.3946293941,-0.8179151037,-1.0731331313,0.017573178,-0.874532719,-0.4093914767,0.0622773546,0.3162645965,-0.3343280731,0.2359002334,0.1696913009,-0.3998882335,0.4871351987,-0.442195483,-1.2427393303,-0.3204473078,0.1582141248,0.7814838647,0.4281460121,-0.4109754061,0.202264621,0.4879758985,-1.3949342517,-0.4192161231,-0.5509362578,0.8933829961,0.720602288,1.1337440888,0.19645556,-0.1278368871,0.0620642853,0.6996059528,-0.3282900071,-1.22888597,-0.3597650805,0.8938786384,-0.0327658491,0.3395234044,0.4647449192,-0.0677386942,-0.6341545355,-0.4566049333,-0.8779600618,-1.647763395,0.0700574351,0.2078666157,-0.5562149083,1.0217021025,0.8957860367,-0.3593021416,-0.8222961798,-1.1950853582,0.566630125,-0.0339456923,-1.0585691049,0.8196935131,0.4828407024,0.6505642705,0.120972644,-0.4316354125,0.1004080259,1.8934605076,0.1822312702,-0.035057745,-0.973465756,-1.1275227147,-0.6958450854,-0.9535385105,-0.9231358005,-0.0838100967,0.420882053,0.7140801484,0.9815466386,0.1758381955,-0.3860466304,-0.013551013,0.5452053845,-1.5175522913,-0.4567262777,0.744126559,-0.4084971069,0.1619041553,0.9542853164,0.9432177368,0.2089717221,0.0795990897,0.6743397383,0.2349591435,0.1472308217,0.9040125539,0.0492998591,-0.4901895007,-0.8504144123,1.0734313287,-0.074299749,0.127086177,0.7954474015,0.1139400812,0.4713531631,0.1530492956,0.2947436653,-0.622993848,-0.6229938339,-0.333977743,0.6538862841,0.8460716827,-0.5939384603,1.02071104,-0.0554698442,0.8865264007,0.1824722806,-1.114268436,0.1523259991,-0.9715365156,0.8421365863,-0.2738699001,-0.0391924362,0.0225349613,-0.3059003564,0.6545767364,0.9577476757,-0.3061377343,-1.2366663216,-0.788176247,0.7944357893,-0.7880782125,0.9865438656,-0.8969062951,-0.8271188038,0.1216835546,0.719701574,-0.3596274171,0.2407537738,-0.2452895943,-0.4608754125,0.8490365408,0.5710059087,0.0336818818,-0.3973431745,-0.4713161763,-0.3094730329,-0.4018404469,-0.4118426587,0.5281699555,0.6361173665,1.3114660195,0.3149369238,0.0119694612,-0.0481384392,0.4079387936,0.812125315,0.5481975428,1.0241703299,-0.7607929016,0.5325795724,-0.2656627198,0.8886195098,-0.0658215849,0.5550240522,-0.3681870129,-0.7824950263,-0.7724514155,0.9066362397,0.888643908,-0.6580830312,0.2377158006,-0.2801218755,1.098677029,0.8873800381,0.2603599012,-0.3089738436,-0.2427892453,1.2257114491,0.4297945158,0.3700949227,0.7323795568,-0.4761185424,-0.7973918686,0.6537106766,-0.2489133797,-0.8769664544,-0.8971698145,-0.7246954209,0.7254062551,0.6240016983,-0.7420433801,0.0838316093,0.2156471663,-0.6210147471,0.8138637243,0.5419264625,0.4846926551,0.8010944692,-0.2154438456,-2.9266090546,0.0091281568,0.5277628155,0.3034465116,0.6396928906,-0.7189371924,0.0915661588,0.3317555028,-0.8146009163,-0.6143706208,0.2477680725,0.8745445323,0.7967305911,-1.0933505618,0.066837749,0.9106384439
   -0.6530120121,-0.4443409295,-0.08034886,0.4898884768,-0.3815167718,0.4020120877,0.2206821341,-0.6014490751,0.3874476379,0.1304501051,-0.4595803749,0.1363273114,-0.8954738419,0.0440844322,-0.3149965123,-0.5983363804,1.0697130121,0.5080310714,0.5035516435,0.2679153201,-0.0836082194,-0.6672266365,0.9358792913,-0.5548744624,-0.25293483,-1.3727233469,0.5821844361,-0.2535697345,-0.578045245,0.8459397562,-0.8987458614,0.8691852733,0.7123070328,-0.5631485453,-0.9108298789,0.1393928687,0.6896225657,1.1409752077,-1.1951793244,-1.0351438047,0.531583515,-0.9053455005,0.2591563921,-0.2600131583,0.1693444613,4.5563487242,-0.242108328,-0.9762928111,0.1496002186,0.9152286623,-0.3370238846,0.6682111523,0.9023258069,-0.6036129595,-0.4934764108,-0.2553211627,0.125590261,-0.8459455176,0.1025052977,0.8926753998,-0.158083662,1.1139291774,-0.4777751623,0.1913661109,0.9831422528,-0.72531218,0.1480869118,1.316236269,-1.3502682109,0.3488134104,-0.9687838247,-0.578167239,0.2177789012,-0.4924787383,-0.5867735059,-0.5660524666,0.7116249092,-0.655371882,0.3599322569,-0.7651975105,0.6467226248,-0.624655975,0.9600727584,-0.132641583,-0.1527524075,0.1123614584,-0.0016283974,-0.8441000778,-0.0087564436,-0.8067885108,-0.3733866706,-0.7851970457,0.2309079289,-0.1686217363,-0.6248686309,0.7494826426,0.489723475,0.504666955,0.2036471689,-0.5468450148,0.7342107813,-0.7565353364,-0.9219860708,-0.941682546,-0.2610965343,-0.5193734304,0.117323592,-0.4741355917,0.8440126555,-0.439270278,-0.5344123686,0.2378928535,0.6525603643,-1.3109363548,-0.6630541567,0.1220316814,-0.4948530452,0.8192759316,1.0256449818,-0.7779473916,0.0542762329,0.3553075588,0.6671370605,-0.2595013113,-0.9049417583,0.479447649,0.007458082,0.2165490757,-0.5108627094,-0.8180964237,-0.8472397015,1.8524371492,-0.167343449,0.2597834963,0.4929668909,0.0130140698,0.9652273553,0.8546368848,0.6742539503,0.5563479835,0.3340207847,-0.1306601486,0.5447107395,-0.8979694536,0.0027781789,1.0890936311,0.8057794816,-0.1135224593,0.6763222403,1.0753383619,-0.5337072052,1.0127773164,-0.3728893504,0.2988137303,0.3385230483,-0.330634938,-0.9279920989,0.186162735,-0.9464835495,0.4872072428,0.5840807823,0.6547856428,-0.578904111,-0.4373020563,0.2502588399,-2.0668881892,-1.1587407821,0.1912113689,0.3349237066,0.1617998724,-0.8346999782,-0.0476691048,0.4066101637,0.7666214412,-0.7391747801,0.7400412466,-0.8241692526,-0.2488094446,0.3289405198,0.387543015,0.5604573095,0.266510189,0.4620580627,1.0273289606,-0.1992781262,-0.1868878469,0.6682901835,0.5272049683,0.4448795341,1.0817588201,-0.3881120847,1.1990212019,-0.4402675244,0.5803343652,-0.5542939589,0.3215348397,0.8331579858,0.6762817076,0.4291423293,0.4716499762,-0.2761903911,-0.1739193498,0.185108465,-0.3928498686,-0.6564202122,-0.2974145046,-0.0557529066,0.750558275,-0.0405204932,1.1013521947,-0.4599731643,-0.4731847869,-0.4786759191,-0.6188520003,-0.5369035855,-0.3592428341,0.4030012807,1.1614491747,0.0688143518,0.1329325413,0.2182068804,-0.4196767108,0.6578550406,0.3139740947,-0.3700368445,-0.3632034233,0.6659831555,-0.3126219086,0.36898799,-0.1797297775,-0.7025977265,0.7551071537,0.7983945326,-0.4286814034,0.4252853782,-0.0287861106,-1.0541855363,0.1436297925,-0.5227475188,-1.6001204601,0.0354163205,0.4710690777,0.3406145869,-0.3482943631,0.5633076693,-0.0987740876,-0.3579817744,0.6526638231,-1.3181859232,0.4899488937,-0.6602014435,0.1086368897,0.6709522359,3.551298707,-0.8060375137,-0.2968708301,-0.6239407033,0.6071494452,-0.7063088063,1.0190222101,-1.7507692922,-0.4589633823,-0.4899507638,0.2404746584,0.8508220426,0.1029847362,0.5122641471,-0.8594969265,-0.7872240909,-0.3934624637,-0.5853885552,0.1950927387,0.1198669412,1.401053888,0.271240436,-0.0638093925,-0.279146148,-0.584142537,0.5925172471,-0.6591917257,0.9339322117,-0.0399520925,-0.370863188,-0.9090956238,0.2291254483,-0.5428238436,0.8788412043,0.3037924396,0.1171908601,0.7968450374,1.3244021056,0.6077473153,-0.5892366147,0.304368544,0.4786859833,-0.4206746825,-0.7018637118,0.6036085859,-0.7706446235,-0.9535619888,0.7428667164,-0.033562899,1.1326036792,1.1740159591,-0.480950284,0.1000480738,-1.1508742297,-0.1888300873,0.2833494052,-0.3144192047,-0.9640512714,-0.4632885676,1.0303532705,-0.2713871438,0.6396943233,0.0943099468,0.4871797175,-0.589040458,0.6007051343,0.2699000389,0.6932354781,0.0126801162,-0.5032980373,-1.2378713143,0.2949055553,0.6803619115,-0.1421490773,0.1030061728,1.3956023854,-0.3411051169,0.3997468335,1.6098421948,0.1595901334,0.9092073304,0.5356410327,0.0730446411,0.8863116133,0.4653904447,-0.1339262335,-0.3277499069,-0.9068496979,0.2737306151,-1.1911241459,-0.8938235847,0.5071181407,-0.7407075139,0.7502439835,-0.7232740097,0.7469102266,0.0328646321,-0.2162181083,1.0501355354,-0.0517158395,-0.4770555656,-0.8776999179,0.793484805,0.2866977374,0.633355476,-0.1315155984,-0.4930929305,0.1826314107,-0.0004414807,-0.7550820676,0.2957711498,-0.1958743462,-0.2807017249,0.3005097323,0.4400784913,1.2741022173,0.1424942798,-0.4144637547,-0.9439676968,0.9504629816,0.940778108,0.1136175427,-1.6663092593,-0.3570320493,-0.3898316893,-1.1863294269,0.7708910139,0.1354855735,0.7532987841,-0.4460970539,0.5487302404,-0.8654714515,-0.8426984541,-0.9403596948,1.093086719,-0.0964131858,1.5533134978,-0.3964233804,-0.64783524,0.6713441396,-1.2829378043,1.0189115822,0.3595306547,0.6770749207,-0.5723805789,-1.3095480114,-0.7299516991,0.2109113232,0.6455731869,1.1469951688,-0.2171653035,0.1922211582,0.8218842754,0.6039698085,-0.4897252899,0.6354624785,-0.6281588624,0.5097714805,0.8914744638,0.9005827239,-0.7344782506,0.0111968092,0.3620876738,0.6537723877,0.5220152471,0.8118704873,1.2509631435,2.7540653725,-0.8033306869,-0.8775110548,-0.6274388212,-0.7870544965,-0.130381116,-0.3030904974,-0.1633147853,0.5058980692,-0.0021098195,-0.8909208536,0.4820739007,0.8210540544,0.3001099856,-0.4631925138,0.3044257461,-1.5521038068,0.6849501358,0.5489384781,-0.6474132055,0.3172462958,0.9830168768,0.3027049478,0.7083807004,0.5371882877,0.37118746,0.0195686119,0.3335045464,-0.07872235,0.1634674991,0.0562241696,-0.4822435988,0.8602039967,-0.3480424571,0.7167272396,0.5374268206,-0.4450590027,-0.2219302052,0.8500005788,-0.8683135964,0.5023370393,-0.7450319102,0.0821239846,0.4827076179,-0.7394981264,0.4343018604,-0.4022247002,-0.6840976543,-0.0555489947,0.3750192061,-0.8251585545,-0.1947919616,-0.5724792141,-1.1800765056,0.335672193,-0.2836296168,-0.7234798818,-0.4758563686,-0.2114688686,-0.5372803294,0.0363248365,0.2313985256,0.5829139307,0.2634472829,-0.8496171924,-1.077066462,-0.6329189639,-0.6238046512,1.7779872658,0.1933002847,-0.8266377822,0.0993793593,0.4307044846,0.0807641975,0.1309288963,-0.5722876542,0.3645839923,-0.9611894182,0.5201665528,-0.4387285419,-1.1349319896,-0.9822516199,0.6504952444,0.3489200793,-0.8283842334,0.69141553,0.0367902736,-0.0612517998,-1.2096162203,-0.7091099627,0.1480354516,0.2548173354,-0.5011443744,0.507149994,0.7143293844,-0.07458806,0.5069918249,-7.2980141712,-0.2842640213,0.5691054807,0.8028272058,-0.1308941007,0.7947205862,0.4389453736,0.0801256032,-0.9108923006,-0.2732334535,-0.775037309,0.71886766,-0.3733773325,0.9651757788,0.3623534134,-0.949351007,0.3768082281,-0.3603658053,-0.517479882,-1.3556585872,-0.6918203817,0.2060821381,-0.0190672959,0.9996318322,1.6231945689,-0.9105729047,-0.4452026489,-0.2197682356,-0.6532915378,1.1518470426,0.3148862542,0.5838062313,-0.382782946,0.282811375,0.2917984997,0.0651609748,-1.3307337538,0.4811041821,-0.2203914241,-0.6855456612,-0.5158036841,0.2973023741,0.0142190979,-0.2643172943,0.7232080636,0.8257829688,-0.4003689891,-0.195617663,-0.542480752,-0.5940067433,-0.2047879781,0.0818960127,-0.0579227621,-0.6325178849,-0.8722320759,0.338132882,0.636531529,0.627368241,-0.3339742689,-0.1537536722,-0.4812341868,-0.8368283082,-0.2091805272,-0.5244452274,0.3625023663,-0.4737682189,0.5618209378,-0.6203842986,-0.2071700137,0.4501823494,0.7779122369,0.1408920676,0.0083712579,0.9738178219,-1.8685731617,0.1211369594,0.2097201286,1.0306443698,0.9397170494,0.2184746768,-0.084834343,0.360397686,0.593015405,0.673907543,0.6827208122,-0.0468982266,0.8181274699,0.4131619739,-1.1477948539,-0.109508764,-2.3885232928,0.0475627805,0.1320644797,0.6803078246,0.8072800137,-1.0448426069,0.7665988208,-0.8296477567,-0.5230944939,1.414422499,0.5537342696,-0.7213617158,1.6104444218,-0.5632376106,0.9084401436,-1.3827803426,0.1251074883,0.5173303307,0.9058425577,-0.0338155724,0.5146631873,0.5450641298,-0.0848398472,-1.0051528933,0.2707052437,0.5645974715,-0.0149726169,0.5702658193,0.6026568381,0.4458227996,0.8083085854,-0.423305994,0.0850487911,0.1219380752,-0.5811895004,-0.2788844499,1.1831773429,-0.7485569641,0.7752159567,1.2970048495,0.4241496355,-0.1668657194,0.8199204132,0.2510346462,0.83074578,-0.4994958343,0.1177338619,-0.4381052054,0.4764390693,0.5847107524,-1.0061968201,-0.2832006729,-0.2468239326,1.0257951766,1.087619065,-0.7126138153,0.358824042,0.2590616062,-0.5433686209,-0.5334253729,0.7616089947,0.4892850936,0.2979126875,-0.0504790487,0.3398013327,0.0145514513,-0.9037457337,-0.0369123139,1.5931066201,-0.5837894192,-0.3930496565,0.602019749,0.7501107666,-0.0888349918,-0.938377339,0.8785187708,-0.7004923661,-0.1212382837,0.0804152501,0.5798454415,-1.2064126421,-0.0250227665,0.4389005355,-0.8867880232,-0.802444308,0.3314852556,-0.2971643008,0.1623451994,-0.0425432551,0.1323063179,-0.1324704815,0.7983347018,0.15126465,0.5326418158,0.4671008261,0.628788059,0.9484648847,0.519703688,0.8563630078,-0.6067540694,0.5254317892,0.1747479098,0.0051278568,-0.3188580091,0.3987627798,0.4823779574,-0.6197187392,-0.1964355097,-0.7504974789,0.1091675541,-1.2376181645,0.9143566155,-0.2637904617,0.8652925283,-0.4576237911,1.1565610485,1.1754048669,0.3221815539,1.0471676625,-0.9122576963,0.7513037562,-0.3582900232,0.7877748025,-0.3821727259,0.064580992,0.7824646066,-1.7458271364,-0.1869658846,0.4975680984,0.0222229734,-0.4038612583,0.7401228785,0.9643496363,0.9488738097,0.2762785062,-0.5321974801,-0.4978110445,-0.5760660852,-0.5837002607,-0.0239023493,-1.1583714542,-0.1269983926,-0.6273840967,-0.3810359187,-0.3198308647,0.6157963344,0.3062658648,-0.8277131492,8.7942822306,0.5385444301,-0.541379952,0.962672781,0.261093217,-0.0475894557,-0.5333660684,-0.1903672765,0.7172735955,1.0176023121,0.3276983408,1.5528997512,0.1855493294,0.5386402268,-1.9551477063,4.453717715,0.7159941351,-0.76234904,0.2208773372,0.6459160274,0.632427854,1.0824885248,0.1076233811,-0.5785106892,0.2415819253,0.8162478893,-1.0671154373,0.5336853701,-0.7444571757,0.1325126278,-0.0874567962,-0.8920483514,-1.1918073248,-0.4571320476,-0.6256659995,-1.4809918875,-0.3662732099,0.3210430183,-0.9671349197,-0.1257611166,-0.5574000898,0.4895159095,-0.6503296897,-0.8297932649,0.0448080042,0.3997022929,-0.5361478581,0.4700877803,-0.3223060674,-0.3093435362,0.7418314928,-0.6116162026,0.5578272807,-0.2176895406,-0.3798301562,0.3707898901,-0.5893074333,-0.1757582265,-0.1216721504,-0.6164629427,-0.1793331333,0.4087951628,-0.9124748352,-0.4132144773,0.0216145837,0.118125757,-1.1026572726,0.2869304487,0.0708800876,0.0547368852,-0.9399052992,0.1332502936,0.3863364556,0.0035387177,-0.9109265883,0.2135776747,2.0513063698,0.2401692448,-0.0138256469,-0.1971241441,-0.4777621702,-0.3583946265,0.8215143067,-0.7033101771,0.2234136147,-1.284879638,0.1525606847,-0.4622239303,0.1365584392,-0.7379596751,1.0783097522,0.6384244984,-0.390521586,-0.4722023675,0.446195976,0.0754002242,-0.0551683843,0.4423629471,0.0487781392,-3.1959466421,-0.5819449024,1.4667225696,0.3333440491,0.1208427044,-0.5629362474,-0.3717036411,-0.6275567575,-0.9821996052,-0.7116980811,-0.2702874679,0.0945251187,0.4488327644,0.7459747723,-0.082341222,0.728578065,0.0407482142,0.600428189,0.1450327273,-0.0818444014,0.5198067758,-0.4301401811,-0.4753954452,0.535984821,-0.6327836844,0.8571369632,0.9381378713,0.9091033626,0.6035846258,-0.2253716234,-0.9029904194,0.4750945708,0.0861697929,-0.9382410442,-0.6824931668,0.1933563629,0.5725784478,-0.1506104203,0.7007367198,0.8645824672,0.5658161172,-1.4495881155,-0.8431292127,0.4839330903,-0.5133718329,0.4979106106,-0.0214235239,-0.4670954284,0.8053057158,-1.038284442,0.7943825603,-0.3844230414,0.1215327766,-0.2602185934,-0.18809494,-0.6535547939,0.8538826731,0.1640909008,-0.5736199822,0.3180351458,-0.8995139691,-0.4028446623,0.0381427887,-0.8173327862,0.5997865134,0.5319156693,-0.1780403386,-0.6571397008,1.3927011553,0.9819470931,-0.331035457,-0.8935285944,0.9576444971,0.2723718312,0.7819076905,0.7312482447,-0.0460292081,-1.2964313419,0.942187662,-0.1931278844,0.233199812,-0.7994922724,0.1143930455,0.0439073188,0.765185934,0.8903974245,-1.015080616,0.3225508385,0.6213076598,1.0622382317,0.0369944576,-0.6535926692,0.6200523733,0.2945812102,0.1599182138,-0.2387882084,-0.0620964246,1.0841316897,0.5182011326,2.2848920628,-0.839326065,-1.0601538205,-0.3091921019,-0.0605109061,0.8214488815,-0.190598841,-0.7514287644,0.3579595212,0.3394983377,0.1691353919,-0.5504927918,0.5468594902,0.7305113374,-1.0194765981,-0.6448996321,0.3210153879,-0.1264592648,-0.1457813628,0.2219479775,0.5888077638,0.7673131171,0.4551795923,0.3044485943,-0.1533195883,1.3050130988,0.2723832838,-0.8134033452,0.8689864674,0.1426099178,-0.0940218741,-0.5635696294,-0.344504626,-0.1667653241,-0.9762175634,0.485899775,-0.5724470326,0.0024907499,0.1006976706,1.5288026475,1.1589862542,1.1068034314,-0.218309114,1.5731439928,-0.572777282,-0.3377538686,-1.2407767478,-1.0068901871,-0.0003247497,-0.3648001852,0.7673744358,0.6471674254,1.1786803091,-0.6709326678,0.3220647764,0.3170639023,-0.6723998065,0.4519540498,-0.0693584231,0.0771171763,0.0249274336,0.2441254635,-0.2662137119,-0.7611414918,-0.4810936704,0.5062136841,0.3489602752,-0.6439837303,2.0643592514,0.6043299348,-0.7264713503,-0.6222745539,-0.1918011722,-0.3870338574,-0.5249811038,0.4798638899,0.3677728993,-0.4975165963,0.9537646298,-0.7605309573,-0.4637658386,0.1912303918,0.1967678278,0.9974737479,0.6587350489,-1.6160655155,-1.0473231264,0.7767268331,-0.278323885,-0.9650891368,0.919497484,0.0228060049,0.4583862123,-0.5968258061,0.0148501881,0.4000314328,-0.6023174098,0.1322944242,0.5022400197,0.2699064391,-0.2445252807,-0.0712037821,-0.6203428424,0.3837054502,-0.2078401361,-0.9636803864,-0.6528146099,0.6164757441,0.1591741944,0.4019783024,-0.5080885649,-0.728825329,-0.3425623274,0.0097987247,-0.2716160376,-0.1736984563,-0.7874198983,-0.2641652155,0.7083852379,0.6546315594,0.0558287022,0.6258204246,-1.1016946923,-0.3904981537,0.7134711632,0.552606573,0.3708084533,0.5053390815,-0.063558559,0.3228004811,0.6228078511,-0.2293999201,-0.5150021298,0.7217451963,-1.7027072873,0.0279258876,0.515789156,-0.6207880233,0.4735929088,0.6798608045,-0.0998971872,-0.204880295,1.0353325115,0.6423683147,-0.043533486,0.0594187267,0.6189351826,0.41246241,-1.0791562262,0.6787235401,-0.5683692922,0.1976477685,-0.4156370401,-0.1787421407,0.858239428,-0.3945223678,0.0602296336,-0.2766430129,-0.5693088485,1.040154036,0.8009136641,0.1362174022,-0.5316575328,-0.2279542715,-0.2595531985,-0.6386987403,0.6686271115,0.9333357136,-0.0896713743,0.8024000351,0.0379646996,-0.9076497675,0.2917622183,0.4790118322,0.3175024057,-0.3500840721,-1.4570387602,-0.527452493,-0.3272445273,0.7795927617,-0.6483349802,1.1949295778,-1.0065565965,0.8909265967,0.527606955,-1.1803003936,-0.0515917065,-0.3067924265,-0.658329608,1.1036072231,0.50126594,0.9058308796,-0.417593893,0.6678887611,-0.1994122213,0.2493023385,-0.4625370014,1.7555928966,-0.1099246306,0.4118868175,0.4396766319,0.1574277978,-1.5719113292,-0.5169525922,0.4313845048,0.7808387841,0.779308348,-0.8566200792,-0.2446887054,-0.7398341453,-1.2653383889,-0.6616778299,-0.1786915078,0.9142423636,0.4168280937,-1.4297681017,-1.8627853909,-0.0963732329,0.9413043596,0.6199045744,-1.6184602411,-0.2113739184,-0.6314367692,-1.0732144671,0.1582122482,-0.0671156654,-0.8912876334,-0.1364692915,-1.1125635137,0.975546578,0.705087102,0.6895847158,0.0249176006,0.7565393811,0.2200941323,0.3043070444,-0.8772145553,0.4992475572,0.2109494306,0.522901467,0.8981688162,-2.1722117649,1.2967056901,-0.2556782106,0.0432254874,-0.1743883958,-0.4089302561,0.1800700543,0.7036373201,-0.47117312,0.744812661,-0.1612539037,-0.1162616675,1.5675285272,2.2711780466,-0.4273257762,0.5406659353,-1.0444624175,1.3385030334,-0.8623313867,-0.3695302312,-0.2137570525,-0.9225464827,-0.0421673974,1.2577243134,-0.6689410261,0.3279600025,0.930300312,0.6277108058,0.3275853097,0.3436596534,-1.4665882891,0.3699931387,0.7641366592,-0.6099623111,-0.8926591464,1.4496850148,-0.8448347403,0.450401466,0.8080003677,0.5486639223,-0.1207645674,-0.6191238854,-0.1432991962,-0.2298970459,0.3725280141,0.8549066412,0.3472763339,-0.1351014473,0.6212373004,0.6566234,0.1596246564,-1.1161057859,0.8919755111,-0.6965248196,0.6842657563,0.2032392169,0.8994195407,-0.9695509976,0.3458284335,0.9688374917,0.6958653838,0.0357272624,0.887937499,0.7126736101,-0.2226921989,0.1880786778,0.1730006021,-0.3912696281,-0.5604940262,0.0899073174,-0.4367192343,1.0569134482,0.0955218867,1.2880467777,0.7629632065,-0.7832139841,0.0924405629,0.467363381,1.0585904083,-0.346368236,-0.3807662205,0.2170504987,-0.5028945618,-0.8198449017,-0.0093505887,1.0556413557,-0.23634346,0.4646376744,-0.323218211,-0.1772022197,1.353061879,-1.220512553,-0.7345945531,0.2349394239,-0.0734940544,-1.302413276,-0.0491010578,-1.3260505158,-0.7815583905,1.6522832592,0.4196357416,-1.4182591863,-0.162139895,-1.0907869723,-1.7536560447,-1.5793497032,-0.1850836469,-0.264755774,-0.3472501175,-2.8270778279,0.3040521975,0.1349192161,-0.2748897158,-0.7509942877,-0.194954235,1.0631873888,-0.3380395771,0.1513670382,-0.5920503756,0.739106612,1.0795722637,0.2209413738,-0.4651437664,-0.4459642848,-0.960332144,-0.5942694215,0.2777570444,-1.7500958719,-0.469535191,1.3354656369,0.0256429223,1.0372291101,-0.3104271858,0.2670216472,0.1358075335,0.0495120008,-1.4926051769,-0.598070744,0.1906956228,-0.6572516736,-0.2878023985,-1.0598467945,-0.1516307451,0.2199462189,-0.0114307996,0.3661780953,-0.532209572,0.8977679424,0.1315951521,0.3615021588,-0.8796903623,0.4790688771,1.0196283422,0.7415811915,-0.7033728869,-0.1493470325,-0.864561139,-1.0752485835,-0.1287726144,0.549762795,0.6325462168,-0.2773117136,0.2342611996,0.9922361071,0.6749869586,0.0663448972,-1.0567789864,0.9128247638,-0.7422749786,-0.3187931981,-0.9586042201,-0.7358535919,-0.2615763188,1.0624211121,-0.7831108275,0.687978166,0.5509452537,-0.491997768,-0.50260962,0.627394187,0.6995244705,-1.3765366226,0.6671345678,0.0972385511,0.371867676,-0.2767871807,-0.0280874119,0.3017128344,0.4657446967,0.5488173135,0.1047132802,-1.1982660538,0.0542211798,0.5759170557,0.1651781852,-0.8885807897,0.7347806468,-0.2887789101,0.3855907573,0.3535026982,0.1834765592,0.0978296282,0.7855570384,0.0077510618,0.1856544682,1.0283217965,0.6224013339,0.1685260491,-0.7790637524,0.7270749762,-0.5220438154,-0.7073168675,-0.3572996537,0.5049018623,0.1374765485,1.0388512762,0.7770889998,0.0773236272,1.3750361854,-0.3260878496,-0.6596409937,0.77154172,-0.9195448934,0.6729539103,1.0954544506,0.4219988183,0.501438689,0.9446488443,0.3722906904,-0.1860792587,-0.5865895995,-0.1542783682,1.1315631903,0.0839439839,0.017109117,-0.5521533714,0.6327272246,-0.9535723628,-0.8923097563,-0.1837762908,-0.4841079522,-0.4179119687,0.616306407,0.6951631475,0.8127837796,0.7551741535,-0.323658882,-0.395596732,-0.9654320881,0.8566412205,-0.7544912923,0.4599600422,-0.9326366268,-0.027100582,-0.2308185398,0.0256378486,-0.0687150153,-0.4437045633,-0.7196275965,0.0758534803,0.8478124942,0.2199467603,0.5451237536,-0.557251437,0.8736856652,0.4144854309,1.0265779372,0.1910119302,-0.8957341857,-0.4097063033,0.1822101545,-0.3832810165,-0.2179143426,-0.5673739762,-0.320121977,0.6127800747,0.6429250829,-0.7982510696,-0.2951523312,0.3751686894,-1.291340642,0.0824217448,0.2085476464,-0.9370373289,0.755178924,0.1800711101,-0.6971157696,0.6043089884,-0.8577465235,0.6608718161,0.9686816404,0.0648291194,0.398424017,-0.7313333526,0.6793255099,0.3733680936,0.5696246122,-0.8861081368,0.0069778634,0.2660549713,-0.5871065781,0.6225774866,-0.2902144583,1.039597716,-0.8481829727,0.1728165853,0.4287176,0.7702289326,-2.288592244,-0.8013641642,-1.1285762529,-0.1213273208,0.9427020105,-0.5869405403,0.6595388622,0.3673280858,-0.125640564,1.034873986,-0.4665734714,-0.617272787,-0.593945003,-0.4409727259,0.288558824,0.6731741861,0.8051731528,1.1072647371,0.0043167858,0.1202259584,-0.8431679306,-0.4262859225,1.0747915127,0.1560398581,0.1166595036,-0.7851885541,-0.5888057612,-0.0165986846,-0.3709335857,-0.062256116,-0.8802996529,-0.3174636226,-0.7126707182,0.0368061488,-0.2559133219,-0.790905799,0.7386163089,0.2911798497,-1.2106483452,-1.0046331673,0.071678267,-0.5311803655,0.397529302,-0.7902467482,0.2024042536,-0.3959650251,0.2011245803,0.2091826556,-0.732074156,0.0306140411,-0.4356703773,-0.3696353293,-0.3758866384,-0.7758161623,-0.557512057,-0.6677091971,-0.2269197169,0.8312040042,0.0545626084,-0.6197121839,-0.2715851231,-1.3058334201,-0.4877150282,0.3471703966,0.8222295818,0.9198289813,0.363521305,0.2565829055,0.7701513611,-0.016816172,-0.3430924427,0.2349201042,-0.7760460961,0.2680179395,0.0220979223,-0.1430054726,-1.2926806714,0.3434703418,0.0952810368,0.4300396643,0.3765451766,0.707764363,1.9664519917,0.1705947368,-0.2914433181,-0.54309995,0.0151227905,-0.3585056339,-1.078270839,0.4338784719,0.0225798305,0.0344295146,-0.5413037056,-0.1185741764,-0.5871535797,-1.2897385353,0.509432807,0.6792295376,-0.8666777466,-0.2055634958,-0.116141825,-0.2196664617,-0.3655476605,-0.6512097181,0.4202784865,-0.0764184966,-0.3265979296,-0.4678925946,0.9115349867,-0.9816019814,-0.3713457051,-0.1320104516,-0.135495962,-0.7164999917,0.8760476536,-0.2186167985,1.0518548301,1.4152062124,1.7889587089,-0.1348783187,-0.3314226919,0.238123125,-0.4939262352,0.3954182298,-2.2358059511,-0.8810303098,0.0166215595,1.2487794843,1.2088417052,-0.2711636658,1.0608745644,-0.2898701104,1.2468298891,-0.2653919966,-0.5443362419,0.399331224,-1.6312625659,0.6800323375,0.3131422287,0.5399768669,-0.2304559706,0.343536444,0.3632074005,0.4936169437,-0.6870670857,-0.5995628753,0.8221233113,-0.6103371434,-0.7422728201,0.9967775202,0.004969687,-0.0691381228,0.7946893411,0.6844882711,1.5735962651,-0.1462664891,-0.1280121263,-0.1143876362,-0.4804336165,0.812581919,0.4932203207,-0.6487530371,1.2097230188,0.1227162763,0.4106480872,-0.2374694951,-0.8678082671,1.1755463291,0.2648968816,0.1071578744,0.1149509109,-0.2434914428,1.1863071543,-0.3994687329,0.0300532395,0.6183317456,-0.3722971411,-0.4375465855,0.6257919171,-0.3747829907,0.7679894299,1.159085498,0.0397434929,0.6159445014,1.211649016,0.6974287613,-0.7267779323,0.363767954,0.5930489382,0.5194229518,-0.7144810066,-0.2414712614,0.1052930983,0.0653154413,-0.3728676745,1.2915108734,0.6414300356,-0.3934534431,0.9548398616,0.2264554836,0.9277322546,-1.2075878406,0.1393934126,0.3130612352,0.0844557048,-0.3910571895,0.0382407138,0.6208457718,-0.2076159216,0.7527185586,-0.5134419818,0.4413181244,-1.4450154441,-0.4486807389,-0.8606105113,-0.3251405425,1.0484605176,1.3941357506,0.1336564247,-0.5841060971,-0.5469787824,-0.6682048594,-0.4844043337,-0.8763733679,-0.2613354213,0.4169787362,0.9884853081,-0.6149126202,0.5082331647,-0.7308247999,-1.3294095339,-0.3369733294,0.910697316,-1.0633066848,-0.0010198628,2.1581114283,0.7252148356,-0.5618841613,-0.7190452911,-0.3237487994,1.1187484966,0.9875265101,0.2443870939,-0.2261296357,-0.4069811175,0.4849928324,0.61528392,3.1920132886,0.4022149354,0.0248350078,0.6274193821,0.0795308797,0.3788716851,0.4491675585,0.5753020111,-0.6652927875,-1.020591199,-0.2910264525,0.2590276451,-0.4699394976,0.0857471673,0.3806238887,0.2100612143,0.5422364884,0.4069284504,-0.3352527607,0.6230126441,-0.7506221213,0.6713195204,-0.3915273164,-0.0635738745,-0.5911976435,-0.3083632809,0.529583849,0.3513069744,-0.8083089286,1.0404569755,1.002414577,-0.9535157415,-0.1381853793,-0.0519594163,0.0852268526,0.5631277316,-0.4676789596,0.3037642954,-0.4566657565,0.6432353688,0.0168015653,1.2383876253,0.2082498128,0.249237727,0.4751046317,0.7909149268,0.5282216209,-0.2245977064,0.3288836671,-0.8395955091,0.3202711977,-0.0615446597,-0.6154594134,0.4846305916,-0.1879401129,0.4614598059,1.0293832021,0.3055708063,-0.7257674208,-0.4230280712,-0.0044286186,-0.1796508778,0.2332550478,-0.1797904369,-0.353141731,0.2651903699,0.4563415866,0.3909253263,0.1965673268,0.3882617691,0.6557532815,0.1510702502,0.2771841141,-0.7644449374,0.6358378335,-0.4977036478,1.0599795052,0.640181955,0.3301177583,-0.0812415127,0.2760670555,-0.1779981878,-0.7830588552,-0.3837469844,-0.6962868232,-0.8588009084,-0.8293356768,-0.4734965834,-0.3985067734,-0.6188861715,-0.1693533254,0.4671560232,-0.1995992289,0.0925953417,0.2072645434,0.5969166654,-0.9870240408,0.4819786458,-0.1832866649,0.1605162719,-0.3372266484,-0.3741291315,0.9307176009,-0.9560443362,0.1147633885,0.988683769,-0.0052163162,2.7384485227,0.6283100119,0.8330566858,-0.5278134113,0.2472626772,0.319275701,0.5730711265,0.2110012451,0.1590086618,0.216333492,-0.5384769174,0.1249042381,-1.4633019553,-0.2305837884,-0.3519603669,0.6459873271,-0.7172308863,0.0766965088,-0.0988418721,-0.9273393757,0.0150928993,0.6752810356,2.1028019161,-4.1354383339,0.6511290534,-0.7602808875,0.2547079336,0.84937452,-0.6891147681,0.642932367,-1.053089335,-1.0256316037,-0.1968376547,1.1408816515,0.3485309354,0.9077178761,-0.3853201997,-0.8522386389,-0.6955937469,-0.2297788046,-1.0183315567,0.8895476592,-0.7880047644,0.4771230416,-2.0313459893,-0.8707785103,-0.3616468602,0.3816339151,-0.0247388894,-0.4290048772,-0.3352050692,0.9036893004,-1.0498699479,-0.5553778472,-0.5707219101,0.6159717356,-0.6174011893,0.290857162,0.1084298476,-0.6035817786,-0.287736151,-0.0790147193,0.8448272208,-0.4836305525,-0.2727813608,-0.6484251465,-0.1304534128,-0.1400099537,-0.3568220625,0.8707963411,-0.0546415677,0.5566107671,0.1877841808,0.5517223871,0.2410333448,0.0278034714,-1.0725486696,1.0227668515,-0.4683227932,1.1933186379,0.2860200566,-0.4293090257,1.1349680467,-0.4175556702,-0.6936055239,0.6678053804,0.650094747,0.620086498,0.6982628383,0.2111161356,-0.3450563277,0.2126308776,-0.0725181104,1.1802194853,0.4883001209,-0.2332094383,0.0397560131,0.9275934261,0.5197923557,0.4623263174,0.2989800015,-0.115927062,-0.6784367004,-0.2749279295,0.9321537616,0.19705923,-0.9149476032,0.1016750717,-0.8835875925,-0.2371053102,0.5946859638,-0.146267116,-0.5340296888,-0.3467563644,0.1411853717,-0.6427018867,0.5004654091,0.0326057946,-0.8362023066,0.0765675784,-0.5047008501,-1.3116389611,0.8457719328,-0.1043124864,-0.3350122717,0.4406810893,0.1965059902,-0.7796038382,-0.1003304031,-1.0612292348,1.1721104703,-0.6968770137,-0.3978178895,0.42263712,-0.9708826187,-0.7738184815,0.3995943919,0.4964908011,-0.1180257786,1.4348564598,0.5508902908,0.3542046722,-0.1876118644,0.4920872775,0.1967757205,0.3975127093,-0.755385575,0.8419514372,-0.3104938525,-0.8205698688,-0.2081830603,-0.1141169053,-0.7654797106,-0.895702669,-0.9037602317,0.6170623061,0.7371830638,-0.10951704,0.7909776925,-0.9136750083,0.6419031681,-0.8069121125,-1.1430913395,-0.2532268982,-0.7774281023,-0.963213798,-0.379674918,-0.3289016536,-0.1137395424,0.7351550671,-0.2203529832,-0.0462787587,0.9500428217,-0.0706421199,0.6097422574,-0.5825257096,0.0160241184,-0.6680819192,0.622481156,-0.782591314,-0.2481645201,-1.0671957457,-0.1485204906,0.9323807589,-0.433831768,0.5639024219,0.996107699,1.0166101262,0.4413473678,1.1568954682,-0.9875383045,-0.7705161473
