encog,BasicNetwork,java,3.4.0,1,1738676461923
[BASIC]
[BASIC:PARAMS]
[BASIC:NETWORK]
beginTraining=0
connectionLimit=0
contextTargetOffset=0,0,0,0,0,0,0,0,0
contextTargetSize=0,0,0,0,0,0,0,0,0
endTraining=8
hasContext=f
inputCount=6
layerCounts=1,8,8,8,8,8,8,8,7
layerFeedCounts=1,7,7,7,7,7,7,7,6
layerContextCount=0,0,0,0,0,0,0,0,0
layerIndex=0,1,9,17,25,33,41,49,57
output=0.0117430883,-1,0.9965030197,-0.8952029612,0.525173481,-0.6358484245,-1,0.9958272258,1,0.9915566331,-0.4658150985,-0.4475144802,0.791793132,0.0636615793,0.9635649648,0.9999904298,1,0.5486614533,-0.8672205779,-0.964017313,-0.9832521445,-0.9393152894,1,0.8510767592,1,0.9998899888,-0.2982765015,0.9999909894,-0.9968394307,-0.9999929723,-0.9999999071,0.6412797411,1,-0.0061928955,-0.7135171223,0.999041309,0.5734838421,0.998075674,0.4574328366,-0.9424272976,1,-0.9718148825,-0.1813583752,-0.4057930953,-0.6940607183,-0.5075307256,0.955630096,-0.6166294238,1,-0.9912143389,-0.2380848236,-0.8510617065,0.586330023,-0.6218840369,-0.0109026503,0.015985751,1,0.047666667,0.028333333,-0.325333333,-0.065666667,0.14,-0.002,1
outputCount=1
weightIndex=0,8,64,120,176,232,288,344,393
weights=0.0901863227,-0.7650068377,-0.1321224927,0.9410996463,0.5788307573,-0.0320983119,0.678492468,-0.0879664083,0.500366485,0.7252670489,36.9881099265,-0.7791913131,-47.3357871986,-0.0567518019,-0.1472003766,0.7457966265,0.8519957874,0.3446805333,-2.503280257,0.081621462,-10.8404634209,0.7742822951,0.3144385198,0.9341143653,0.493917056,0.4357584848,-0.9591622602,-1.6975351224,13.8900408663,-0.0726228725,-0.7946129926,-0.839113744,0.8281416162,-0.100300985,-0.142174316,-0.2029025922,-0.0509423379,-0.0846551044,0.5968754446,-0.6994382189,0.3561782351,-0.4044815799,0.3943471451,-0.631177519,0.9455943555,-0.5092800138,-0.6556466321,0.469646937,0.7453107033,-0.5584084634,-0.4755525662,0.527193527,-14567.3864424537,-0.2292552802,-0.108328506,-0.9011755088,0.7477261267,-0.2916072412,-1.3401140509,0.9132793435,0.7631035198,0.5822022091,0.3866075967,-0.1111541347,-0.2554462593,-0.5394810217,-0.9533496557,0.4771949816,-0.87864824,0.4764619781,0.8127090032,-0.0393602151,0.3651052336,-0.7413255894,0.609176924,0.46874088,0.3385335896,0.2317853634,-0.0415981987,-0.1781690795,0.9540546639,0.7175523607,0.8720748037,-0.9203970472,-0.5867528339,-0.7713742777,-0.3666778285,0.0852473465,0.6943808987,0.8190854832,-0.9657941026,-0.0508335249,-0.4144710857,-0.5029519252,0.2543167657,0.3217331557,0.3699359369,-0.2713318654,-0.0221501946,0.429004648,0.4295360141,0.5227697972,0.8844947748,-0.8461328037,0.5096793892,-0.894197636,-0.0172535383,-0.3472877028,-0.1406288766,-0.3338920134,0.4173815057,0.4268544178,-3.4426778549,-4.2658680157,-1.2690524822,-0.5105893181,-0.2597775392,0.0952523044,1.1960354702,1.2318071568,-0.7813732182,-0.1069521082,0.6432150519,-0.8836911883,-0.5754535049,-0.2522319516,-0.9080620566,-0.4036168366,-0.0733391563,-0.5322455628,-0.0357626828,0.5629868685,0.6229974218,0.5648800187,0.1266674983,0.2964298176,0.0252262066,-0.9207782763,-0.9592247467,-0.385090747,0.2473188651,0.584483501,-0.4041282294,-0.6334223713,-0.6811198418,-1.0927307707,-0.1480168093,0.1946307768,1.0799388284,0.2064192807,0.1762338148,-0.5166360942,-0.3011833848,0.2513006722,-0.7717603738,1.2382605567,0.0238892683,-1.3372868583,0.5262886993,-1.0008874416,6.9968971451,6.1937418028,1.591069406,-4.1592472381,-0.8422597078,-0.2662452009,-0.1156667121,1.2972685342,-0.5584154638,-1.0183592795,0.1546595266,0.0407262822,0.3331907395,-1.0276075731,0.8939953864,0.1328664949,0.6592305188,-5.3011918954,1.0152077598,0.2479196732,0.6292881078,0.0752511684,1.6101388222,0.8241282799,0.0340393089,-0.6034190648,-0.6322302946,-0.3154264966,0.6801621738,-0.3657774559,-0.0677610818,-0.5008441696,0.2618206866,0.3550581621,0.8985884808,-0.014495953,1.9064079804,7.7531938876,-0.4900684228,-0.3904846402,0.0360413449,0.7014453763,-0.7949858022,-2.162343758,0.3175751703,-0.1167472972,0.079235419,-0.8781614106,10.0828189647,4.6459748294,0.0467212781,4.5747849969,-0.6860253821,-9.6593068097,0.0430106676,-0.4284931291,0.724186258,0.830267933,-1.4335926294,-8.6520949628,-0.9448791598,0.8349035992,1.6338484634,0.6495578926,-1.6201681571,0.6705431621,0.3817714705,1.4863350046,0.0205577926,-0.7534422747,0.2454622621,0.5504215994,-1.1776432521,-1.1644765175,0.19221247,0.5915398454,0.1667215015,0.0248972436,0.4562100819,-0.5311324302,1.3902987821,0.0424179643,-3.0499176778,1.2290133735,0.2922133142,0.5201919532,0.8119085232,0.2317108232,0.0307743392,-0.1522202656,-0.0450572173,-0.1482259035,0.059516988,2.3060227746,-0.4638282063,1.2429353966,0.5626432931,0.2572022016,-0.5821221616,-0.6692726916,0.3384929257,1.0045156575,-0.1170799653,-0.3149523268,0.2703116256,0.191200471,0.732712303,-4.6740606493,0.0820794199,0.0472636101,0.5668494929,1.1693257791,-0.625243517,-0.6511817259,-0.632446657,-0.4308063558,0.6890596099,-0.5382445046,0.4524452231,0.3557661157,-0.1195869915,-0.8803722773,-0.1118988817,0.7351708771,0.8480625369,-0.3775486536,0.9227521801,-0.2101456322,0.0772247658,-0.1142287924,0.410802662,-0.7792223467,0.6562027085,-1.5051640147,0.647792998,-0.8867915051,-0.1589341466,-0.4263956044,0.7242425292,0.2018811754,0.7513274304,-0.3816174278,0.5851042015,0.5092876207,0.7700854452,0.0617692789,-0.3479989774,-0.6085473003,-0.2426561412,-0.5992858742,0.5079944922,0.242543894,0.2739685238,0.7180408057,0.6558876802,0.8831915004,0.462621396,-2.7900499246,0.7452688986,-0.1275089475,0.4305757828,0.0217484571,-0.5109472922,-0.2195118257,0.0656522597,-0.300179005,0.1478465758,-0.3983766454,-0.7274851754,-0.6899695265,-0.1116062832,0.8138050319,0.5445978375,0.0823111635,0.8534520238,0.7613770322,-0.8922279545,1.2086633347,0.7950730455,-0.5674380254,0.9230368817,0.5245826993,-0.2193762283,0.2764372783,1.6392452361,-1.3182498132,5.1498534779,-1.0936125423,-1.1339400582,-0.2267671293,-0.9905732568,0.656704776,0.5936220896,-0.5810869523,-1.3327838574,-0.704733987,-2.3861627287,-0.4735410838,0.3269475326,0.7314948836,0.5175811912,0.1017375315,-2.2371252379,-0.1113872697,-0.808259533,1.2556776529,2.1806514711,0.2508823181,1.2087834,0.0976018674,1.8237136359,0.7013962141,0.2447034567,0.6627760827,0.277918315,-0.1935934526,-0.219667142,0.4243513421,-0.6492087006,0.9146921045,0.9949258265,0.6856611792,-1.3761202834,-0.1625526647,-1.1902444229,0.0703871175,0.9647329514,-1.0340139928,-1.8285497845,-0.5272323669,-1.3181440967,0.1817130956,-0.4453076172
biasActivation=0,1,1,1,1,1,1,1,1
[BASIC:ACTIVATION]
"org.encog.engine.network.activation.ActivationTANH"
"org.encog.engine.network.activation.ActivationTANH"
"org.encog.engine.network.activation.ActivationTANH"
"org.encog.engine.network.activation.ActivationTANH"
"org.encog.engine.network.activation.ActivationTANH"
"org.encog.engine.network.activation.ActivationTANH"
"org.encog.engine.network.activation.ActivationTANH"
"org.encog.engine.network.activation.ActivationTANH"
"org.encog.engine.network.activation.ActivationLinear"
